{
  "kind": "card-fixed-info-autoencoder-v1",
  "dim": 16,
  "feature_names": [
    "hp_norm",
    "retreat_norm",
    "basic",
    "stage1",
    "stage2",
    "ex",
    "mega_ex",
    "tera",
    "ace_spec",
    "skill_count_norm",
    "attack_count_norm",
    "attack_damage_sum_norm",
    "attack_damage_max_norm",
    "attack_energy_count_sum_norm",
    "card_type_0",
    "card_type_1",
    "card_type_2",
    "card_type_3",
    "card_type_4",
    "card_type_5",
    "card_type_6",
    "energy_type_0",
    "energy_type_1",
    "energy_type_2",
    "energy_type_3",
    "energy_type_4",
    "energy_type_5",
    "energy_type_6",
    "energy_type_7",
    "energy_type_8",
    "energy_type_9",
    "energy_type_10",
    "weakness_-1",
    "weakness_1",
    "weakness_2",
    "weakness_3",
    "weakness_4",
    "weakness_5",
    "weakness_6",
    "weakness_7",
    "weakness_8",
    "resistance_-1",
    "resistance_1",
    "resistance_6"
  ],
  "feature_mean": [
    0.25564325,
    0.27292818,
    0.47355959,
    0.27229676,
    0.09155485,
    0.09550118,
    0.02367798,
    0.02525651,
    0.02288871,
    0.08405683,
    0.30702447,
    0.10849776,
    0.19481715,
    0.19363325,
    0.83346488,
    0.06077348,
    0.02131018,
    0.04814522,
    0.02052092,
    0.00631413,
    0.00947119,
    0.23914759,
    0.12549329,
    0.08208366,
    0.10891871,
    0.06077348,
    0.11049724,
    0.09707972,
    0.09234412,
    0.05524862,
    0.02762431,
    0.00078927,
    0.19415943,
    0.1112865,
    0.17363852,
    0.07813733,
    0.12233623,
    0.03235991,
    0.148382,
    0.0718232,
    0.06787687,
    0.82636148,
    0.05130229,
    0.12233623
  ],
  "feature_std": [
    0.19616167,
    0.20208354,
    0.49930042,
    0.44514182,
    0.28839654,
    0.29390595,
    0.15204385,
    0.15690322,
    0.14954872,
    0.12017466,
    0.17810828,
    0.12725268,
    0.21967259,
    0.14127331,
    0.3725603,
    0.23891435,
    0.14441627,
    0.21407303,
    0.14177379,
    0.07921022,
    0.09685808,
    0.42656303,
    0.33127741,
    0.27449214,
    0.31153719,
    0.23891435,
    0.31350853,
    0.29606628,
    0.28951111,
    0.2284649,
    0.16389389,
    0.02808279,
    0.3955522,
    0.31448659,
    0.37879834,
    0.26838757,
    0.32767373,
    0.17695407,
    0.35547825,
    0.25819495,
    0.2515345,
    0.37879834,
    0.22061361,
    0.32767373
  ],
  "encoder_weight": [
    [
      -0.00386125,
      0.02490614,
      -0.00587437,
      -0.09409537,
      0.05199522,
      0.03465949,
      -0.04101255,
      -0.00907948,
      0.02319497,
      0.0195051,
      0.01097292,
      0.0451099,
      -0.03831791,
      0.01455468,
      -0.04308991,
      0.04100464
    ],
    [
      -0.02025561,
      -0.02375423,
      -0.05071362,
      -0.04457637,
      0.00347742,
      0.0111746,
      0.05222655,
      0.01326314,
      -0.12348227,
      -0.09015509,
      0.00192927,
      -0.00885592,
      0.00513143,
      0.0423796,
      0.08327814,
      -0.04896587
    ],
    [
      -0.02182598,
      0.0902259,
      0.04341181,
      0.02510539,
      -0.01924445,
      -0.08315394,
      2.379e-05,
      -0.00801809,
      -0.05993148,
      -0.03422141,
      0.00576709,
      -0.0467264,
      -0.0240884,
      0.01680159,
      0.00118543,
      -0.01227268
    ],
    [
      0.02384923,
      0.04818867,
      -0.00191241,
      -0.04760289,
      0.03512825,
      -0.00618125,
      0.0536893,
      -0.07330106,
      0.0561949,
      -0.00746917,
      -0.06093246,
      -0.00591963,
      0.01321756,
      0.01520179,
      -0.07494233,
      -0.05811417
    ],
    [
      -0.01329766,
      -0.01962796,
      -0.00425964,
      0.01914496,
      -0.0834265,
      0.01415071,
      0.04585164,
      -0.01825975,
      -0.0467372,
      0.05112362,
      0.02088593,
      0.04813107,
      -0.01286593,
      -0.05310355,
      -0.00634641,
      -0.02126622
    ],
    [
      0.05087321,
      -0.00358145,
      -0.10065117,
      -0.06188022,
      0.05358457,
      0.03126008,
      -0.04294947,
      -0.02232725,
      0.03112443,
      0.0142245,
      0.03981942,
      0.01875879,
      -0.01717556,
      -0.0093117,
      0.0494834,
      -0.11177079
    ],
    [
      -0.02518627,
      -0.00804248,
      -0.06291999,
      0.00595361,
      -0.02881307,
      0.0425298,
      -0.00290696,
      0.02863074,
      0.04823862,
      0.0306487,
      -0.04256439,
      -0.06189989,
      0.10189632,
      -0.00868141,
      -0.03217102,
      0.02384598
    ],
    [
      0.00486395,
      0.03542955,
      -0.01077738,
      0.00023269,
      -0.0300059,
      0.02328604,
      -0.04926221,
      0.01645218,
      0.07943553,
      -0.08524182,
      -0.12181525,
      0.03859981,
      0.11733764,
      -0.04203442,
      -0.06668341,
      0.01278949
    ],
    [
      -0.02259305,
      -0.02378887,
      -0.0200889,
      0.04215889,
      -0.02296913,
      0.00183816,
      -0.00127649,
      -0.00914721,
      -0.00732621,
      -0.05033261,
      -0.02223678,
      -0.07055989,
      -0.05724223,
      0.04673693,
      0.00661456,
      -0.00462419
    ],
    [
      0.0423236,
      -0.0240523,
      -0.00029017,
      0.04592284,
      0.02321023,
      -0.07539035,
      0.04445295,
      -0.00212301,
      -0.05079165,
      -0.04770542,
      -0.04302283,
      0.06576966,
      -0.04678037,
      -0.02372591,
      -0.08103654,
      -0.01107423
    ],
    [
      0.02059202,
      -0.01987859,
      -0.05595665,
      -0.02176281,
      0.03296867,
      0.05134267,
      0.09289554,
      -0.02805403,
      -0.02405004,
      0.00400179,
      0.01762965,
      0.01809734,
      -0.01179076,
      0.04653431,
      -0.11770575,
      0.05226196
    ],
    [
      -0.04786657,
      -0.07243612,
      0.01003441,
      0.03441945,
      0.02200821,
      0.01600937,
      -0.06150564,
      0.11608026,
      0.04987719,
      -0.04844753,
      -0.03390883,
      0.01913076,
      -0.07920001,
      0.03379615,
      -0.04116689,
      0.06710808
    ],
    [
      0.02893047,
      -0.15022371,
      -0.01975358,
      -0.11166432,
      0.05422782,
      0.01614743,
      0.01122978,
      -0.0813496,
      0.09755322,
      0.10868621,
      -0.04825071,
      0.03276237,
      -0.03548211,
      0.02390297,
      -0.08174363,
      0.09923398
    ],
    [
      -0.06848341,
      -0.02860179,
      0.0025168,
      -0.06763641,
      -0.01376719,
      -0.01063582,
      -0.01776734,
      -0.09619666,
      -0.01425348,
      9.782e-05,
      -0.00262539,
      0.01517612,
      -0.02236324,
      0.06928863,
      -0.045929,
      -0.00059666
    ],
    [
      -0.06242008,
      -0.03449093,
      -0.08272214,
      -0.0083681,
      -0.05159465,
      -0.0137378,
      0.00638756,
      -0.02466959,
      -0.01054499,
      -0.09815582,
      0.04263621,
      0.02903074,
      -0.08079611,
      0.07386887,
      -0.06759778,
      -0.04046664
    ],
    [
      0.01833788,
      -0.00906001,
      0.01212261,
      -0.06057957,
      0.09539308,
      -0.05311409,
      -0.06882855,
      0.06096669,
      -0.01684029,
      0.00825112,
      -0.04039883,
      -0.02157045,
      0.02123743,
      -0.0666373,
      0.03663666,
      -0.04100196
    ],
    [
      -0.02886295,
      0.0016601,
      0.03278294,
      0.00247517,
      -0.04099744,
      0.03311257,
      -0.07883639,
      -0.03514426,
      0.00153286,
      -0.06480584,
      -0.01109287,
      -0.01499087,
      0.03798648,
      -0.04750905,
      -0.02529366,
      0.0270033
    ],
    [
      -0.1011424,
      0.16105172,
      -0.00744857,
      -0.0139746,
      0.02822712,
      -0.0081025,
      -0.07776712,
      0.05164814,
      0.02744704,
      -0.02263617,
      -0.00833979,
      0.02747521,
      -0.04335237,
      0.00770152,
      0.0361301,
      -0.03796191
    ],
    [
      -0.0680685,
      -0.00441595,
      -0.04755506,
      0.05155235,
      0.01703661,
      0.021778,
      0.0066253,
      0.01843103,
      -0.03887621,
      0.03923538,
      0.07480861,
      -0.01934488,
      -0.01654102,
      -0.01556502,
      -0.00063128,
      -0.04128852
    ],
    [
      0.01629136,
      0.00460853,
      0.07286504,
      0.00382082,
      0.0044709,
      0.04680804,
      -0.02496825,
      0.07033125,
      -0.02983973,
      -0.0471893,
      -0.0152931,
      -0.00580232,
      -0.07182058,
      -0.01830321,
      -0.07810514,
      0.06784794
    ],
    [
      -0.00499463,
      -0.03616924,
      -0.04699346,
      -0.01169269,
      -0.01942603,
      -0.04979284,
      -0.05175737,
      0.01306846,
      -0.03199304,
      0.04834111,
      0.05612024,
      0.00184131,
      0.02876701,
      -0.07163099,
      0.0449998,
      -0.01485618
    ],
    [
      0.04157691,
      0.07402943,
      -0.09523884,
      0.03957597,
      -0.05829713,
      0.01246697,
      -0.04122299,
      0.00653803,
      -0.00441798,
      0.02805542,
      -0.00277499,
      -0.05769728,
      -0.02189528,
      0.01451219,
      0.02840968,
      -0.08461972
    ],
    [
      0.04009689,
      0.04041757,
      0.04417569,
      -0.00913142,
      0.03831259,
      -0.05359911,
      0.03973075,
      -0.01470894,
      0.04892801,
      0.05520473,
      -0.04310643,
      -0.00013176,
      -0.01271108,
      0.07471389,
      0.01774992,
      -0.03398913
    ],
    [
      -0.00198083,
      0.05649086,
      0.11111406,
      -0.11133897,
      -0.00800515,
      0.08349299,
      -0.05576836,
      -0.06677813,
      0.02333334,
      0.04955175,
      -0.01422898,
      0.03780067,
      0.00595354,
      0.09035849,
      0.01120004,
      0.05232274
    ],
    [
      -0.03696498,
      -0.01089339,
      -0.00568725,
      0.06668355,
      0.03736158,
      -0.02914089,
      0.01620062,
      0.05286802,
      -0.00779016,
      -0.01455491,
      0.01265683,
      -0.07470019,
      0.01358041,
      0.01656095,
      -0.04173183,
      0.02670751
    ],
    [
      -0.0644024,
      -0.04202246,
      -0.02384043,
      0.08807768,
      -0.09836787,
      0.0273943,
      0.05317522,
      -0.00022805,
      0.04208283,
      -0.05361259,
      -0.11221442,
      0.04159656,
      -0.06173553,
      -0.03119926,
      -0.04946358,
      0.07541734
    ],
    [
      0.04757942,
      -0.03052495,
      0.02026594,
      0.00227202,
      0.00272539,
      -0.0123122,
      -0.02238472,
      0.00895419,
      0.00513823,
      -0.01386723,
      0.01944415,
      -0.0511248,
      0.00874795,
      0.03770412,
      0.0473502,
      -0.03864077
    ],
    [
      0.07785625,
      0.00542157,
      -0.01141121,
      -0.04526769,
      0.01035917,
      0.00345223,
      -0.05940033,
      -0.06284375,
      -0.01929371,
      -0.0317344,
      0.05716079,
      0.07291298,
      0.05538992,
      0.01870691,
      -0.0142874,
      -0.01645326
    ],
    [
      0.03947282,
      0.11234518,
      0.04222261,
      -0.01559834,
      -0.00528463,
      -0.01091085,
      -0.0540096,
      -0.01728672,
      0.0245168,
      0.08495761,
      -0.00646407,
      0.07680876,
      0.08597024,
      -0.0051973,
      0.07499577,
      0.03069319
    ],
    [
      -0.01610838,
      -0.01942147,
      0.00342765,
      -0.00608029,
      0.0109552,
      0.00807365,
      0.00724126,
      -0.05819394,
      0.00238617,
      -0.06670908,
      0.02692029,
      0.04845214,
      0.01722422,
      0.01695678,
      0.02205907,
      -0.03054803
    ],
    [
      -0.02303353,
      0.02441877,
      0.04800541,
      0.00051676,
      0.12122399,
      0.00066242,
      0.04628573,
      0.06125848,
      0.00823445,
      -0.0452971,
      -0.0561059,
      4.201e-05,
      0.04601714,
      0.02947009,
      -0.00797159,
      -0.02433518
    ],
    [
      0.02998894,
      -0.10681242,
      0.00705922,
      0.01198941,
      -0.06832672,
      0.10883001,
      -0.06936306,
      -0.05488727,
      -0.06036559,
      0.05557722,
      -0.04237209,
      0.03457887,
      0.02719663,
      0.00262348,
      -0.06453909,
      -0.03533475
    ],
    [
      0.10654923,
      -0.05731424,
      -0.02408407,
      0.01623336,
      0.03258011,
      -0.00743671,
      0.04647214,
      -0.01203136,
      0.0445112,
      0.02403731,
      -0.09882957,
      0.05853181,
      0.12027019,
      -0.0651442,
      0.02654981,
      0.05272236
    ],
    [
      -0.08344611,
      -0.08868531,
      -0.06817273,
      -0.03033239,
      -0.04553246,
      0.04699531,
      0.01025497,
      -0.065433,
      0.0453549,
      0.09495126,
      0.05890836,
      0.06337237,
      0.00660505,
      0.04379599,
      -0.04388574,
      0.01794131
    ],
    [
      -0.0028937,
      0.05391837,
      0.02550724,
      -0.04474101,
      0.01742442,
      0.06105984,
      -0.05401148,
      -0.02726369,
      -0.02292729,
      -0.06539518,
      0.050031,
      0.07804239,
      0.03352696,
      0.02779,
      -0.02300673,
      0.03704029
    ],
    [
      -0.06159222,
      0.06358896,
      0.05825913,
      0.01908227,
      -0.00671672,
      0.02086075,
      0.00493437,
      0.0823536,
      0.00642273,
      -0.09587168,
      0.03824653,
      0.10597003,
      0.03514297,
      0.05895077,
      0.01349906,
      -0.09642253
    ],
    [
      -0.09313165,
      -0.07168753,
      -0.01375084,
      0.02085969,
      0.03158361,
      -0.01398048,
      0.02500951,
      -0.00334,
      -0.03981389,
      0.05317629,
      -0.01446079,
      -0.13665628,
      -0.05852297,
      0.01165838,
      -0.15863504,
      -0.02261198
    ],
    [
      -0.02148815,
      -0.0818872,
      -0.07365941,
      -0.03892042,
      -0.0333036,
      0.05188665,
      0.00710293,
      -0.08678143,
      -0.03959069,
      0.0341362,
      0.08857675,
      0.01676106,
      0.02709592,
      0.09894257,
      -0.00276629,
      -0.0244101
    ],
    [
      -0.07360353,
      -0.04522733,
      0.1136782,
      -0.08299362,
      -0.01140589,
      -0.06504942,
      0.02434562,
      0.02002127,
      -0.02701281,
      0.02194039,
      0.04187953,
      0.02384148,
      0.08290685,
      0.01935681,
      -0.0056534,
      -0.00509829
    ],
    [
      -0.04621631,
      0.0269879,
      -0.04649102,
      0.13668966,
      0.10072387,
      -0.0246107,
      -0.02885374,
      0.06249675,
      -0.10425047,
      -0.01634964,
      0.01619846,
      -0.06787916,
      -0.03330109,
      0.00261459,
      0.0028246,
      -0.01048844
    ],
    [
      0.0353735,
      0.03273726,
      0.00215773,
      0.05514123,
      -0.02504089,
      -0.06889529,
      -0.0920758,
      -0.08703545,
      -0.03001491,
      0.04582994,
      0.00498774,
      -0.02680598,
      -0.04768578,
      -0.02350093,
      -0.02020475,
      -0.02740164
    ],
    [
      -0.06781603,
      -0.00016171,
      0.07635442,
      -0.11254404,
      -0.0256662,
      -0.09760061,
      0.03265841,
      -0.01183472,
      -0.09705424,
      -0.0127324,
      0.09309263,
      0.01580172,
      0.06496774,
      -0.02267105,
      -0.07837048,
      0.03112131
    ],
    [
      -0.01522287,
      -0.10607767,
      0.04181146,
      0.02016731,
      -0.00403213,
      0.04465374,
      -0.05726621,
      0.01937959,
      -0.04288209,
      0.03548077,
      -0.04183942,
      0.0918309,
      0.02310389,
      0.07501362,
      -0.04907636,
      -0.02120795
    ],
    [
      0.03374577,
      -0.14230107,
      -0.08454543,
      0.05214602,
      0.02404626,
      0.03830887,
      -0.0334629,
      0.00728795,
      -0.0476884,
      -0.05397175,
      -0.09619468,
      -0.05125432,
      -0.04239269,
      -0.01166249,
      -0.20619815,
      -0.10930523
    ]
  ],
  "encoder_bias": [
    -0.000961,
    0.00027757,
    0.00089037,
    0.00155236,
    0.00066564,
    -0.00022116,
    -0.00023772,
    0.00146927,
    0.00083753,
    -0.00042224,
    -0.00017583,
    -0.00153452,
    0.00107627,
    0.00274159,
    -0.00161424,
    -5.315e-05
  ],
  "decoder_weight": [
    [
      -0.0343353,
      0.00370382,
      -0.04087025,
      -0.04173527,
      -0.11561742,
      0.10189584,
      -0.05930218,
      0.08283511,
      0.08329139,
      0.02772279,
      -0.04300264,
      -0.00131835,
      -0.06301334,
      -0.00107734,
      -0.01786139,
      0.04663918,
      0.05327103,
      0.0852471,
      -0.0202341,
      0.0579425,
      -0.0321818,
      -0.03278293,
      -0.02191022,
      -0.05598213,
      0.02941202,
      0.02634737,
      0.07865748,
      0.00160206,
      0.00868936,
      -0.02993155,
      -0.05288963,
      0.02549745,
      0.03086301,
      -0.05849532,
      0.03568016,
      -0.09441969,
      -0.02306018,
      -0.02679843,
      -0.04326302,
      -0.04208213,
      0.05163795,
      0.01837689,
      0.05715071,
      0.01777501
    ],
    [
      -0.09331319,
      -0.04114392,
      -0.05052565,
      0.01310168,
      0.0378578,
      0.00526497,
      -0.03895329,
      -0.02071038,
      0.00719621,
      -0.06561421,
      -0.01384302,
      -0.0289338,
      -0.06454799,
      -0.05037838,
      -0.01042279,
      -0.03550075,
      -0.03604864,
      0.06457507,
      0.01152787,
      0.08092074,
      -0.05662023,
      -0.07146798,
      0.06225777,
      0.06129437,
      -0.04582613,
      -0.08519765,
      -0.01603661,
      -0.10808712,
      -0.01195292,
      -0.12153816,
      -0.01535267,
      -0.10901954,
      0.00243732,
      0.06358754,
      -0.0059229,
      0.05097589,
      -0.05218762,
      -0.05792199,
      -0.07447019,
      0.03407985,
      -0.00264061,
      0.10101903,
      -0.07391806,
      -0.03378313
    ],
    [
      -0.00638882,
      0.066352,
      0.09548618,
      -0.03527802,
      -0.06125069,
      -0.09745574,
      0.05468986,
      -0.01097765,
      -0.03787391,
      -0.00950753,
      -0.12814754,
      -0.09514628,
      0.03751479,
      0.01465489,
      0.01074412,
      -0.0509646,
      0.03092581,
      0.07851336,
      -0.07237597,
      0.00989468,
      -0.03102522,
      0.00490882,
      0.01018712,
      0.01522791,
      -0.04788313,
      0.00364823,
      -0.04615715,
      -0.02733249,
      -0.00079082,
      0.03200037,
      -0.02625647,
      -0.01615196,
      0.04762129,
      -0.0263126,
      -0.00329612,
      0.06435719,
      -0.00218586,
      -0.01174419,
      0.02065434,
      -0.08246599,
      0.02069834,
      0.08122908,
      0.02818876,
      -0.10361216
    ],
    [
      -0.01897149,
      -0.06936186,
      -0.00433953,
      -0.01210985,
      -0.06761821,
      0.04032452,
      -0.01085082,
      0.02347935,
      0.03450011,
      0.06895195,
      0.04009125,
      -0.10193854,
      -0.02783356,
      -0.1318727,
      -0.03955589,
      0.03185029,
      0.04996461,
      0.06854182,
      -0.00542211,
      0.01544113,
      0.00556091,
      0.07275211,
      0.06245561,
      -0.03574677,
      0.19396103,
      0.00316439,
      0.01101092,
      0.0082164,
      0.02290092,
      0.0291721,
      -0.03650918,
      0.07293582,
      0.01381484,
      0.05567272,
      0.05585406,
      -0.07800312,
      -0.03082136,
      -0.0616052,
      -0.00124355,
      0.03575482,
      0.02156357,
      -0.07327724,
      0.02356132,
      0.10437332
    ],
    [
      -0.059439,
      -0.0068266,
      0.00200074,
      0.00529012,
      -0.01525608,
      0.09732997,
      0.06208998,
      0.04319874,
      -0.04271082,
      0.11475144,
      0.01884547,
      -0.01888069,
      -0.00584264,
      -0.01834628,
      0.09970575,
      0.01885719,
      -0.00891301,
      -0.10410034,
      0.03493736,
      -0.05145539,
      -0.06170102,
      0.0292836,
      -0.03906164,
      0.03333053,
      0.05925995,
      -0.10607724,
      0.00417888,
      -0.08478673,
      -0.00960433,
      0.0450395,
      -0.04742681,
      0.08332977,
      -0.0042351,
      -0.06651111,
      -0.00368284,
      0.0318791,
      -0.06090071,
      -0.0067817,
      -0.08550934,
      0.0771363,
      0.00201295,
      -0.03550928,
      0.05074061,
      -0.04831368
    ],
    [
      -0.00268634,
      0.09877115,
      -0.01651975,
      0.07313775,
      0.02043233,
      -0.02628077,
      -0.00304712,
      0.0104404,
      -0.02258963,
      -0.05216797,
      -0.02764156,
      -0.05785574,
      0.02063987,
      0.0309016,
      0.04180263,
      -0.10220723,
      0.04227094,
      -0.00497238,
      -0.06787998,
      0.01259524,
      0.0316471,
      0.01562684,
      0.03019884,
      0.06094938,
      0.02637386,
      -0.00563651,
      -0.10138981,
      -0.03076257,
      0.01173983,
      -0.00269534,
      0.03104208,
      0.04282682,
      -0.00493072,
      0.09578484,
      -0.04079963,
      0.05892593,
      -0.02569984,
      -0.03175484,
      0.01474556,
      -0.02123426,
      0.02352016,
      -0.08569508,
      0.02260812,
      -0.025575
    ],
    [
      -0.00383807,
      -0.0013414,
      -0.05349847,
      0.04170629,
      -0.05460573,
      -0.05747826,
      0.04248321,
      0.03823583,
      0.02233912,
      0.0025094,
      0.13294437,
      -0.05432619,
      -0.03276389,
      -0.03506907,
      0.06909522,
      -0.00067284,
      0.03900491,
      0.03251,
      -0.01039583,
      -0.04374403,
      -0.05844086,
      0.08879452,
      0.05605303,
      0.02373444,
      -0.00402621,
      0.00410559,
      -0.02619058,
      -0.01511493,
      -0.11709703,
      -0.01102813,
      -0.00622439,
      0.00856868,
      -0.00804198,
      0.04456894,
      0.00153662,
      0.03457328,
      -0.11328524,
      -0.05498551,
      0.09653998,
      -0.06497642,
      -0.02245892,
      0.04166025,
      -0.05124867,
      0.03279042
    ],
    [
      -0.0711869,
      -0.09892662,
      -0.06242587,
      -0.09151403,
      0.00196202,
      -0.01532285,
      0.02151371,
      -0.04922626,
      0.11893808,
      -0.0068114,
      -0.00721918,
      0.02323194,
      -0.01190226,
      -0.03670386,
      -0.0021962,
      0.04764537,
      0.02231805,
      0.05206476,
      -0.0272231,
      -0.02969828,
      0.09667078,
      -0.0062757,
      0.01497014,
      0.04258934,
      0.07083596,
      -0.05944321,
      -0.01216946,
      -0.04495325,
      -0.02120233,
      -0.1236085,
      0.00513633,
      -0.14908369,
      0.02246085,
      0.00671539,
      0.02000854,
      -0.05218511,
      0.054954,
      -0.06054884,
      -0.05334027,
      -0.02856704,
      -0.0529546,
      -0.00462576,
      0.0374507,
      -0.08732607
    ],
    [
      -0.01460446,
      0.03117642,
      -0.00993704,
      0.03891859,
      -0.07577289,
      0.06226821,
      -0.06665819,
      0.02936975,
      0.06709986,
      0.0979906,
      0.02253999,
      0.05959987,
      -0.01291553,
      -0.02214882,
      0.04722678,
      0.00410777,
      -0.00073204,
      -0.05489305,
      0.00479789,
      0.03158173,
      -0.04231108,
      -0.0157748,
      0.07858791,
      0.01433814,
      -0.02291066,
      -0.04679584,
      -0.04273484,
      -0.01805217,
      0.07171341,
      -0.03256474,
      0.0943796,
      -0.05000562,
      -0.00599966,
      0.04571057,
      -0.01359347,
      -0.03594691,
      -0.01055077,
      0.01174718,
      -0.08168914,
      -0.02547348,
      -0.01077987,
      -0.0123797,
      0.03377867,
      -0.03430987
    ],
    [
      -0.0228782,
      -0.01279241,
      0.02229766,
      -0.01498876,
      0.08189039,
      -0.04830603,
      0.0702852,
      -0.05093027,
      -0.0073268,
      0.02908004,
      0.08756315,
      0.04227256,
      -0.02078223,
      0.05414479,
      -0.02866695,
      -0.02570047,
      0.01874468,
      0.01436431,
      0.05994763,
      -0.0307376,
      0.03086463,
      0.04949033,
      0.00942288,
      -0.01320344,
      -0.03200041,
      0.03574176,
      -0.00665712,
      0.02753344,
      0.00533492,
      -0.01543585,
      -0.05817615,
      0.00940772,
      0.05301091,
      0.02118125,
      0.02879395,
      0.00311679,
      0.06859168,
      -0.00901697,
      -0.07963639,
      0.00469992,
      -0.00504264,
      -0.02767284,
      0.01561473,
      -0.0002455
    ],
    [
      0.01553725,
      -0.00962521,
      0.02483001,
      0.00347049,
      0.08658206,
      -0.03966874,
      -0.00859264,
      0.00133269,
      -0.08949504,
      -0.08595929,
      0.11088873,
      -0.09989076,
      0.01646493,
      -0.0460086,
      -0.02515068,
      -0.10866228,
      -0.04914206,
      0.02914384,
      -0.05906785,
      0.02508989,
      0.02020714,
      0.09018693,
      -0.01628833,
      0.06424426,
      0.04579661,
      -0.03045356,
      -0.08562944,
      0.10054323,
      -0.05905736,
      -0.0318291,
      0.02841105,
      0.05116447,
      -0.05870424,
      0.01852304,
      -0.01034155,
      0.05911937,
      0.10870053,
      -0.07022879,
      0.04464712,
      -0.15000475,
      0.00642322,
      -0.03532547,
      0.09158365,
      -0.01206256
    ],
    [
      -0.01965241,
      -0.01419215,
      -0.04005038,
      0.01318621,
      0.00823814,
      0.05013684,
      0.070125,
      0.04739869,
      -0.06848365,
      -0.07070453,
      -0.03282583,
      0.06949464,
      0.00298578,
      -0.02366521,
      0.01038487,
      -0.07093663,
      -0.05813001,
      0.03059564,
      -0.01832044,
      -0.02232602,
      0.01626684,
      -0.04108641,
      -0.02615402,
      -0.00417667,
      -0.00080153,
      0.00841167,
      -0.0848138,
      0.00311092,
      0.04478413,
      0.11347816,
      -0.05168239,
      0.02217043,
      -0.01334224,
      0.06181103,
      0.04368938,
      0.08953682,
      -0.01491485,
      -0.01997614,
      -0.02128517,
      -0.00397438,
      0.00172761,
      0.13149498,
      0.10457937,
      -0.08885062
    ],
    [
      0.00280327,
      -0.08216922,
      -0.08707291,
      0.03226843,
      0.01646401,
      -0.05884334,
      0.08817926,
      -0.03536666,
      -0.05330731,
      0.04053392,
      -0.00636392,
      -0.02618503,
      -0.01941963,
      -0.00753843,
      -0.02899121,
      0.00963095,
      -0.07801099,
      -0.05982108,
      0.03479648,
      -0.03997016,
      0.03696217,
      0.07902278,
      -0.01834329,
      0.01455056,
      0.08922807,
      0.02714923,
      0.07080543,
      0.08101527,
      0.04962052,
      -0.01021116,
      -0.02794338,
      -0.04873891,
      0.05075246,
      0.02921574,
      -0.01109111,
      0.04246307,
      -0.0526018,
      0.06143342,
      0.00761712,
      -0.02048835,
      -0.01288093,
      0.01899893,
      0.11774318,
      -0.10630482
    ],
    [
      0.03112317,
      0.09145617,
      0.05124669,
      -0.00092708,
      0.08252511,
      -0.04812031,
      -0.06180045,
      0.02401317,
      -0.07840344,
      -0.14318616,
      0.0796803,
      0.05844815,
      0.05434972,
      0.0070771,
      0.04875366,
      -0.07007973,
      0.06972456,
      0.02374371,
      0.02541879,
      -0.10305106,
      0.02666137,
      0.04229517,
      0.06959574,
      0.05807179,
      -0.00039717,
      -0.0223574,
      0.02745234,
      0.03348513,
      0.01398639,
      -0.00051806,
      0.08038835,
      -0.06137933,
      -0.03889397,
      -0.02089382,
      0.06974286,
      0.08834473,
      0.05987764,
      0.05251709,
      -0.07104396,
      0.1013667,
      0.021496,
      -0.01354045,
      0.01841481,
      -0.01844962
    ],
    [
      -0.00830708,
      0.00359764,
      -0.0144474,
      -0.14502712,
      -0.01162972,
      0.01249434,
      0.01296442,
      -0.02289587,
      0.03281321,
      0.0643753,
      -0.05121246,
      0.04204936,
      -0.12594455,
      -0.09262761,
      -0.07144376,
      -0.09863925,
      -0.04282952,
      0.07701169,
      0.06778141,
      -0.00300798,
      0.09315708,
      0.03293662,
      -0.01738878,
      0.01388349,
      -0.03395879,
      0.02320212,
      -0.07395363,
      0.04125566,
      -0.01721565,
      0.04724551,
      -0.07576969,
      -0.02387842,
      0.02866384,
      0.04058926,
      -0.04990982,
      0.08450743,
      -0.01384369,
      -0.02612807,
      0.05983126,
      0.00450899,
      0.05421445,
      0.123145,
      0.04209245,
      -0.04221437
    ],
    [
      -0.01296346,
      0.03122533,
      0.01123345,
      -0.04427997,
      -0.02492427,
      0.03139952,
      0.12615168,
      -0.12447281,
      0.03561657,
      -0.0154504,
      0.04637234,
      0.06209101,
      0.02059095,
      -0.03951098,
      -0.06863026,
      -0.09487451,
      0.06747559,
      -0.01299078,
      -0.03146719,
      -0.0011576,
      -0.06668107,
      0.00366833,
      0.06560284,
      0.05322797,
      -0.06750293,
      0.08148428,
      -0.05634116,
      -0.08682545,
      -0.0501398,
      -0.05387326,
      0.0064758,
      -0.05441741,
      -0.07250546,
      0.00206173,
      0.09247401,
      -0.03910413,
      0.01858029,
      0.00423265,
      0.13813713,
      -0.11282071,
      0.05466123,
      -0.0393963,
      -0.0350232,
      -0.02848242
    ]
  ],
  "decoder_bias": [
    -6.038e-05,
    -2.261e-05,
    3.717e-05,
    0.00019094,
    -0.00026285,
    0.00015421,
    4.936e-05,
    -3.423e-05,
    0.00019493,
    0.00038589,
    -4.95e-06,
    -0.00024434,
    5.758e-05,
    3.129e-05,
    3.607e-05,
    0.00023041,
    0.00014574,
    -0.00015385,
    -0.00013242,
    0.00016748,
    -0.00020851,
    -8.81e-06,
    0.00010532,
    -9.582e-05,
    0.00019432,
    1.22e-05,
    6.49e-06,
    -0.0001644,
    9.636e-05,
    -5.42e-05,
    -1.586e-05,
    0.00024793,
    4.569e-05,
    5.92e-05,
    4.672e-05,
    -0.00038704,
    -0.00017162,
    -5.141e-05,
    -9.94e-06,
    -0.00013408,
    -2.331e-05,
    -0.00039765,
    -7.992e-05,
    0.00016721
  ],
  "card_embeddings": {
    "1": [
      0.67254278,
      0.30463048,
      0.88488647,
      0.35227065,
      0.13025004,
      0.31148247,
      -0.11320486,
      0.79989766,
      0.01890719,
      -0.08945476,
      -0.45840876,
      -0.18972495,
      -0.29899915,
      -0.6285574,
      -0.21358199,
      0.74779466
    ],
    "2": [
      0.59612732,
      0.37858944,
      0.93145923,
      -0.0100197,
      -0.0138195,
      0.65736211,
      -0.41098299,
      0.71602992,
      -0.04375211,
      -0.07567004,
      -0.39440892,
      -0.05389056,
      -0.24337731,
      -0.56174305,
      -0.22574273,
      0.85138084
    ],
    "3": [
      0.51951902,
      0.15635105,
      0.84722789,
      0.54387707,
      0.13445063,
      0.37174168,
      -0.17965093,
      0.8648888,
      -0.15258998,
      -0.29410693,
      -0.3136116,
      -0.40651857,
      -0.22266522,
      -0.72180431,
      -0.38375551,
      0.81981782
    ],
    "4": [
      0.40094259,
      0.01671989,
      0.82257084,
      0.64357701,
      -0.37685199,
      0.53608338,
      -0.01105347,
      0.81501068,
      0.047321,
      -0.44683398,
      -0.68307576,
      -0.01754574,
      -0.48419575,
      -0.79874944,
      -0.44426856,
      0.88233212
    ],
    "5": [
      0.6890258,
      0.09495808,
      0.86904018,
      0.3823807,
      0.02403169,
      0.41754033,
      -0.29590427,
      0.82468528,
      -0.11192518,
      -0.29183317,
      -0.29419436,
      -0.34056116,
      -0.23752252,
      -0.6880775,
      -0.11890343,
      0.73854952
    ],
    "6": [
      0.74307156,
      0.20784949,
      0.8414034,
      0.23804523,
      0.05029002,
      0.45868285,
      -0.40887199,
      0.73081124,
      -0.19155645,
      -0.34831371,
      -0.17042607,
      0.05456412,
      -0.08277421,
      -0.71696701,
      -0.30838457,
      0.76780598
    ],
    "7": [
      0.68083951,
      0.52314645,
      0.88756706,
      0.32901192,
      -0.00291052,
      0.41884825,
      -0.39708095,
      0.79431587,
      -0.0440735,
      0.03709842,
      -0.36920346,
      0.07351807,
      0.02689299,
      -0.75415147,
      -0.01145847,
      0.82636088
    ],
    "8": [
      0.55378715,
      0.10718876,
      0.85635309,
      0.35310301,
      0.06321008,
      0.47717522,
      -0.19922834,
      0.71041023,
      -0.11779182,
      -0.49926365,
      -0.24241831,
      0.02042002,
      -0.19223713,
      -0.71156159,
      -0.17221487,
      0.73375941
    ],
    "9": [
      0.55294326,
      -0.1149723,
      -0.34912269,
      0.39267099,
      -0.31856111,
      -0.63433783,
      -0.42758387,
      0.38051101,
      -0.19583494,
      0.66684066,
      0.30161714,
      -0.09752058,
      0.65557452,
      -0.90302454,
      0.79251679,
      -0.15944417
    ],
    "10": [
      0.43943959,
      -0.26785724,
      -0.46115279,
      0.60237181,
      -0.44914963,
      -0.62693497,
      -0.43453342,
      0.32702346,
      -0.24246035,
      0.43696139,
      0.16118696,
      -0.51510238,
      0.38186942,
      -0.82613887,
      0.80839964,
      -0.18942172
    ],
    "11": [
      0.55294326,
      -0.1149723,
      -0.34912269,
      0.39267099,
      -0.31856111,
      -0.63433783,
      -0.42758387,
      0.38051101,
      -0.19583494,
      0.66684066,
      0.30161714,
      -0.09752058,
      0.65557452,
      -0.90302454,
      0.79251679,
      -0.15944417
    ],
    "12": [
      0.89408814,
      -0.99959443,
      -0.02412779,
      0.77431457,
      -0.99233216,
      0.99602743,
      -0.99317956,
      -0.92610661,
      -0.98323473,
      0.98307303,
      -0.87160431,
      0.66231661,
      0.8900197,
      -0.80633153,
      -0.84613325,
      -0.8487308
    ],
    "13": [
      0.43943959,
      -0.26785724,
      -0.46115279,
      0.60237181,
      -0.44914963,
      -0.62693497,
      -0.43453342,
      0.32702346,
      -0.24246035,
      0.43696139,
      0.16118696,
      -0.51510238,
      0.38186942,
      -0.82613887,
      0.80839964,
      -0.18942172
    ],
    "14": [
      0.55294326,
      -0.1149723,
      -0.34912269,
      0.39267099,
      -0.31856111,
      -0.63433783,
      -0.42758387,
      0.38051101,
      -0.19583494,
      0.66684066,
      0.30161714,
      -0.09752058,
      0.65557452,
      -0.90302454,
      0.79251679,
      -0.15944417
    ],
    "15": [
      0.55294326,
      -0.1149723,
      -0.34912269,
      0.39267099,
      -0.31856111,
      -0.63433783,
      -0.42758387,
      0.38051101,
      -0.19583494,
      0.66684066,
      0.30161714,
      -0.09752058,
      0.65557452,
      -0.90302454,
      0.79251679,
      -0.15944417
    ],
    "16": [
      0.55294326,
      -0.1149723,
      -0.34912269,
      0.39267099,
      -0.31856111,
      -0.63433783,
      -0.42758387,
      0.38051101,
      -0.19583494,
      0.66684066,
      0.30161714,
      -0.09752058,
      0.65557452,
      -0.90302454,
      0.79251679,
      -0.15944417
    ],
    "17": [
      0.55294326,
      -0.1149723,
      -0.34912269,
      0.39267099,
      -0.31856111,
      -0.63433783,
      -0.42758387,
      0.38051101,
      -0.19583494,
      0.66684066,
      0.30161714,
      -0.09752058,
      0.65557452,
      -0.90302454,
      0.79251679,
      -0.15944417
    ],
    "18": [
      0.56909177,
      -0.16549029,
      -0.00782437,
      0.28637327,
      -0.07757057,
      -0.73506755,
      -0.23583993,
      0.32830663,
      -0.04032367,
      0.71916018,
      0.18550821,
      0.03701471,
      0.66290172,
      -0.86091247,
      0.78762378,
      -0.06494931
    ],
    "19": [
      0.58950409,
      -0.36825014,
      -0.0763826,
      0.31800167,
      -0.18261309,
      -0.67351046,
      -0.4067386,
      0.39177153,
      -0.16998487,
      0.60120297,
      0.36255479,
      -0.12498672,
      0.69843871,
      -0.88581055,
      0.82188364,
      -0.08548421
    ],
    "20": [
      0.65733721,
      -0.26429427,
      -0.17780665,
      0.16767962,
      -0.1570771,
      -0.64471894,
      -0.50866584,
      0.1713599,
      -0.24793129,
      0.55947904,
      0.47062328,
      0.27632773,
      0.77125931,
      -0.89749851,
      0.74574698,
      -0.01801159
    ],
    "21": [
      -0.17051258,
      -0.03046883,
      -0.11836823,
      -0.46719068,
      -0.09167752,
      0.19873013,
      0.09196619,
      -0.45526042,
      0.45239797,
      0.56985923,
      0.16318329,
      0.45156888,
      0.16489989,
      0.22013095,
      -0.18012711,
      0.3821842
    ],
    "22": [
      -0.07215063,
      -0.01525058,
      -0.21743823,
      -0.23395065,
      -0.28311005,
      0.01280067,
      0.03484165,
      -0.27443941,
      -0.28648675,
      -0.08787696,
      0.54684726,
      0.22889554,
      0.19868671,
      0.12173126,
      0.26295827,
      -0.05248037
    ],
    "23": [
      -0.19264785,
      -0.6000688,
      -0.42675503,
      -0.6966887,
      0.06278498,
      0.31910175,
      0.1211366,
      -0.50823329,
      0.1199423,
      0.00166218,
      0.29530037,
      0.48209485,
      -0.10160615,
      0.49742244,
      -0.39062988,
      0.28044535
    ],
    "24": [
      -0.14555237,
      -0.09964343,
      -0.25709921,
      -0.65895049,
      0.05758088,
      -0.04789087,
      -0.07751302,
      -0.12915283,
      -0.02333511,
      0.13373223,
      0.36886487,
      0.0135823,
      -0.19675802,
      0.27114614,
      0.04747543,
      -0.188832
    ],
    "25": [
      -0.08682063,
      0.15544108,
      0.19350755,
      -0.39407993,
      0.10361501,
      -0.06314182,
      0.14828728,
      -0.22960076,
      -0.03385387,
      -0.09716441,
      0.14792576,
      0.1387345,
      -0.18055934,
      0.44771535,
      -0.07706326,
      0.2790624
    ],
    "26": [
      0.11571498,
      0.23694478,
      0.15500014,
      -0.40081046,
      0.20461011,
      0.08151204,
      0.2477868,
      -0.28374669,
      0.28248369,
      0.01544178,
      0.03844123,
      0.19169778,
      -0.04090833,
      0.32421343,
      -0.22440163,
      0.16209929
    ],
    "27": [
      -0.02708196,
      0.19763133,
      0.23921011,
      -0.33157726,
      0.11478597,
      -0.06350872,
      0.10259204,
      -0.18900748,
      0.09937708,
      -0.00581814,
      0.14894062,
      0.14418488,
      -0.17743333,
      0.38070165,
      -0.13716516,
      0.32810561
    ],
    "28": [
      0.17283332,
      0.45478747,
      0.32685984,
      0.1204376,
      -0.01797183,
      -0.34023004,
      0.19803398,
      -0.00143448,
      -0.16410124,
      -0.22084508,
      0.13294354,
      0.11027456,
      -0.03474485,
      0.07427841,
      0.14835951,
      -0.01629139
    ],
    "29": [
      0.26736843,
      0.10563232,
      -0.20083334,
      -0.6864671,
      0.48149789,
      0.25784237,
      0.01243905,
      -0.35163534,
      0.49179751,
      0.14340998,
      0.13115156,
      0.34899496,
      -0.2324307,
      0.35153328,
      -0.21155558,
      -0.03479196
    ],
    "30": [
      -0.2118267,
      0.29862059,
      0.05501337,
      -0.8413921,
      0.16913376,
      0.68649748,
      -0.43497239,
      -0.06099935,
      0.71751316,
      -0.64375986,
      -0.54091359,
      0.75622871,
      0.44509492,
      0.51353004,
      -0.478236,
      -0.0896144
    ],
    "31": [
      -0.31743042,
      0.47883987,
      0.58571335,
      -0.40683057,
      -0.14251893,
      0.29366703,
      -0.01805978,
      0.03508343,
      0.04155996,
      -0.21617928,
      0.27842056,
      0.40323824,
      0.00426379,
      0.51966129,
      0.06389947,
      0.07645865
    ],
    "32": [
      0.00600713,
      0.04388279,
      -0.05011958,
      0.16629454,
      0.07477085,
      -0.27184373,
      -0.06243172,
      -0.29687094,
      0.07831471,
      0.13701806,
      0.0834422,
      -0.33669626,
      -0.26192777,
      0.01045936,
      -0.42320205,
      0.16985443
    ],
    "33": [
      -0.41588126,
      -0.01258426,
      -0.00029963,
      0.32966762,
      0.04640718,
      -0.24874667,
      0.3482243,
      0.17737515,
      -0.3157436,
      0.00939066,
      0.24037041,
      -0.68419151,
      -0.16544693,
      0.02536271,
      -0.46342483,
      0.11643426
    ],
    "34": [
      -0.32504209,
      -0.0629375,
      -0.01840975,
      0.20434937,
      0.15546273,
      -0.14831365,
      0.32929915,
      0.12550513,
      -0.0082717,
      0.07295012,
      0.06587366,
      -0.64477103,
      -0.08947076,
      -0.06660363,
      -0.47333219,
      -0.02248398
    ],
    "35": [
      -0.48447751,
      -0.05633106,
      -0.00425427,
      0.16476522,
      0.08747174,
      -0.22712544,
      0.29087412,
      0.06046906,
      -0.29286726,
      0.03703713,
      0.23558673,
      -0.64770098,
      -0.23861609,
      0.12745222,
      -0.54559357,
      0.17487315
    ],
    "36": [
      -0.39314878,
      -0.03175512,
      0.34284515,
      0.3508018,
      -0.54274833,
      -0.38758825,
      0.46199217,
      0.16139634,
      -0.16072057,
      -0.36394991,
      -0.20000481,
      0.16039389,
      -0.11335904,
      -0.29245548,
      -0.07037436,
      0.27928352
    ],
    "37": [
      -0.39485817,
      -0.50006072,
      -0.16672269,
      -0.39887321,
      -0.16844089,
      -0.14657041,
      0.30521384,
      0.03424698,
      -0.09340375,
      -0.39588983,
      -0.20402277,
      0.39177081,
      -0.44798002,
      0.01706457,
      -0.04602427,
      0.17614198
    ],
    "38": [
      0.21720449,
      -0.19027774,
      -0.41727526,
      0.78383997,
      0.36326528,
      0.08288747,
      -0.28205938,
      0.41453393,
      -0.34560036,
      -0.30974736,
      -0.20411689,
      -0.66439063,
      -0.42619406,
      0.00861715,
      -0.00924663,
      -0.44926201
    ],
    "39": [
      0.13601131,
      0.00480818,
      0.12315077,
      0.0658451,
      -0.14965754,
      -0.36181135,
      -0.31249855,
      -0.33858906,
      -0.11298874,
      0.09849727,
      0.23564019,
      -0.32525426,
      -0.3720076,
      0.12532829,
      -0.04073361,
      0.09174472
    ],
    "40": [
      0.1783145,
      -0.61026124,
      -0.73997638,
      -0.79306016,
      -0.25012188,
      0.67941337,
      -0.4460941,
      -0.66288993,
      0.4615604,
      -0.04488059,
      0.20308206,
      0.7667709,
      0.53753476,
      0.28999619,
      -0.60733768,
      0.07016585
    ],
    "41": [
      -0.20181425,
      -0.40463723,
      -0.30197142,
      -0.50753162,
      -0.11573451,
      0.13898784,
      0.01998685,
      -0.39932888,
      -0.10558838,
      0.0125469,
      0.46995571,
      0.37679069,
      -0.06776352,
      0.39132034,
      -0.19622098,
      0.30111198
    ],
    "42": [
      0.04579869,
      0.15618024,
      0.28356505,
      0.06805113,
      0.57367944,
      -0.13776313,
      0.55270286,
      0.30443959,
      0.01072016,
      -0.29716366,
      -0.35519992,
      -0.01948171,
      0.47609267,
      0.00501875,
      0.08300598,
      0.12134073
    ],
    "43": [
      -0.22753942,
      0.21487675,
      0.15716124,
      -0.15492324,
      -0.3367159,
      -0.27665294,
      0.18277919,
      -0.01805608,
      -0.25913926,
      0.02908613,
      0.33079411,
      -0.2247787,
      0.11219367,
      0.11256657,
      0.10028641,
      -0.09427531
    ],
    "44": [
      -0.13077261,
      -0.48038366,
      -0.25213876,
      -0.71346254,
      0.21299533,
      -0.19540812,
      -0.15454795,
      -0.05090618,
      0.04740439,
      0.06956067,
      0.13694805,
      0.21957417,
      -0.44526838,
      0.29822909,
      -0.10308823,
      -0.03412414
    ],
    "45": [
      0.04518089,
      0.36806892,
      0.29570051,
      -0.13756731,
      0.03127504,
      -0.11272,
      0.11907131,
      -0.15494301,
      0.10843754,
      0.02018352,
      0.19883337,
      0.07871574,
      -0.06791062,
      0.26225081,
      -0.07677486,
      0.23941308
    ],
    "46": [
      -0.32536859,
      -0.20929903,
      0.24178713,
      -0.81164791,
      0.33198534,
      0.5109208,
      -0.35535135,
      -0.00670979,
      0.46981659,
      -0.06556752,
      0.17337507,
      0.62552945,
      -0.47108398,
      0.70529792,
      -0.19119378,
      0.23506079
    ],
    "47": [
      -0.40674181,
      0.03534835,
      0.07586409,
      0.38072502,
      0.01491075,
      -0.30538886,
      0.23387356,
      0.26756176,
      -0.27456171,
      0.00620192,
      0.2197264,
      -0.69910999,
      -0.14117454,
      -0.07880214,
      -0.30483999,
      0.04914594
    ],
    "48": [
      -0.34450975,
      -0.11825646,
      -0.07017025,
      0.1495836,
      0.16963059,
      -0.13301637,
      0.36909803,
      0.1412062,
      -0.10871428,
      -0.00599872,
      0.05605699,
      -0.64552271,
      -0.10005339,
      -0.01670473,
      -0.42167872,
      -0.04706678
    ],
    "49": [
      -0.43020096,
      -0.65077662,
      -0.15737015,
      0.06586464,
      0.05073895,
      -0.12340737,
      0.40517595,
      0.21864556,
      -0.31830416,
      0.1527166,
      0.03593486,
      -0.29263274,
      -0.48455411,
      -0.0799732,
      -0.60271676,
      0.28664469
    ],
    "50": [
      -0.4532126,
      -0.1256358,
      -0.00386459,
      0.25919972,
      0.07153047,
      -0.24182268,
      0.32200858,
      0.13035933,
      -0.26484697,
      0.03986799,
      0.20536776,
      -0.6671389,
      -0.22360224,
      0.09015453,
      -0.52422137,
      0.18596506
    ],
    "51": [
      -0.44080697,
      -0.46298702,
      -0.1641989,
      -0.19337042,
      0.33110595,
      -0.00859032,
      0.37261138,
      -0.04577087,
      0.06288094,
      0.11565494,
      -0.03300925,
      -0.54134905,
      -0.33049691,
      0.25699638,
      -0.71975254,
      0.28675498
    ],
    "52": [
      -0.27796989,
      -0.22835886,
      -0.24841358,
      -0.51601078,
      -0.25910068,
      0.33539537,
      0.00695869,
      -0.09161015,
      0.7859082,
      -0.50281662,
      -0.76028551,
      0.57274949,
      0.40605709,
      -0.26723544,
      -0.69680881,
      0.34351571
    ],
    "53": [
      0.14457784,
      0.12240173,
      0.07995069,
      0.11745945,
      -0.2294162,
      -0.39226461,
      -0.19344777,
      -0.37190607,
      -0.34115774,
      -0.02438368,
      0.28713817,
      -0.39054815,
      -0.26093132,
      0.11268516,
      0.15521443,
      -0.10396678
    ],
    "54": [
      0.18327512,
      -0.17946304,
      -0.49291684,
      0.76818103,
      0.33819261,
      0.08704751,
      -0.16194653,
      0.43327538,
      -0.57398114,
      -0.48076781,
      -0.18047857,
      -0.68824553,
      -0.38319435,
      0.07255817,
      0.19945665,
      -0.56411157
    ],
    "55": [
      0.15198914,
      -0.56617409,
      -0.61609643,
      0.51832064,
      0.55109191,
      0.33959421,
      -0.04085914,
      0.17185255,
      -0.24083933,
      -0.36850299,
      -0.40180869,
      -0.55113772,
      -0.51504311,
      0.33854031,
      -0.38666065,
      -0.39342352
    ],
    "56": [
      0.24942812,
      -0.01379651,
      0.19434997,
      0.23732188,
      -0.15677345,
      -0.54875027,
      -0.30701998,
      -0.29137881,
      -0.1820486,
      0.01562503,
      0.12417634,
      -0.24710956,
      -0.40391193,
      -0.04032399,
      -0.00217354,
      -0.0222342
    ],
    "57": [
      0.01121565,
      -0.0962323,
      -0.12318935,
      -0.1306084,
      -0.22501358,
      -0.15759052,
      -0.00445514,
      -0.34918053,
      -0.11820422,
      0.01394138,
      0.45965781,
      0.3944245,
      0.04427221,
      0.04789217,
      -0.13154443,
      0.07378959
    ],
    "58": [
      -0.13133464,
      -0.65077033,
      -0.47813606,
      -0.68495713,
      -0.12829964,
      0.27990269,
      -0.00103115,
      -0.69107279,
      -0.38308719,
      -0.02657538,
      0.64963876,
      0.32506076,
      -0.00979537,
      0.73612608,
      -0.19917379,
      0.20496572
    ],
    "59": [
      -0.15347212,
      0.39738919,
      0.48052723,
      -0.27971142,
      -0.20324192,
      -0.32365971,
      0.09356928,
      -0.03463546,
      -0.13658662,
      0.26302031,
      0.30867657,
      0.17435677,
      0.4247702,
      0.03010026,
      0.28844668,
      0.23479846
    ],
    "60": [
      -0.04735269,
      0.381993,
      0.4677924,
      -0.38857537,
      -0.1065241,
      -0.23135065,
      0.07865293,
      -0.09036234,
      0.15851141,
      0.31212009,
      0.15049481,
      0.23486758,
      0.49791229,
      -0.06990043,
      0.29311883,
      0.07581641
    ],
    "61": [
      -0.39604682,
      -0.13900112,
      -0.070453,
      -0.45458255,
      -0.16501799,
      0.07970365,
      -0.0770033,
      -0.32142819,
      0.19422704,
      0.45206519,
      0.25437448,
      0.42968856,
      -0.04668095,
      0.3780484,
      -0.06736343,
      0.52200656
    ],
    "62": [
      -0.07856076,
      -0.18857961,
      0.21653187,
      -0.29134478,
      0.67374308,
      -0.05044773,
      0.49087114,
      0.22703957,
      0.11411166,
      -0.26287007,
      -0.44320551,
      0.12131553,
      0.28232708,
      0.22392854,
      -0.12084658,
      0.34829975
    ],
    "63": [
      0.17287293,
      0.2529811,
      -0.15982888,
      -0.40795431,
      0.73586039,
      0.06444855,
      0.45740479,
      0.22884487,
      -0.13190933,
      -0.39455399,
      -0.16723657,
      0.11879921,
      0.39628981,
      0.07004498,
      0.34517472,
      -0.31158425
    ],
    "64": [
      0.0241569,
      -0.23466932,
      -0.52902516,
      0.59382524,
      -0.09724171,
      0.17823281,
      -0.11501803,
      0.11889716,
      -0.14255724,
      -0.0022022,
      -0.35957831,
      -0.73648052,
      -0.51306306,
      -0.02491523,
      -0.52380218,
      -0.55609388
    ],
    "65": [
      -0.17787784,
      0.21657914,
      0.20319532,
      -0.09182783,
      -0.31409697,
      -0.27084781,
      0.12338293,
      0.04243943,
      -0.10337395,
      0.12390951,
      0.31722043,
      -0.20996922,
      0.08952693,
      0.0445368,
      0.0166169,
      -0.00788055
    ],
    "66": [
      -0.09217946,
      -0.1034887,
      0.02478116,
      -0.40585393,
      -0.07833652,
      -0.25459865,
      0.28200411,
      -0.03908967,
      -0.14974205,
      -0.10868259,
      0.01665245,
      0.04059798,
      -0.02106184,
      0.11444989,
      -0.05547542,
      -0.1776257
    ],
    "67": [
      -0.02378116,
      0.35142737,
      0.27564525,
      -0.1936547,
      -0.0081076,
      -0.16171667,
      0.09235913,
      -0.0903237,
      -0.1014449,
      -0.1624304,
      0.17865276,
      0.03593207,
      -0.04128479,
      0.2794559,
      0.24785804,
      0.07373828
    ],
    "68": [
      0.03128467,
      0.42710541,
      0.25467808,
      -0.13247843,
      -0.00523291,
      -0.11962441,
      0.19315129,
      -0.14936952,
      -0.08013362,
      -0.10161374,
      0.23295976,
      0.04190965,
      -0.01078144,
      0.27701985,
      0.06428297,
      0.11836542
    ],
    "69": [
      0.12642825,
      0.37430779,
      0.16538838,
      -0.31533434,
      0.1313412,
      0.04567474,
      0.29176271,
      -0.29366941,
      0.17307398,
      -0.04272268,
      0.09281071,
      0.13856959,
      0.05245678,
      0.28260994,
      -0.12221934,
      0.02862041
    ],
    "70": [
      -0.01812612,
      -0.17298448,
      0.08138627,
      -0.39561245,
      -0.05948334,
      0.19813089,
      0.27565764,
      -0.15935782,
      0.03806832,
      0.1961743,
      0.16986706,
      0.40958383,
      -0.23086974,
      0.21837168,
      -0.13964235,
      0.34036161
    ],
    "71": [
      -0.01961904,
      0.35276821,
      0.25344682,
      -0.20266941,
      0.01837526,
      -0.1104137,
      0.15781243,
      -0.18530854,
      -0.03653783,
      -0.08526621,
      0.2062006,
      0.07395961,
      -0.07062638,
      0.334344,
      -0.0091949,
      0.17835254
    ],
    "72": [
      0.14626521,
      0.06982292,
      0.1747158,
      -0.38369588,
      0.25808907,
      -0.11305821,
      0.23189589,
      -0.22923736,
      0.18249562,
      -0.13474384,
      -0.11896331,
      0.32068501,
      -0.18246577,
      0.28919272,
      -0.22213909,
      0.11873799
    ],
    "73": [
      0.08161501,
      0.44827523,
      0.32304963,
      -0.02336045,
      -0.03077312,
      -0.1776831,
      0.08484835,
      0.00638629,
      -0.01135293,
      -0.09970477,
      0.19978365,
      0.00035602,
      0.02127418,
      0.14261061,
      0.26499111,
      0.0648002
    ],
    "74": [
      0.26353846,
      0.40612868,
      0.24028101,
      -0.08396491,
      0.1253277,
      -0.18197922,
      0.29162551,
      -0.15345163,
      0.09223431,
      -0.16141727,
      -0.00910435,
      0.21079825,
      0.02364013,
      0.08214983,
      -0.04320725,
      -0.1010159
    ],
    "75": [
      0.22183794,
      -0.04367009,
      -0.04299523,
      -0.54312319,
      0.43244182,
      -0.09898782,
      -0.17197017,
      -0.1628051,
      0.32957625,
      0.04366862,
      0.09246038,
      0.40431476,
      -0.44643431,
      0.28822392,
      -0.14225226,
      0.1069919
    ],
    "76": [
      -0.27851525,
      0.61161823,
      0.60889337,
      -0.26122875,
      -0.24070624,
      0.21473333,
      -0.0283586,
      0.18800139,
      -0.14457719,
      -0.35643347,
      0.31027392,
      0.31023639,
      0.14468887,
      0.40107203,
      0.43921701,
      -0.17751884
    ],
    "77": [
      -0.27806126,
      0.60962758,
      0.60936425,
      -0.25002045,
      -0.24693884,
      0.21051583,
      -0.02313519,
      0.18911739,
      -0.14747026,
      -0.35860157,
      0.30900954,
      0.30503142,
      0.14946668,
      0.39951432,
      0.44363853,
      -0.18257529
    ],
    "78": [
      -0.30408494,
      0.30266153,
      0.48728456,
      -0.58655425,
      -0.00647445,
      0.43899272,
      0.1116001,
      -0.10426374,
      0.21322806,
      -0.25268715,
      0.09932033,
      0.48132282,
      0.01633659,
      0.59587142,
      -0.09738161,
      -0.00934023
    ],
    "79": [
      -0.23922154,
      -0.32146509,
      0.20853415,
      -0.80041297,
      0.11593043,
      0.51444896,
      -0.23222148,
      -0.12568969,
      0.32804978,
      0.11492737,
      0.18246065,
      0.81022594,
      -0.49207616,
      0.47718709,
      -0.20006777,
      0.04056507
    ],
    "80": [
      0.36336095,
      -0.17533177,
      -0.68507126,
      0.61051015,
      0.56804456,
      0.07036472,
      -0.34214197,
      0.233478,
      -0.48366625,
      -0.43076059,
      -0.10971655,
      -0.49622785,
      -0.56736451,
      0.04932211,
      0.0062592,
      -0.73755828
    ],
    "81": [
      0.01457068,
      -0.07363777,
      -0.11931794,
      -0.08275681,
      -0.25422224,
      -0.17489678,
      0.01757522,
      -0.34864294,
      -0.14787097,
      -0.00366207,
      0.46560552,
      0.37334538,
      0.07457002,
      0.03429713,
      -0.09772773,
      0.03438556
    ],
    "82": [
      -0.09340714,
      -0.60296011,
      -0.34968605,
      -0.63638261,
      0.06593318,
      0.29752677,
      0.05762308,
      -0.52166026,
      0.38196311,
      0.2245284,
      0.27325115,
      0.48495936,
      -0.08980975,
      0.39862111,
      -0.51214624,
      0.38519538
    ],
    "83": [
      0.09295636,
      0.00511448,
      -0.48108164,
      -0.68377841,
      0.07202904,
      0.32187351,
      -0.42592303,
      -0.34225145,
      0.79452042,
      0.05392436,
      -0.56354954,
      0.76805056,
      0.55833178,
      -0.11459721,
      -0.47480466,
      0.17379199
    ],
    "84": [
      0.13907976,
      -0.42258593,
      -0.35969032,
      -0.46961776,
      0.43525176,
      0.72414105,
      -0.34900034,
      -0.47764111,
      0.23038128,
      -0.24701289,
      0.00782615,
      0.73122729,
      -0.13296648,
      0.58092933,
      -0.0594869,
      -0.37701611
    ],
    "85": [
      -0.10265524,
      -0.33734835,
      0.12633775,
      0.16986003,
      0.01126818,
      0.50118003,
      -0.274051,
      -0.26905501,
      -0.09038236,
      -0.32704608,
      0.00998194,
      0.58404726,
      -0.03950425,
      0.54011988,
      0.00042088,
      -0.00527154
    ],
    "86": [
      0.0765274,
      -0.43463044,
      0.05673462,
      0.08305153,
      0.16877476,
      0.46812704,
      -0.14927499,
      -0.32339961,
      -0.00639305,
      -0.42841196,
      -0.24714131,
      0.69871721,
      -0.04409094,
      0.46244225,
      -0.09277298,
      -0.22129012
    ],
    "87": [
      -0.06746232,
      -0.30797859,
      0.21745504,
      -0.23874051,
      0.69141963,
      -0.03542535,
      0.47157318,
      0.34580638,
      0.20149153,
      -0.26515488,
      -0.48684159,
      0.127473,
      0.22535172,
      0.21958286,
      -0.15164793,
      0.42590275
    ],
    "88": [
      0.03079304,
      0.42969704,
      0.25397784,
      -0.14424078,
      0.00139361,
      -0.11526813,
      0.18811437,
      -0.15050065,
      -0.07719581,
      -0.09915294,
      0.23428188,
      0.04764718,
      -0.01566404,
      0.27873155,
      0.05881215,
      0.12351484
    ],
    "89": [
      0.02265038,
      0.39503797,
      0.25363265,
      -0.15199482,
      0.01538595,
      -0.10870766,
      0.17418025,
      -0.13280089,
      -0.0494414,
      -0.0953874,
      0.21891038,
      0.05760208,
      -0.04177122,
      0.29020131,
      0.03567759,
      0.15551315
    ],
    "90": [
      0.19782737,
      0.26453575,
      0.18522447,
      -0.24857848,
      0.18353144,
      -0.14673665,
      0.29173595,
      -0.18805974,
      0.05603144,
      -0.20118242,
      -0.05155377,
      0.25555705,
      -0.06206753,
      0.20018773,
      -0.07542078,
      -0.03908821
    ],
    "91": [
      -0.10444814,
      -0.3784847,
      -0.01990552,
      -0.51193043,
      0.02894028,
      0.26076177,
      0.28850272,
      -0.03527416,
      -0.07279728,
      0.03026318,
      0.10545252,
      0.44606001,
      -0.34949494,
      0.35413847,
      -0.09543824,
      0.39809402
    ],
    "92": [
      0.08583589,
      0.49595707,
      0.32673031,
      0.01349861,
      -0.05956097,
      -0.19073566,
      0.10262033,
      0.00182489,
      -0.05691871,
      -0.12220284,
      0.2209306,
      -0.02034426,
      0.05761129,
      0.1249708,
      0.30275673,
      0.01197026
    ],
    "93": [
      0.24609107,
      0.41605661,
      0.19335111,
      -0.12714404,
      0.12430103,
      -0.17139096,
      0.33917033,
      -0.144544,
      -0.04805417,
      -0.2540412,
      0.00596592,
      0.2007501,
      0.03957607,
      0.11753378,
      0.05144387,
      -0.16686874
    ],
    "94": [
      0.1705642,
      0.43699548,
      0.16867322,
      -0.23332653,
      0.10436851,
      0.03403871,
      0.32222621,
      -0.24420206,
      0.13385054,
      -0.06796681,
      0.11484686,
      0.1036887,
      0.10657145,
      0.22586516,
      -0.04912706,
      -0.02915771
    ],
    "95": [
      0.02882639,
      0.43999274,
      0.25117422,
      -0.1908528,
      0.02789269,
      -0.0978003,
      0.16787002,
      -0.1550212,
      -0.06543166,
      -0.08929793,
      0.23956169,
      0.07056212,
      -0.03518463,
      0.28556059,
      0.03689681,
      0.14404344
    ],
    "96": [
      0.27777509,
      0.58046723,
      -0.08550399,
      -0.38724877,
      0.09804946,
      -0.02352106,
      -0.36891058,
      -0.10080027,
      0.48203874,
      -0.57453637,
      -0.46885667,
      0.50567544,
      0.46903865,
      -0.09365344,
      -0.28745965,
      -0.17228349
    ],
    "97": [
      -0.30842991,
      0.56130475,
      0.59255329,
      -0.31140704,
      -0.21754046,
      0.25644605,
      0.03346641,
      0.02943779,
      -0.05847138,
      -0.26609929,
      0.3149471,
      0.35299115,
      0.09145348,
      0.48872753,
      0.16120856,
      -0.04487987
    ],
    "98": [
      -0.19833881,
      0.43078173,
      0.539026,
      -0.20055855,
      -0.40193254,
      0.2862163,
      0.20051322,
      0.12922037,
      -0.29116828,
      -0.22027639,
      0.30132239,
      0.62876559,
      0.04333901,
      0.15767919,
      0.26235601,
      -0.24429347
    ],
    "99": [
      -0.25974851,
      0.42842563,
      0.23876951,
      -0.75305216,
      -0.0216203,
      0.550482,
      -0.5460133,
      -0.09465801,
      0.67981767,
      -0.54294105,
      -0.4133814,
      0.7071744,
      0.44559713,
      0.44775129,
      -0.43917138,
      0.01980366
    ],
    "100": [
      -0.36536821,
      -0.03787472,
      0.07822825,
      0.44666643,
      0.0417978,
      -0.4521466,
      0.31917858,
      0.2121195,
      -0.38146492,
      -0.09764174,
      0.12880296,
      -0.62384946,
      -0.23820079,
      -0.09090968,
      -0.46175265,
      0.01534287
    ],
    "101": [
      -0.02308084,
      0.27410825,
      0.04460168,
      0.41129294,
      -0.10698645,
      -0.43249753,
      -0.10693255,
      -0.15309325,
      -0.26659596,
      0.05699744,
      0.28194885,
      -0.45759984,
      -0.22044578,
      -0.08178657,
      -0.14881771,
      0.13949106
    ],
    "102": [
      -0.33329659,
      -0.37612238,
      -0.03174714,
      0.08731959,
      0.28906388,
      -0.26285276,
      0.3337688,
      0.02766225,
      0.04876318,
      0.06250412,
      -0.11601071,
      -0.48882002,
      -0.34002312,
      0.03566071,
      -0.71432554,
      0.15886864
    ],
    "103": [
      -0.04859483,
      0.32028311,
      0.12642343,
      0.47470439,
      -0.18259359,
      -0.50263832,
      -0.21241841,
      -0.11382113,
      -0.26329152,
      0.03382492,
      0.26606076,
      -0.49630954,
      -0.17533642,
      -0.15953095,
      0.04951539,
      0.02751772
    ],
    "104": [
      0.12701945,
      0.08962876,
      0.02627361,
      0.35287089,
      0.04537035,
      -0.48198787,
      -0.04372194,
      -0.25371324,
      -0.0348087,
      0.03438671,
      -0.00817,
      -0.27303085,
      -0.26755304,
      -0.17030791,
      -0.36045821,
      0.00958075
    ],
    "105": [
      -0.40987378,
      -0.02919316,
      0.07251624,
      0.35925935,
      0.03711693,
      -0.29712021,
      0.22183012,
      0.27286283,
      -0.23466442,
      0.02648947,
      0.19722453,
      -0.69138463,
      -0.17191382,
      -0.06277631,
      -0.33676397,
      0.09657802
    ],
    "106": [
      -0.28397134,
      -0.15770904,
      -0.01996009,
      0.23405559,
      0.21139846,
      -0.29456732,
      0.39055838,
      0.06661343,
      -0.09773728,
      -0.01347071,
      -0.03542955,
      -0.54222222,
      -0.21733778,
      -0.06518707,
      -0.62509,
      -0.01680285
    ],
    "107": [
      -0.15055478,
      -0.67063126,
      -0.43746919,
      -0.49123796,
      0.67069058,
      0.02617531,
      0.06322995,
      0.09545708,
      0.40896907,
      0.22463675,
      -0.12112292,
      -0.25309487,
      -0.61992891,
      0.12514362,
      -0.75252094,
      0.20203344
    ],
    "108": [
      -0.34189342,
      -0.09432905,
      -0.4071826,
      -0.22525875,
      0.22264988,
      0.09919472,
      -0.26298897,
      0.13266867,
      0.4760525,
      -0.35351351,
      -0.45626865,
      -0.33697134,
      0.25449975,
      -0.08312172,
      -0.78787338,
      0.12737441
    ],
    "109": [
      0.30541196,
      -0.19462714,
      -0.41126562,
      0.84761218,
      0.35131686,
      -0.10892036,
      -0.15218641,
      0.41188671,
      -0.48270743,
      -0.42576825,
      -0.27419156,
      -0.61271745,
      -0.45559564,
      -0.06787177,
      -0.10885362,
      -0.52691351
    ],
    "110": [
      0.29116049,
      0.2516877,
      0.06734146,
      0.06083388,
      -0.15617271,
      -0.30719024,
      -0.18341243,
      -0.38302607,
      -0.12840598,
      -0.00651959,
      0.17750543,
      -0.35977729,
      -0.1072124,
      -0.05627408,
      0.24386027,
      -0.33835057
    ],
    "111": [
      0.08237676,
      -0.3192592,
      -0.54889336,
      0.68223378,
      0.38481123,
      0.15486554,
      -0.09017446,
      0.267415,
      -0.57853729,
      -0.46349865,
      -0.18672894,
      -0.64643362,
      -0.46736507,
      0.27568496,
      -0.09055266,
      -0.46590931
    ],
    "112": [
      0.25638932,
      -0.33921528,
      -0.42132801,
      0.78627117,
      0.43070808,
      -0.06189318,
      -0.22811907,
      0.36905965,
      -0.38638728,
      -0.3683595,
      -0.32028421,
      -0.555762,
      -0.54966459,
      0.02614102,
      -0.25784486,
      -0.40565347
    ],
    "113": [
      0.0863167,
      -0.26597074,
      -0.35797735,
      -0.33020653,
      -0.30154306,
      0.15352824,
      -0.02312463,
      -0.51345078,
      -0.44578591,
      -0.07976888,
      0.7106639,
      0.15052684,
      0.27846731,
      0.47968997,
      0.2569906,
      -0.1319731
    ],
    "114": [
      0.07598735,
      -0.43690378,
      -0.49332608,
      -0.59016675,
      -0.14077475,
      0.36116679,
      0.16202861,
      -0.71369394,
      -0.24663382,
      -0.01995859,
      0.63055804,
      0.29880723,
      0.25575629,
      0.62406138,
      -0.1915084,
      -0.11404258
    ],
    "115": [
      -0.16170095,
      -0.87691782,
      -0.55901171,
      -0.71931392,
      -0.21847893,
      0.52616308,
      0.0258679,
      -0.60296079,
      -0.17923248,
      0.26331794,
      0.60518756,
      0.60383016,
      -0.23294821,
      0.66326807,
      -0.40064821,
      0.43410667
    ],
    "116": [
      0.12541925,
      -0.3972726,
      -0.36485578,
      -0.36677513,
      -0.20177921,
      0.02736339,
      0.01367653,
      -0.55513464,
      -0.4736083,
      -0.13541617,
      0.6464516,
      0.33515895,
      0.10345063,
      0.49866737,
      -0.01363369,
      -0.05839962
    ],
    "117": [
      0.14773831,
      -0.2164913,
      -0.50814999,
      -0.57101397,
      -0.05081336,
      0.18599835,
      -0.53875338,
      -0.35717307,
      0.63646519,
      -0.32918936,
      -0.25389046,
      0.70707194,
      0.45695705,
      -0.10144028,
      -0.58642217,
      0.0943123
    ],
    "118": [
      -0.05135348,
      -0.22960248,
      0.05470538,
      0.17699374,
      0.01966816,
      0.35182025,
      -0.14926133,
      -0.18036551,
      -0.54642529,
      -0.62860001,
      -0.02393861,
      0.63222213,
      -0.03687391,
      0.49517825,
      0.31612493,
      -0.32581743
    ],
    "119": [
      0.03619012,
      0.12457169,
      0.28115859,
      0.0242475,
      0.5959632,
      -0.11819422,
      0.53145944,
      0.31761901,
      0.04742124,
      -0.28686483,
      -0.3656483,
      0.00774551,
      0.44394931,
      0.02305934,
      0.04350767,
      0.16862952
    ],
    "120": [
      0.22857147,
      -0.03348889,
      0.26017105,
      -0.03277849,
      0.69530531,
      -0.16677109,
      0.58092138,
      0.25724109,
      0.28546067,
      -0.29729188,
      -0.58666917,
      0.21834872,
      0.41433616,
      -0.10811445,
      -0.16103139,
      0.04142092
    ],
    "121": [
      0.15661704,
      -0.38337204,
      -0.25587226,
      -0.56519647,
      0.65724389,
      0.49856367,
      0.01038759,
      0.39580913,
      0.79023728,
      -0.34326954,
      -0.81552161,
      0.69442416,
      0.62534044,
      -0.2844496,
      -0.59916805,
      0.36898857
    ],
    "122": [
      0.13922447,
      0.0968601,
      0.34732365,
      0.17157192,
      0.60767134,
      -0.32651901,
      0.5127438,
      0.38707738,
      -0.00123713,
      -0.36580471,
      -0.46479455,
      0.1146772,
      0.38351881,
      -0.12814714,
      0.0548044,
      0.08903437
    ],
    "123": [
      0.14959374,
      -0.2954912,
      -0.53173566,
      0.66768199,
      -0.03002461,
      0.03412951,
      -0.01892241,
      0.17289453,
      -0.21599751,
      -0.09110162,
      -0.44312785,
      -0.66815246,
      -0.58284558,
      -0.10668802,
      -0.62965806,
      -0.55529113
    ],
    "124": [
      -0.26023477,
      0.02329075,
      0.09267744,
      -0.34420801,
      -0.22971619,
      -0.21154863,
      0.16044846,
      0.00412422,
      -0.23425761,
      0.01814869,
      0.27738024,
      -0.15117482,
      -0.01098018,
      0.21298253,
      0.03781105,
      0.03663083
    ],
    "125": [
      0.03580232,
      -0.36210723,
      -0.37565609,
      -0.75697658,
      0.30342516,
      -0.03129511,
      0.0545643,
      -0.09444862,
      0.0720049,
      -0.01884376,
      0.07044053,
      0.24957521,
      -0.28615672,
      0.22353464,
      -0.05272584,
      -0.30047945
    ],
    "126": [
      0.21701095,
      0.2862608,
      0.23320691,
      -0.20675622,
      0.18020371,
      -0.15753993,
      0.24376641,
      -0.20069,
      0.17643363,
      -0.1142381,
      -0.05345789,
      0.26373073,
      -0.06712485,
      0.15960902,
      -0.15668242,
      0.00935261
    ],
    "127": [
      0.07294878,
      0.46891511,
      0.25416362,
      -0.09265433,
      -0.00159655,
      -0.11356398,
      0.204298,
      -0.09745781,
      -0.09003289,
      -0.10924659,
      0.2468228,
      0.03124412,
      0.01328253,
      0.23302076,
      0.10339714,
      0.10031497
    ],
    "128": [
      0.1641276,
      0.36098029,
      0.16230564,
      -0.29039436,
      0.15019146,
      0.05646722,
      0.29553558,
      -0.23830298,
      0.20176999,
      -0.03264796,
      0.08267533,
      0.13712264,
      0.04989783,
      0.25214135,
      -0.11305139,
      0.0527783
    ],
    "129": [
      0.01662902,
      -0.24934752,
      0.07489203,
      -0.39342659,
      -0.01809758,
      0.21718627,
      0.26771638,
      -0.09511753,
      0.11005306,
      0.22520587,
      0.1369247,
      0.42073937,
      -0.26286907,
      0.20240061,
      -0.16532393,
      0.40230419
    ],
    "130": [
      -0.34901588,
      -0.59051085,
      -0.26709752,
      -0.6637085,
      -0.10281192,
      0.39623764,
      -0.11734073,
      -0.08430456,
      0.87441263,
      -0.40225411,
      -0.81974603,
      0.65271623,
      0.17561038,
      -0.11341042,
      -0.81667926,
      0.60499658
    ],
    "131": [
      0.16915772,
      -0.26080067,
      -0.4753561,
      0.75858751,
      0.36632384,
      0.12428243,
      -0.1582386,
      0.28474364,
      -0.39931707,
      -0.31354927,
      -0.18868194,
      -0.65289228,
      -0.44515041,
      0.14718127,
      -0.20378797,
      -0.4070128
    ],
    "132": [
      0.32957053,
      -0.3996488,
      -0.52813647,
      0.71467369,
      0.50597187,
      0.08813119,
      -0.0431202,
      0.24614504,
      -0.30110259,
      -0.41290513,
      -0.43781311,
      -0.51838918,
      -0.46944697,
      0.0567654,
      -0.31251504,
      -0.55052184
    ],
    "133": [
      0.15862884,
      -0.73546504,
      -0.58419645,
      0.65137115,
      0.32919593,
      0.22838942,
      -0.06358073,
      0.31810292,
      -0.45865072,
      -0.21209043,
      -0.35197445,
      -0.27174152,
      -0.65473064,
      0.01487427,
      -0.3257357,
      -0.32397066
    ],
    "134": [
      0.24593141,
      -0.0713411,
      0.02690522,
      -0.11670521,
      -0.03085911,
      -0.22418382,
      -0.18285298,
      -0.49590368,
      0.13372988,
      0.17784834,
      0.09301042,
      -0.25173678,
      -0.28897901,
      0.12067426,
      -0.20993826,
      -0.01648819
    ],
    "135": [
      -0.10455276,
      -0.37483386,
      -0.28069057,
      -0.42240734,
      -0.11530163,
      -0.07793694,
      0.0694214,
      -0.3519304,
      -0.31822092,
      -0.16859447,
      0.40172973,
      0.44686125,
      -0.08814278,
      0.27316149,
      -0.06408437,
      0.12065807
    ],
    "136": [
      -0.20669247,
      0.32167349,
      -0.01027649,
      -0.13660971,
      -0.32247314,
      -0.00798006,
      0.06534844,
      -0.29671178,
      0.04302205,
      0.45560151,
      0.39144897,
      0.29258726,
      0.26167469,
      0.10032771,
      0.20057072,
      0.26193513
    ],
    "137": [
      -0.21124139,
      -0.07946407,
      -0.11856404,
      -0.50708914,
      -0.08871168,
      0.19707099,
      0.07525222,
      -0.49691457,
      0.46261944,
      0.57670987,
      0.15019892,
      0.46455029,
      0.1366113,
      0.26615275,
      -0.22318155,
      0.40206545
    ],
    "138": [
      -0.08998965,
      0.08177275,
      0.05121082,
      -0.75230881,
      0.20886547,
      -0.08392876,
      -0.1216153,
      -0.13369501,
      -0.01485143,
      0.28034321,
      0.35029385,
      0.39305455,
      0.14072721,
      0.23451486,
      0.31012664,
      0.09913053
    ],
    "139": [
      0.04006972,
      -0.08249039,
      0.21745902,
      -0.63556049,
      0.24997939,
      -0.30883762,
      -0.26384257,
      -0.04722833,
      0.27499257,
      0.39061593,
      0.17138372,
      0.50594865,
      -0.01107427,
      0.04040928,
      0.09448475,
      0.21891491
    ],
    "140": [
      0.07565289,
      0.48590441,
      0.24770666,
      -0.47337062,
      0.04425167,
      -0.3847758,
      -0.14844923,
      -0.10124239,
      -0.1224972,
      0.2162672,
      0.37702249,
      0.39288432,
      0.2805797,
      -0.11211085,
      0.40772871,
      -0.22657944
    ],
    "141": [
      0.11664506,
      0.49390176,
      0.24771862,
      -0.42232999,
      0.03912834,
      -0.38695517,
      -0.12791551,
      -0.04250671,
      -0.12003836,
      0.21146786,
      0.37595116,
      0.37545321,
      0.30159165,
      -0.15588411,
      0.43897431,
      -0.23613853
    ],
    "142": [
      -0.0085748,
      -0.45863954,
      0.18846617,
      0.21922676,
      0.10023915,
      0.35097919,
      -0.33928479,
      -0.18743274,
      -0.04213272,
      -0.3604567,
      -0.1503458,
      0.67989887,
      -0.19261101,
      0.45583353,
      -0.08122453,
      0.03002672
    ],
    "143": [
      -0.05067107,
      -0.22402702,
      0.12855194,
      0.23947729,
      -0.01682453,
      0.49405959,
      -0.23893828,
      -0.23821635,
      -0.15158339,
      -0.34844242,
      0.05121547,
      0.56127645,
      0.03130095,
      0.48909238,
      0.0860782,
      -0.08504468
    ],
    "144": [
      0.00534208,
      0.20073431,
      0.3100349,
      -0.00029392,
      0.58399501,
      -0.33008238,
      0.52779826,
      0.22604093,
      -0.23323684,
      -0.46873089,
      -0.41276698,
      0.12965079,
      0.3962292,
      0.00656385,
      0.11156394,
      -0.0480898
    ],
    "145": [
      -0.18984915,
      0.23691055,
      0.15425162,
      -0.13935533,
      -0.31763073,
      -0.26264358,
      0.18280501,
      0.03635547,
      -0.24573211,
      0.03399522,
      0.33465857,
      -0.22235981,
      0.11557381,
      0.07573872,
      0.11620632,
      -0.08355714
    ],
    "146": [
      0.15164226,
      0.32558947,
      0.18437361,
      -0.30001286,
      0.14445378,
      0.01530393,
      0.21505685,
      -0.12845113,
      0.16853658,
      -0.10439862,
      0.03942931,
      0.11506434,
      0.04832385,
      0.2083193,
      0.11953452,
      -0.0157171
    ],
    "147": [
      0.12737485,
      0.25925539,
      0.12918488,
      -0.08238711,
      -0.19104063,
      -0.06806126,
      0.38560848,
      -0.03916275,
      -0.41190795,
      -0.13664483,
      0.22314992,
      0.3928648,
      -0.06372734,
      -0.04524662,
      0.23721184,
      -0.12288712
    ],
    "148": [
      0.07965941,
      0.4583626,
      0.3203649,
      -0.07121223,
      -0.0042765,
      -0.16051999,
      0.06405749,
      0.0017578,
      0.000471,
      -0.08985079,
      0.20514814,
      0.02334807,
      0.00174354,
      0.14987163,
      0.24445081,
      0.08558473
    ],
    "149": [
      0.08397015,
      0.47122805,
      0.32522598,
      0.0010634,
      -0.04848244,
      -0.18635028,
      0.09633165,
      0.00468417,
      -0.03562982,
      -0.11219547,
      0.20971335,
      -0.01286935,
      0.04189347,
      0.13289033,
      0.28650645,
      0.03580273
    ],
    "150": [
      0.2414109,
      0.1940492,
      -0.22563986,
      -0.52714325,
      0.13260688,
      0.12442313,
      0.13603025,
      -0.18209101,
      -0.21956526,
      -0.01386254,
      0.33707371,
      0.54684931,
      -0.26419982,
      0.02145724,
      0.22683845,
      -0.32618263
    ],
    "151": [
      -0.25946329,
      0.62418839,
      0.63995659,
      -0.20822756,
      -0.25016779,
      0.19992233,
      -0.07468806,
      0.17642969,
      -0.02633824,
      -0.27849945,
      0.30728147,
      0.31295914,
      0.14449789,
      0.36368687,
      0.3750891,
      -0.13534877
    ],
    "152": [
      -0.28187449,
      0.37767634,
      0.52758947,
      -0.53091312,
      -0.03874541,
      0.418945,
      0.07814915,
      -0.12172531,
      0.28501587,
      -0.18951602,
      0.11929573,
      0.47209758,
      0.04762124,
      0.55585629,
      -0.13813899,
      -0.0137989
    ],
    "153": [
      -0.27282265,
      -0.18226371,
      0.15878912,
      -0.84134673,
      -0.04731684,
      0.73331832,
      -0.57291308,
      -0.12732805,
      0.84550371,
      -0.10351179,
      -0.48539415,
      0.86645206,
      0.20066818,
      0.3410762,
      -0.7101814,
      0.38885726
    ],
    "154": [
      0.07924252,
      0.51959069,
      -0.39560011,
      -0.01439325,
      -0.07615711,
      -0.1643939,
      -0.52673063,
      -0.24435471,
      0.17262688,
      -0.48159103,
      -0.29022337,
      -0.12237238,
      0.40344171,
      -0.25234253,
      -0.37680689,
      -0.20806329
    ],
    "155": [
      -0.42786455,
      -0.6355728,
      -0.15426686,
      0.10202409,
      0.02641219,
      -0.13656251,
      0.41912608,
      0.21812653,
      -0.34257459,
      0.13791764,
      0.044886,
      -0.3098851,
      -0.46478267,
      -0.09164975,
      -0.58407409,
      0.25486393
    ],
    "156": [
      -0.07259716,
      -0.53627122,
      -0.10646434,
      -0.15809692,
      0.27791233,
      -0.38418422,
      -0.12837075,
      -0.34268292,
      0.12100498,
      0.06621596,
      -0.21909044,
      -0.08827215,
      -0.56299951,
      0.1978712,
      -0.58524838,
      0.38104469
    ],
    "157": [
      -0.49482465,
      -0.17820312,
      0.01962144,
      0.20008824,
      0.06420509,
      -0.28193959,
      0.22794967,
      0.18486374,
      -0.30151239,
      -0.02967944,
      0.1632904,
      -0.67139792,
      -0.24218829,
      0.08662429,
      -0.36364637,
      0.12384353
    ],
    "158": [
      -0.36604751,
      -0.35542634,
      -0.12953831,
      0.00019692,
      0.28715117,
      -0.24238959,
      0.42410693,
      0.04585701,
      -0.22828075,
      -0.13043997,
      -0.08617992,
      -0.50462637,
      -0.31150768,
      0.10675576,
      -0.60848624,
      0.02605522
    ],
    "159": [
      -0.46732059,
      -0.37357732,
      0.00834543,
      0.1354824,
      0.19077876,
      -0.38683739,
      0.25067103,
      0.13356161,
      -0.29478155,
      -0.0656145,
      0.02189111,
      -0.5380313,
      -0.43074372,
      0.12720534,
      -0.60002793,
      0.24158646
    ],
    "160": [
      -0.46337193,
      0.00557353,
      0.34601657,
      0.3084147,
      -0.59335875,
      -0.26343191,
      0.40387694,
      0.17019272,
      -0.0681826,
      -0.28409679,
      -0.11827456,
      0.00197368,
      0.00300291,
      -0.25365181,
      0.11948291,
      0.28125017
    ],
    "161": [
      -0.41943238,
      -0.50877725,
      -0.24223151,
      -0.59650331,
      -0.1745789,
      0.37231822,
      -0.14492222,
      -0.02211583,
      0.84734155,
      -0.50752097,
      -0.80687885,
      0.63376397,
      0.18867963,
      -0.09300588,
      -0.79571808,
      0.53872762
    ],
    "162": [
      0.14865863,
      -0.27672157,
      -0.51437121,
      0.72815024,
      0.38068905,
      0.14381807,
      -0.1177958,
      0.29464824,
      -0.49233148,
      -0.38739441,
      -0.18413921,
      -0.65132116,
      -0.4489019,
      0.19151616,
      -0.13442662,
      -0.43822754
    ],
    "163": [
      0.12665266,
      -0.5990564,
      -0.62015808,
      0.44924634,
      0.55944741,
      0.3404318,
      -0.04509504,
      0.07563774,
      -0.22417099,
      -0.33177064,
      -0.41045332,
      -0.53553623,
      -0.52848423,
      0.37823394,
      -0.42997626,
      -0.37105309
    ],
    "164": [
      0.2451033,
      0.24005765,
      0.12997031,
      0.26063243,
      -0.23832269,
      -0.39868087,
      -0.21073513,
      -0.28763927,
      -0.2534052,
      0.04439879,
      0.30964969,
      -0.41077241,
      -0.2110679,
      -0.02662047,
      0.16238516,
      -0.10251195
    ],
    "165": [
      -0.07015374,
      -0.24921479,
      0.07965598,
      0.20897071,
      -0.02000846,
      0.49906394,
      -0.18459229,
      -0.22469828,
      -0.27098437,
      -0.42631233,
      0.05172504,
      0.55125409,
      0.04124975,
      0.51898848,
      0.17246187,
      -0.13805035
    ],
    "166": [
      0.00947288,
      -0.40144254,
      0.00647249,
      -0.00451804,
      0.12637742,
      0.58983954,
      -0.17369984,
      -0.25429113,
      -0.0174867,
      -0.42229127,
      -0.15943377,
      0.60721823,
      0.07620335,
      0.49976046,
      0.18827067,
      -0.24990305
    ],
    "167": [
      -0.01778013,
      -0.69719527,
      -0.02012789,
      0.11679035,
      -0.08175746,
      0.56316289,
      -0.11471499,
      -0.14773886,
      -0.24239933,
      -0.26568403,
      -0.11582697,
      0.80143053,
      -0.22601728,
      0.33370714,
      0.01628425,
      -0.02846717
    ],
    "168": [
      -0.05254536,
      -0.25445845,
      0.12689621,
      0.22772004,
      -0.00571499,
      0.49748898,
      -0.24491807,
      -0.23551746,
      -0.13067379,
      -0.33949621,
      0.03947704,
      0.56637647,
      0.01555277,
      0.49519517,
      0.06838922,
      -0.06132634
    ],
    "169": [
      -0.14320273,
      -0.43931583,
      0.06979892,
      0.0271546,
      0.09329574,
      0.54150182,
      -0.28771899,
      -0.22667025,
      -0.11748583,
      -0.3765878,
      -0.02388363,
      0.61799549,
      -0.13100734,
      0.59824546,
      -0.01427876,
      0.06664403
    ],
    "170": [
      0.05389533,
      -0.64285275,
      0.03396132,
      -0.1362019,
      0.32258395,
      0.52879932,
      -0.25029686,
      -0.30597915,
      0.2266067,
      -0.32443411,
      -0.34416167,
      0.75545942,
      -0.23621231,
      0.53404517,
      -0.30491515,
      0.05521061
    ],
    "171": [
      -0.09796246,
      -0.2141793,
      0.16893718,
      -0.32046017,
      0.6720001,
      -0.04382033,
      0.53285395,
      0.24054214,
      -0.01055398,
      -0.34600693,
      -0.44279485,
      0.10699124,
      0.291469,
      0.2616473,
      -0.03351636,
      0.30027385
    ],
    "172": [
      0.06821062,
      -0.1563951,
      -0.52766867,
      0.63414761,
      -0.11118955,
      0.17550078,
      -0.09208409,
      0.16885461,
      -0.1759478,
      -0.02254975,
      -0.33755218,
      -0.74722854,
      -0.47937509,
      -0.08171616,
      -0.4768365,
      -0.5879341
    ],
    "173": [
      0.19785962,
      -0.44721841,
      -0.59773419,
      0.49006639,
      0.13174571,
      0.20449241,
      0.05636375,
      -0.02559323,
      0.09103144,
      -0.00163976,
      -0.57649124,
      -0.59053199,
      -0.58097792,
      -0.03598324,
      -0.76515483,
      -0.56836484
    ],
    "174": [
      0.14223667,
      -0.40840986,
      -0.53654749,
      0.63919097,
      0.01440963,
      0.05228314,
      -0.0443019,
      0.18396751,
      -0.13331405,
      -0.05072401,
      -0.4801408,
      -0.65126375,
      -0.62293694,
      -0.07474217,
      -0.67070958,
      -0.48584744
    ],
    "175": [
      -0.17346184,
      -0.14861813,
      0.16106545,
      -0.22704983,
      -0.1794928,
      -0.39989095,
      0.11262729,
      0.11196871,
      -0.19874118,
      -0.04098049,
      0.1100854,
      -0.02398418,
      -0.14651339,
      0.09699885,
      -0.01643614,
      0.04934856
    ],
    "176": [
      -0.12619321,
      -0.06775969,
      -0.32907182,
      -0.69835875,
      -0.06682745,
      0.12707409,
      -0.40510717,
      -0.00786656,
      0.54479114,
      -0.33447388,
      -0.42995367,
      0.29538468,
      0.42512723,
      0.05845415,
      -0.44964846,
      0.03345701
    ],
    "177": [
      0.08818933,
      0.51758698,
      0.32890083,
      0.03790936,
      -0.07721518,
      -0.1993588,
      0.11406274,
      0.00012272,
      -0.08109332,
      -0.13462703,
      0.23076614,
      -0.03356054,
      0.07815605,
      0.1152054,
      0.32375756,
      -0.01710058
    ],
    "178": [
      -0.03585308,
      0.24101986,
      0.24485377,
      -0.30108397,
      0.09851638,
      -0.06838786,
      0.09921871,
      -0.16509457,
      0.06998593,
      -0.03878305,
      0.16322683,
      0.13443514,
      -0.1669846,
      0.37448183,
      -0.1127461,
      0.30097204
    ],
    "179": [
      -0.19422536,
      -0.54652789,
      -0.40236795,
      -0.43171734,
      0.38367148,
      -0.18302192,
      -0.4525588,
      -0.29515577,
      0.11528872,
      0.12752101,
      0.14123407,
      -0.13485638,
      -0.68936638,
      0.39488372,
      -0.43747252,
      0.32599034
    ],
    "180": [
      -0.37440543,
      -0.14690609,
      0.06706285,
      0.3441844,
      0.12536291,
      -0.41588316,
      0.26731014,
      0.21640756,
      -0.29011767,
      -0.04242594,
      0.09061291,
      -0.58292396,
      -0.32318113,
      -0.04778158,
      -0.53965509,
      0.1411396
    ],
    "181": [
      -0.32883841,
      -0.12377321,
      -0.02252307,
      0.16877274,
      0.18348077,
      -0.13507387,
      0.31322022,
      0.12999216,
      0.03733762,
      0.09556691,
      0.04381407,
      -0.63251295,
      -0.12544413,
      -0.04870199,
      -0.50458537,
      0.03042313
    ],
    "182": [
      -0.40706415,
      -0.55610769,
      -0.10067454,
      0.17014222,
      -0.00372983,
      -0.15640978,
      0.38742876,
      0.19624748,
      -0.28750789,
      0.1974456,
      0.07952523,
      -0.31702449,
      -0.43503077,
      -0.1548987,
      -0.6063624,
      0.23809443
    ],
    "183": [
      0.28236137,
      -0.07746158,
      -0.36738083,
      0.85120701,
      0.29643131,
      0.03371816,
      -0.26871917,
      0.44961136,
      -0.30454412,
      -0.27192326,
      -0.17990677,
      -0.69805407,
      -0.35019682,
      -0.11088384,
      0.02724739,
      -0.49531968
    ],
    "184": [
      0.33074004,
      -0.67831255,
      -0.70214736,
      0.44062459,
      0.696374,
      0.15572696,
      -0.44489781,
      0.28783883,
      -0.10363402,
      -0.25465032,
      -0.33354658,
      -0.38037507,
      -0.74153784,
      0.20560319,
      -0.33118734,
      -0.44093048
    ],
    "185": [
      0.22358965,
      -0.14605388,
      -0.41076396,
      0.8184409,
      0.30829557,
      0.04744513,
      -0.24101708,
      0.41554728,
      -0.39764296,
      -0.34122179,
      -0.18956884,
      -0.69111213,
      -0.37516581,
      -0.01861699,
      0.05922474,
      -0.51007041
    ],
    "186": [
      0.10570906,
      -0.35288773,
      -0.51520405,
      0.70238975,
      0.3870622,
      0.1422538,
      -0.13546408,
      0.24846935,
      -0.46824974,
      -0.37210586,
      -0.20958422,
      -0.64074281,
      -0.48012485,
      0.24401043,
      -0.19009633,
      -0.40358017
    ],
    "187": [
      -0.08427458,
      -0.07156066,
      -0.19313845,
      -0.23259587,
      -0.26982709,
      0.04147328,
      0.05019744,
      -0.42554678,
      -0.0881927,
      0.09844877,
      0.54815777,
      0.27668509,
      0.1461148,
      0.18581766,
      -0.11575588,
      0.12456575
    ],
    "188": [
      0.00570064,
      -0.22741085,
      -0.28593364,
      -0.43612549,
      -0.10561151,
      0.21751353,
      0.13523479,
      -0.53558913,
      0.22671467,
      0.18622738,
      0.41050422,
      0.38341104,
      0.16175033,
      0.21482758,
      -0.34245325,
      0.10606264
    ],
    "189": [
      0.04382311,
      -0.37947747,
      -0.63167972,
      -0.7193928,
      -0.2510806,
      0.58237528,
      -0.43166279,
      -0.48311041,
      0.65379814,
      0.0235123,
      -0.06017866,
      0.79663219,
      0.48659506,
      -0.15233738,
      -0.63955728,
      0.16827225
    ],
    "190": [
      0.20683265,
      -0.7309712,
      -0.31633493,
      -0.51250331,
      0.58037804,
      0.64990049,
      -0.46423384,
      -0.37032553,
      0.46211277,
      -0.19495774,
      -0.27023498,
      0.82208943,
      -0.42382239,
      0.56126953,
      -0.30881792,
      -0.11867203
    ],
    "191": [
      -0.05061929,
      -0.54299787,
      -0.02469021,
      -0.15370279,
      0.22910773,
      0.64578071,
      -0.18602519,
      -0.35710891,
      0.16926628,
      -0.31314135,
      -0.1933811,
      0.67343094,
      -0.08513515,
      0.60880303,
      -0.217091,
      0.00846488
    ],
    "192": [
      -0.1921977,
      -0.50968627,
      0.0692341,
      -0.03308759,
      0.11010339,
      0.54496782,
      -0.31610773,
      -0.26036357,
      -0.07708209,
      -0.36450512,
      -0.05335276,
      0.63405418,
      -0.18469917,
      0.6362305,
      -0.0821693,
      0.12226008
    ],
    "193": [
      0.18869253,
      -0.08676273,
      -0.33452184,
      -0.72927558,
      0.78481783,
      0.42005935,
      0.15184385,
      0.11121268,
      0.73559494,
      -0.63003023,
      -0.85237538,
      0.5442764,
      0.7411249,
      0.01643254,
      -0.52978084,
      0.0415761
    ],
    "194": [
      0.1253657,
      -0.11505165,
      0.18054066,
      -0.26553334,
      0.71690002,
      0.08099916,
      0.57606469,
      0.17474131,
      0.40531165,
      -0.16228405,
      -0.53059086,
      0.1578031,
      0.41900864,
      0.07658231,
      -0.25058337,
      0.22099953
    ],
    "195": [
      -0.04344487,
      -0.26735549,
      0.21101078,
      -0.27794559,
      0.69231798,
      -0.03497867,
      0.48832619,
      0.28906419,
      0.18201763,
      -0.2367158,
      -0.47099712,
      0.12892444,
      0.25524221,
      0.20622183,
      -0.14129134,
      0.40546768
    ],
    "196": [
      -0.051705,
      -0.10659693,
      0.17312463,
      -0.23829226,
      0.65416356,
      -0.05557558,
      0.55728354,
      0.28642968,
      -0.06899908,
      -0.37470418,
      -0.41386283,
      0.07015479,
      0.35006453,
      0.19832578,
      0.05239381,
      0.22925692
    ],
    "197": [
      0.06731964,
      -0.19383603,
      -0.52780277,
      0.64100123,
      -0.11330465,
      0.17134233,
      -0.08801515,
      0.17387627,
      -0.16096261,
      -0.01737668,
      -0.3503889,
      -0.74899915,
      -0.4839755,
      -0.07740009,
      -0.48208278,
      -0.57909995
    ],
    "198": [
      0.2148911,
      0.11643338,
      -0.08069154,
      -0.49457542,
      0.36252658,
      -0.12808009,
      -0.06811245,
      -0.16334831,
      0.08307115,
      -0.1133781,
      0.15963853,
      0.34338262,
      -0.35045846,
      0.27723593,
      0.06236343,
      -0.09948869
    ],
    "199": [
      0.08770103,
      0.51990699,
      0.32823299,
      0.02592966,
      -0.07062484,
      -0.19511343,
      0.10890083,
      -0.00103442,
      -0.07815596,
      -0.13218542,
      0.23208969,
      -0.0278169,
      0.0733006,
      0.11703532,
      0.31883285,
      -0.01187581
    ],
    "200": [
      0.12536124,
      0.31656039,
      0.06403325,
      -0.35856515,
      0.15044222,
      0.07409288,
      0.39120659,
      -0.21228619,
      -0.04277129,
      -0.21040642,
      0.08507861,
      0.11421305,
      0.06488851,
      0.32723508,
      0.05673295,
      -0.04928057
    ],
    "201": [
      -0.12558059,
      0.02372491,
      0.14092525,
      -0.47229016,
      0.15843511,
      -0.02549195,
      0.1542169,
      -0.18192334,
      -0.07296255,
      -0.16252191,
      0.10911866,
      0.16819719,
      -0.24986312,
      0.50835188,
      -0.06983657,
      0.3254905
    ],
    "202": [
      -0.21808249,
      0.53730973,
      0.63848672,
      -0.17861655,
      -0.19083751,
      0.04859863,
      -0.00553523,
      0.12223919,
      -0.09743336,
      -0.34956234,
      0.20022396,
      0.44987973,
      0.00349311,
      0.37028166,
      0.16163791,
      -0.11141532
    ],
    "203": [
      -0.26844035,
      0.23799976,
      0.49316438,
      -0.39853381,
      -0.31926794,
      0.3351279,
      0.17830457,
      0.09738996,
      -0.27998549,
      -0.23531081,
      0.24280237,
      0.67133352,
      -0.08351204,
      0.29077744,
      0.18748794,
      -0.12822561
    ],
    "204": [
      -0.37643754,
      0.40515847,
      0.55410559,
      -0.45244692,
      -0.15285389,
      0.29200107,
      0.02441451,
      0.0130138,
      -0.06991905,
      -0.30268109,
      0.25983417,
      0.39729492,
      -0.01532777,
      0.5820813,
      0.11212793,
      0.04472427
    ],
    "205": [
      0.02309917,
      0.54910199,
      0.25510335,
      -0.66146368,
      0.21050008,
      0.37441229,
      -0.06592841,
      -0.1157805,
      0.14469064,
      -0.31589075,
      0.23740405,
      0.61328788,
      -0.03318936,
      0.39578963,
      0.17262624,
      -0.53348953
    ],
    "206": [
      -0.40352566,
      0.05489337,
      0.08051334,
      0.43115261,
      -0.02270162,
      -0.3253938,
      0.25947212,
      0.26920358,
      -0.30493414,
      -0.01388732,
      0.22558948,
      -0.71435971,
      -0.10642821,
      -0.09415928,
      -0.26834977,
      0.00443483
    ],
    "207": [
      -0.20901657,
      -0.52070841,
      -0.41838948,
      -0.39829075,
      0.57124561,
      -0.0581443,
      0.13527143,
      -0.03535812,
      0.20202796,
      0.11935528,
      -0.02873429,
      -0.33491085,
      -0.51922197,
      0.12147769,
      -0.68279147,
      -0.04702356
    ],
    "208": [
      -0.45888883,
      -0.06947013,
      0.02393303,
      0.28399439,
      0.03244326,
      -0.29275091,
      0.26063329,
      0.23203284,
      -0.35376158,
      -0.06259028,
      0.19757121,
      -0.69128681,
      -0.17977586,
      0.01995253,
      -0.28683199,
      0.04803003
    ],
    "209": [
      -0.02272524,
      -0.03870324,
      0.10625791,
      0.35874929,
      0.00636908,
      -0.56759349,
      -0.2246846,
      -0.15262463,
      -0.15144714,
      0.05099283,
      0.0722077,
      -0.28154572,
      -0.44186694,
      -0.0775708,
      -0.34258915,
      0.26730785
    ],
    "210": [
      -0.34079785,
      -0.65218572,
      -0.11063982,
      -0.42311091,
      -0.2105313,
      0.0270924,
      -0.23522668,
      0.14786524,
      0.8046693,
      -0.49258915,
      -0.8279007,
      0.65760343,
      0.01296385,
      -0.2480855,
      -0.75589479,
      0.64737757
    ],
    "211": [
      -0.35190752,
      -0.23615089,
      0.25296452,
      0.08332703,
      -0.4089775,
      -0.22710792,
      0.5145052,
      -0.03455454,
      0.16832971,
      -0.27435699,
      -0.37615679,
      0.2896495,
      -0.1261067,
      -0.21851779,
      -0.34166004,
      0.28365003
    ],
    "212": [
      -0.47425813,
      -0.02332507,
      0.27300655,
      0.18619065,
      -0.5452144,
      -0.1799333,
      0.47928062,
      0.06984391,
      -0.09538255,
      -0.26736977,
      -0.08841001,
      0.06498149,
      -0.05111127,
      -0.14286424,
      -0.09938145,
      0.36978457
    ],
    "213": [
      -0.54779464,
      -0.32293094,
      0.258906,
      -0.05125335,
      -0.46312464,
      -0.13503935,
      0.3994694,
      -0.02242083,
      0.09110073,
      -0.17095345,
      -0.18968433,
      0.17155319,
      -0.23444423,
      0.01779358,
      -0.32392155,
      0.55321195
    ],
    "214": [
      0.23601529,
      -0.38685939,
      0.08278941,
      0.1350663,
      -0.30961826,
      -0.34182934,
      -0.21289666,
      -0.32642136,
      -0.10429056,
      0.31365753,
      0.13307561,
      0.07413779,
      -0.48376305,
      -0.20561465,
      -0.14202316,
      0.07383317
    ],
    "215": [
      0.22397246,
      -0.10491359,
      -0.41123169,
      0.81051782,
      0.31620921,
      0.05612634,
      -0.24978428,
      0.41029598,
      -0.40808642,
      -0.34359578,
      -0.17413884,
      -0.685974,
      -0.37421442,
      -0.02110464,
      0.06054071,
      -0.51608928
    ],
    "216": [
      0.14485054,
      -0.59376585,
      -0.4926833,
      0.6746446,
      0.48937709,
      0.18625699,
      -0.24245116,
      0.31748766,
      -0.14156288,
      -0.18782546,
      -0.32969626,
      -0.58980905,
      -0.59692886,
      0.24943269,
      -0.41655465,
      -0.11625802
    ],
    "217": [
      0.18345787,
      -0.15323815,
      -0.41139669,
      0.79178704,
      0.31889785,
      0.05440485,
      -0.26549857,
      0.36451468,
      -0.39725514,
      -0.33456462,
      -0.18701597,
      -0.67717749,
      -0.39883559,
      0.02781,
      0.01572565,
      -0.49864362
    ],
    "218": [
      0.14484475,
      -0.25850657,
      -0.51161094,
      0.7414602,
      0.36791547,
      0.13708614,
      -0.11432039,
      0.30692771,
      -0.50566781,
      -0.40340467,
      -0.17841071,
      -0.65745076,
      -0.44066572,
      0.18622974,
      -0.11681402,
      -0.45446932
    ],
    "219": [
      0.18922989,
      -0.52753886,
      -0.58707394,
      0.53179268,
      0.54727698,
      0.32810327,
      -0.07349735,
      0.11319408,
      -0.13918796,
      -0.26914552,
      -0.39100977,
      -0.54624741,
      -0.49932937,
      0.29046689,
      -0.44592606,
      -0.37008814
    ],
    "220": [
      0.17098265,
      -0.23046931,
      -0.4740522,
      0.76381756,
      0.35666488,
      0.11980314,
      -0.15203993,
      0.28211402,
      -0.41709628,
      -0.32266921,
      -0.17731325,
      -0.65716115,
      -0.43242748,
      0.13929311,
      -0.18667113,
      -0.42671453
    ],
    "221": [
      0.30621078,
      -0.472621,
      -0.49369273,
      0.69809967,
      0.52199015,
      0.08446659,
      -0.12373288,
      0.18775853,
      -0.13214676,
      -0.3089504,
      -0.46859493,
      -0.48842276,
      -0.51895038,
      0.07974598,
      -0.45121823,
      -0.46170739
    ],
    "222": [
      0.2433361,
      0.20940886,
      0.12831519,
      0.24900408,
      -0.22781532,
      -0.39484966,
      -0.21679643,
      -0.28501437,
      -0.23333438,
      0.05452071,
      0.2989764,
      -0.40453799,
      -0.22607193,
      -0.01857118,
      0.14501043,
      -0.07886201
    ],
    "223": [
      0.25017135,
      -0.53475256,
      -0.8348185,
      -0.05089255,
      0.64628889,
      0.60626912,
      -0.51759816,
      0.05392396,
      0.36803555,
      -0.690286,
      -0.80098688,
      -0.16445195,
      -0.0478844,
      0.23844162,
      -0.67519024,
      -0.50666774
    ],
    "224": [
      0.01238009,
      -0.69337513,
