{
  "kind": "card-fixed-info-autoencoder-v1",
  "dim": 32,
  "feature_names": [
    "hp_norm",
    "retreat_norm",
    "basic",
    "stage1",
    "stage2",
    "ex",
    "mega_ex",
    "tera",
    "ace_spec",
    "skill_count_norm",
    "attack_count_norm",
    "attack_damage_sum_norm",
    "attack_damage_max_norm",
    "attack_energy_count_sum_norm",
    "card_type_0",
    "card_type_1",
    "card_type_2",
    "card_type_3",
    "card_type_4",
    "card_type_5",
    "card_type_6",
    "energy_type_0",
    "energy_type_1",
    "energy_type_2",
    "energy_type_3",
    "energy_type_4",
    "energy_type_5",
    "energy_type_6",
    "energy_type_7",
    "energy_type_8",
    "energy_type_9",
    "energy_type_10",
    "weakness_none",
    "weakness_1",
    "weakness_2",
    "weakness_3",
    "weakness_4",
    "weakness_5",
    "weakness_6",
    "weakness_7",
    "weakness_8",
    "resistance_none",
    "resistance_1",
    "resistance_6"
  ],
  "feature_mean": [
    0.25512821,
    0.27199211,
    0.45266272,
    0.28500986,
    0.09566075,
    0.09171598,
    0.02465483,
    0.0295858,
    0.02071006,
    0.08604536,
    0.30448718,
    0.10825115,
    0.1943787,
    0.19107495,
    0.82840237,
    0.06114398,
    0.02169625,
    0.05029586,
    0.02169625,
    0.00690335,
    0.00986193,
    0.24161736,
    0.12721893,
    0.08579882,
    0.09960552,
    0.06311637,
    0.10749507,
    0.1035503,
    0.08974359,
    0.0581854,
    0.02366864,
    0.0,
    0.19526627,
    0.11538462,
    0.17751479,
    0.08086785,
    0.1183432,
    0.03353057,
    0.14398422,
    0.06607495,
    0.06903353,
    0.82840237,
    0.05325444,
    0.1183432
  ],
  "feature_std": [
    0.19685855,
    0.20367573,
    0.49775414,
    0.45141914,
    0.29412543,
    0.28862459,
    0.15507086,
    0.16944167,
    0.14241191,
    0.12134211,
    0.17917211,
    0.12691604,
    0.21921243,
    0.14112295,
    0.37703035,
    0.23959423,
    0.14568982,
    0.21855476,
    0.14568982,
    0.08279914,
    0.09881637,
    0.42806356,
    0.33321806,
    0.28006674,
    0.29947331,
    0.24317215,
    0.30974163,
    0.30467627,
    0.28581406,
    0.23409371,
    0.15201459,
    1.0,
    0.39640554,
    0.31948553,
    0.38210377,
    0.27263206,
    0.32301406,
    0.18001742,
    0.35107373,
    0.24841307,
    0.25351115,
    0.37703035,
    0.22454043,
    0.32301406
  ],
  "encoder_weight": [
    [
      0.12885821,
      0.05201286,
      0.03521381,
      -0.04754754,
      0.18675415,
      0.13247906,
      -0.03852252,
      -0.0392953,
      -0.04760637,
      0.15957969,
      0.05120276,
      -0.00371554,
      -0.11628584,
      0.00794637,
      0.03256609,
      -0.1201855,
      0.07554799,
      -0.05978093,
      -0.03009995,
      0.10696082,
      -0.12231013,
      -0.01679397,
      -0.08336448,
      0.0481947,
      0.14605319,
      0.00027844,
      0.00109984,
      0.00866591,
      -0.04454403,
      -0.03009865,
      0.12574403,
      -0.10172201
    ],
    [
      -0.00926465,
      -0.06948916,
      0.09954418,
      -0.02451164,
      -0.01839164,
      0.0834355,
      -0.07651738,
      -0.08254506,
      0.11524522,
      0.01830666,
      0.09044288,
      0.03025972,
      -0.01644901,
      -0.02870502,
      0.03298927,
      0.00154373,
      0.08827272,
      0.00586086,
      -0.12950371,
      -0.00079554,
      -0.0639657,
      -0.00394331,
      -0.08481758,
      0.10319101,
      0.06129494,
      -0.02852297,
      -0.12394183,
      0.04533603,
      0.00900291,
      0.04549615,
      0.07473428,
      0.07804819
    ],
    [
      -0.01034924,
      -0.22706896,
      -0.16281844,
      -0.05207725,
      -0.10665267,
      0.07057885,
      0.09556832,
      -0.03043055,
      0.26223756,
      -0.19267409,
      0.08396219,
      0.01312774,
      0.02676764,
      -0.09170421,
      -0.04737551,
      -0.01101585,
      -0.14760591,
      0.00969025,
      -0.03516744,
      -0.14993231,
      -0.03056774,
      -0.03271272,
      0.01382718,
      -0.08041646,
      0.00416034,
      0.08520931,
      0.09689046,
      0.00225195,
      0.0048434,
      0.10973876,
      -0.03766196,
      -0.11942959
    ],
    [
      -0.01952944,
      0.20174359,
      0.16380176,
      0.15786324,
      0.06660892,
      -0.1193232,
      -0.06650807,
      -0.05102773,
      0.03197947,
      0.14264244,
      0.01056636,
      -0.07967839,
      0.08037353,
      0.00146967,
      -0.03042842,
      -0.12394534,
      0.07667219,
      -0.01921107,
      -0.06059708,
      0.10856352,
      0.02512939,
      0.00682886,
      0.15152942,
      -0.16608022,
      -0.07546777,
      0.03235956,
      -0.12620329,
      -0.08190719,
      0.04869175,
      -0.03492068,
      0.04574087,
      0.07134358
    ],
    [
      -0.11245473,
      -0.11342636,
      -0.09824729,
      0.00516469,
      0.07688303,
      0.08255807,
      -0.04839794,
      0.08537966,
      -0.092944,
      0.04896061,
      0.04719852,
      0.05625778,
      -0.21536265,
      0.03962124,
      0.12620445,
      0.04520016,
      0.11491108,
      -0.04211489,
      -0.07607108,
      0.12567331,
      -0.0480849,
      -0.04831544,
      -0.05845959,
      0.17731395,
      -0.01894183,
      0.03488361,
      -0.07787964,
      -0.00260791,
      -0.07188882,
      0.02522988,
      -0.09946651,
      -0.07804234
    ],
    [
      0.13488408,
      -0.00099005,
      -0.04913462,
      0.00418222,
      -0.00343726,
      0.07074046,
      -0.0717126,
      -0.08573033,
      -0.08253993,
      0.08096349,
      -0.13822268,
      -0.05214438,
      0.07318566,
      -0.03585618,
      0.09102017,
      -0.12041109,
      0.0506795,
      -0.07209576,
      0.01273441,
      0.12860599,
      0.03518098,
      -0.04280457,
      -0.0262501,
      0.05229586,
      0.05598994,
      0.06341485,
      -0.00512021,
      0.04676768,
      -0.1415937,
      -0.07254702,
      0.09207747,
      -0.11219086
    ],
    [
      -0.04775402,
      0.08318989,
      -0.08504038,
      -0.01565455,
      0.0203062,
      0.05975036,
      -0.00258979,
      0.1608604,
      0.04649584,
      0.11948917,
      0.05896133,
      -0.04675945,
      0.0252052,
      0.01889618,
      -0.01667989,
      -0.07929849,
      0.00430193,
      -0.15562045,
      -0.07011891,
      0.02348557,
      0.06845544,
      0.16461902,
      0.06301356,
      -0.07195262,
      0.02847391,
      0.14133752,
      -0.06400114,
      0.12705331,
      0.00203471,
      0.08652702,
      -0.02148651,
      -0.00802425
    ],
    [
      0.11004464,
      0.1160965,
      0.06300851,
      -0.00547588,
      0.03565322,
      0.03591776,
      -0.02247615,
      -0.00340213,
      -0.09940322,
      0.0607862,
      -0.0670653,
      -0.00979989,
      0.08112671,
      -0.00827661,
      0.09113489,
      -0.03669353,
      -0.02153417,
      -0.07973375,
      0.04500997,
      0.02788077,
      -0.03899575,
      -0.14649614,
      -0.00773184,
      0.04611924,
      0.06994881,
      -0.02937965,
      -0.00631113,
      0.01551372,
      0.00985376,
      -0.11836817,
      0.05994299,
      -0.09781695
    ],
    [
      -0.17152859,
      0.03267189,
      0.1011395,
      0.14177851,
      -0.009328,
      0.08654823,
      0.04206893,
      0.08136545,
      -0.06013308,
      -0.05945689,
      0.00656276,
      -0.09698621,
      -0.1130822,
      0.1178433,
      -0.08173985,
      0.03169034,
      -0.10277252,
      -0.0394919,
      -0.00226081,
      -0.06354507,
      0.06128988,
      -0.1091349,
      -0.0016684,
      -0.00022762,
      0.18337844,
      -0.05586226,
      0.04784671,
      0.10017236,
      -0.0858733,
      -0.1175303,
      0.00908604,
      0.00036967
    ],
    [
      0.00890704,
      0.05031036,
      0.08350505,
      -0.08368632,
      0.07411384,
      0.08061407,
      0.02642808,
      0.15336783,
      -0.16025807,
      0.12185288,
      -0.18107758,
      0.01544563,
      -0.10954756,
      0.17876298,
      0.03994083,
      -0.02835998,
      0.0239121,
      -0.05947135,
      0.02349443,
      0.10492939,
      0.00451874,
      0.10942827,
      -0.04669285,
      -0.02006419,
      -0.02318929,
      -0.04434122,
      0.13174375,
      0.05181291,
      -0.06095421,
      0.00693239,
      -0.07132366,
      -0.08828813
    ],
    [
      -0.00635832,
      -0.02798107,
      -0.03167799,
      0.04446044,
      -0.05641301,
      -0.06641279,
      0.00672801,
      -0.02101611,
      0.05691966,
      -0.10358214,
      0.00572077,
      0.01285825,
      0.12663835,
      -0.13110004,
      0.02359501,
      -0.04430828,
      0.04136707,
      0.02746736,
      0.03450933,
      -0.01275992,
      -0.06863697,
      -0.07930944,
      0.02501331,
      0.00214261,
      0.16226383,
      0.09933872,
      -0.12354771,
      -0.05008867,
      0.00209411,
      -0.12311367,
      0.07452551,
      0.03528695
    ],
    [
      -0.06345676,
      0.07424561,
      -0.0344945,
      -0.07209002,
      0.07182488,
      0.10391742,
      -0.06954556,
      -0.00290432,
      0.01129941,
      0.06786824,
      -0.01574465,
      -0.07225366,
      -0.09114021,
      0.05659721,
      0.05621521,
      -0.00630486,
      0.0848756,
      -0.00728171,
      0.00481563,
      0.16261501,
      0.01864045,
      0.0691599,
      0.02385683,
      0.08620284,
      0.08789228,
      0.00460421,
      -0.12139763,
      0.09257815,
      0.06220039,
      -0.07631367,
      0.09471395,
      -0.01510559
    ],
    [
      0.054488,
      -0.0066391,
      0.01478441,
      -0.01913792,
      0.03736881,
      0.22335557,
      -0.13649638,
      0.00818789,
      0.05125732,
      0.11228747,
      -0.02138789,
      0.11172336,
      -0.08084913,
      -0.03759317,
      0.12479477,
      -0.11153608,
      -0.09460717,
      0.05988803,
      0.02227588,
      0.09875162,
      -0.04719094,
      -0.00801484,
      -0.10176624,
      0.1409177,
      0.14227823,
      0.08510936,
      -0.15915528,
      0.10670002,
      0.10618642,
      -0.00254497,
      0.09412018,
      0.0092592
    ],
    [
      -0.03818133,
      0.00014723,
      0.0213526,
      0.01091725,
      -0.01079794,
      0.10565604,
      -0.06203976,
      -0.04500641,
      0.00898593,
      0.04434845,
      0.07531065,
      0.04536701,
      0.03841802,
      -0.09292031,
      0.14213028,
      0.00756451,
      0.01856518,
      0.01339169,
      -0.03573947,
      0.02141744,
      -0.03361636,
      -0.07211787,
      -0.14946537,
      -0.00156778,
      0.09508205,
      0.04207851,
      -0.0844968,
      0.02549199,
      0.10147792,
      -0.09627163,
      0.11762287,
      -0.08385962
    ],
    [
      -0.05310482,
      -0.05158512,
      -0.11900434,
      -0.00445919,
      0.04662318,
      0.03013606,
      0.05105448,
      0.00736719,
      0.07503388,
      -0.05938208,
      0.0639917,
      0.02708867,
      0.09141,
      -0.18424088,
      0.07688519,
      -0.08534474,
      0.07790606,
      -0.06886375,
      -0.13183033,
      -0.04300973,
      -0.01035387,
      -0.07864966,
      0.11953089,
      0.04281461,
      0.06002125,
      0.10006863,
      -0.05551446,
      -0.05904115,
      0.15803021,
      0.07330304,
      0.05389006,
      -0.02265127
    ],
    [
      0.03137773,
      0.04632745,
      0.06153428,
      -0.0421605,
      0.09234785,
      0.11562343,
      -0.1612105,
      0.07450039,
      -0.0510866,
      0.04528967,
      -0.02159826,
      -0.10985862,
      -0.07739742,
      -0.01426653,
      -0.10942503,
      0.04141459,
      -0.05391903,
      -0.08151211,
      0.07988431,
      -0.05601738,
      -0.0180722,
      0.08119404,
      0.13269475,
      -0.15619918,
      0.04772297,
      -0.08064386,
      -0.04209012,
      0.0852822,
      -0.10535341,
      -0.04320377,
      -0.08470827,
      -0.18901355
    ],
    [
      -0.04589367,
      0.14172898,
      -0.03258273,
      0.09022055,
      -0.02501701,
      0.28961897,
      -0.01158072,
      0.09222629,
      -0.07509735,
      -0.12024013,
      0.00801906,
      0.22329348,
      -0.0720495,
      -0.04428156,
      0.10685128,
      0.04177794,
      -0.08890063,
      0.04331343,
      0.04509672,
      0.06421823,
      0.07990827,
      -0.00633591,
      -0.02726708,
      0.09644746,
      -0.03494684,
      -0.09877426,
      0.02709623,
      -0.06457577,
      -0.04917268,
      -0.06523767,
      -0.01973725,
      0.11713532
    ],
    [
      0.06496279,
      -0.10207849,
      -0.22568235,
      -0.12013866,
      -0.16008374,
      0.01197823,
      -0.17210029,
      0.04499668,
      -0.14207645,
      -0.02050632,
      -0.09565878,
      -0.03585449,
      -0.07831753,
      0.03730829,
      0.0352275,
      0.05355928,
      -0.08275312,
      -0.00565522,
      -0.04745709,
      0.07126707,
      0.10580155,
      -0.03674015,
      -0.13837884,
      -0.0195837,
      -0.05215238,
      -0.1336233,
      0.04584023,
      0.14273951,
      0.07718053,
      0.0630085,
      0.00534732,
      0.09146349
    ],
    [
      -0.0733455,
      -0.10836819,
      0.06021004,
      -0.02387853,
      0.15107485,
      -0.09002456,
      0.07973087,
      0.06629956,
      -0.00125523,
      0.13630056,
      0.16159863,
      -0.03634743,
      -0.07568119,
      -0.00606565,
      -0.0428571,
      0.01962328,
      0.11169522,
      -0.15077933,
      -0.05984888,
      -0.08625522,
      0.12222498,
      0.04245444,
      -0.08758575,
      0.0294108,
      -0.06510208,
      0.01852598,
      0.03874852,
      0.03562819,
      -0.07283028,
      -0.09693818,
      -0.07713061,
      0.17698439
    ],
    [
      -0.0297297,
      -0.1280036,
      -0.0761854,
      -0.05314883,
      0.06452018,
      -0.0747711,
      0.06083869,
      0.07697064,
      0.03498674,
      0.10869575,
      0.13133971,
      0.07840587,
      -0.09984591,
      0.05650319,
      -0.04250019,
      0.10580346,
      -0.00411532,
      0.07800134,
      0.06996358,
      0.00020088,
      0.08491742,
      -0.01612801,
      0.08367942,
      0.11795327,
      -0.019998,
      0.10325398,
      0.08028662,
      -0.021975,
      0.04364269,
      0.05758431,
      -0.0462098,
      0.06343895
    ],
    [
      -0.05104565,
      0.0768906,
      0.04457141,
      -0.10065212,
      -0.11141417,
      -0.02154828,
      -0.14327691,
      -0.05577383,
      0.02727912,
      0.04026129,
      -0.02951728,
      0.09437695,
      -0.07199183,
      0.08240187,
      -0.04801176,
      0.01410914,
      0.13368382,
      0.10082103,
      0.09081267,
      -0.04618503,
      -0.00046151,
      0.00375289,
      -0.02983177,
      -0.07800733,
      0.00653937,
      -0.05126667,
      0.04862558,
      0.06707393,
      0.08644186,
      0.09904988,
      -0.07273062,
      -0.10176357
    ],
    [
      0.05447185,
      -0.05638007,
      0.08934919,
      0.06380101,
      -0.04619434,
      -0.03850737,
      -0.05642206,
      0.23855632,
      0.03928107,
      -0.05396988,
      -0.00618309,
      -0.05296964,
      -0.05314699,
      0.04020097,
      -0.08537811,
      0.03569827,
      0.05133387,
      -0.04391362,
      0.09434711,
      0.11917607,
      0.01051427,
      -0.03771226,
      -0.12897315,
      -0.0589232,
      -0.01329227,
      -0.08705091,
      0.08226722,
      0.15435665,
      -0.00981825,
      -0.09488245,
      -0.09869146,
      -0.00371705
    ],
    [
      -0.0494485,
      0.07514403,
      0.04600249,
      -0.10818569,
      -0.07801275,
      -0.12467882,
      0.24213731,
      -0.05900918,
      -0.12665601,
      0.13857311,
      0.02517082,
      0.04988665,
      0.00843373,
      -0.19530097,
      -0.15545073,
      0.00528222,
      -0.04824907,
      -0.12964112,
      -0.14345839,
      0.11157761,
      -0.16961575,
      -0.0951714,
      0.0439422,
      0.13964297,
      -0.03854784,
      0.00587019,
      0.09703414,
      -0.18043413,
      -0.08051186,
      0.15828987,
      -0.13312937,
      0.01066219
    ],
    [
      -0.09640886,
      0.13509259,
      -0.15869022,
      0.11222953,
      0.13773103,
      0.11050586,
      -0.08946973,
      0.19006515,
      0.01322721,
      -0.04418149,
      0.14667318,
      0.07065183,
      0.06710962,
      -0.13117936,
      0.02103854,
      0.18821042,
      -0.0761864,
      -0.12170215,
      -0.12109711,
      -0.16356611,
      -0.10220212,
      -1.252e-05,
      -0.02491612,
      0.03670107,
      -0.23434278,
      0.00235747,
      0.06017179,
      0.17918429,
      0.22974213,
      -0.01606807,
      0.16832379,
      0.05186058
    ],
    [
      -0.18661848,
      -0.12989832,
      -0.06320182,
      -0.10116952,
      0.02073197,
      0.04040427,
      0.02120646,
      -0.11237127,
      -0.12692042,
      -0.14237923,
      0.10728412,
      0.07148923,
      0.06444368,
      0.11508619,
      -0.06824871,
      -0.23499631,
      0.00404199,
      -0.03094681,
      0.07092233,
      0.02580001,
      0.03265738,
      0.03238822,
      0.03221806,
      -0.11568445,
      0.0104805,
      -0.24559786,
      -0.10974283,
      0.11122389,
      -0.0343647,
      0.16301388,
      0.21733127,
      0.0304383
    ],
    [
      -0.00793203,
      -0.08878252,
      -0.04000189,
      0.12073526,
      -0.24251578,
      -0.08175291,
      -0.00019907,
      -0.01500322,
      0.11545726,
      0.03810311,
      0.03254655,
      0.04642339,
      -0.02643347,
      -0.05263843,
      -0.05305473,
      -0.10773386,
      -0.1840347,
      -0.12266349,
      -0.05241698,
      0.09761813,
      0.24199035,
      0.00118304,
      -0.00977985,
      0.07033432,
      0.08678214,
      0.02499611,
      -0.07196698,
      -0.07480926,
      -0.06414394,
      -0.09416354,
      0.03567256,
      -0.17285814
    ],
    [
      0.15081961,
      -0.02194203,
      -0.01981866,
      0.21880232,
      -0.01458825,
      -0.05821923,
      -0.02593079,
      0.1584059,
      -0.08222856,
      -0.12910129,
      0.06281283,
      -0.0793702,
      -0.00678045,
      0.07029891,
      0.0522383,
      -0.06492681,
      0.22210658,
      -0.01085185,
      0.002045,
      -0.04930641,
      -0.12828455,
      0.0324877,
      0.01202784,
      -0.03800654,
      0.16872564,
      0.03236393,
      -0.0627102,
      -0.00787798,
      -0.11064973,
      0.01064529,
      -0.03503284,
      0.09932051
    ],
    [
      -0.11131431,
      0.06135823,
      -0.05748149,
      -0.09687056,
      0.0209115,
      0.05768835,
      0.00970528,
      -0.11914334,
      0.10776684,
      -0.02860889,
      -0.17625587,
      -0.19475397,
      0.05105349,
      0.02366071,
      0.16167402,
      0.16366994,
      0.00098692,
      -0.04284144,
      0.25853468,
      -0.04294705,
      0.12206451,
      -0.0286951,
      0.13484693,
      0.0452767,
      0.11872197,
      0.15767498,
      -0.13761775,
      0.005085,
      0.17494831,
      0.10349997,
      -0.1637019,
      0.05249805
    ],
    [
      0.24705435,
      -0.07182605,
      0.20377358,
      0.09931387,
      0.15881121,
      -0.02391572,
      0.15032005,
      0.0193582,
      0.01185397,
      0.02326104,
      -0.11273797,
      -0.06750465,
      -0.08539789,
      -0.089384,
      -0.02860314,
      0.07106538,
      -0.0113116,
      0.08657924,
      -0.07801119,
      -0.06468605,
      0.18150808,
      0.06865978,
      -0.01060711,
      -0.00050066,
      0.01795805,
      -0.03503804,
      -0.08403312,
      -0.14171113,
      0.14678652,
      -0.03255521,
      0.15303166,
      0.08296462
    ],
    [
      -0.02562604,
      -0.1080881,
      0.09535982,
      -0.07928347,
      0.00142995,
      -0.03213374,
      -0.04432975,
      -0.0873975,
      0.16020333,
      0.1052595,
      0.20401608,
      -0.11876608,
      -0.16196699,
      0.19449293,
      0.16988653,
      -0.0908039,
      0.01802063,
      0.14083733,
      -0.16005793,
      -0.1023564,
      -0.061539,
      -0.11637191,
      0.13658863,
      -0.03912138,
      -0.10783036,
      0.12537728,
      0.0723728,
      0.08677741,
      -0.05584068,
      -0.10827656,
      -0.09288522,
      0.03379703
    ],
    [
      0.06378996,
      0.11079478,
      -0.16495282,
      0.02499199,
      0.07127438,
      -0.08672612,
      0.01883021,
      -0.09853566,
      0.11314092,
      0.04712002,
      0.02045247,
      -0.0376384,
      -0.06957156,
      0.05132592,
      0.01845197,
      -0.05638433,
      -0.1550866,
      0.1145757,
      0.13522252,
      0.01913034,
      -0.04682648,
      0.08601377,
      -0.12101614,
      0.07281519,
      -0.05906316,
      -0.04783417,
      0.01828311,
      -0.07224472,
      0.13115869,
      -0.16471286,
      0.00519085,
      -0.0674295
    ],
    [
      0.09496388,
      0.10221644,
      0.04579125,
      0.09833701,
      0.03312424,
      0.03057726,
      -0.0178261,
      -0.04134532,
      0.0098111,
      -0.02336591,
      -0.0184976,
      0.03984405,
      -0.00300355,
      -0.07468093,
      -0.0074907,
      -0.03485836,
      -0.01143908,
      -0.05161335,
      0.06327255,
      0.09839926,
      -0.05233629,
      0.03566606,
      0.03312636,
      -0.05050493,
      0.00826508,
      0.07375616,
      0.04552883,
      0.08411674,
      -0.05539882,
      -0.03424539,
      0.01761041,
      0.02071749
    ],
    [
      0.03773832,
      0.02887086,
      -0.05691322,
      -0.08013731,
      0.06196761,
      -0.11339196,
      0.04025022,
      0.02670551,
      -0.12122405,
      0.07006369,
      -0.09518311,
      -0.03045211,
      -0.09686544,
      0.13115974,
      0.01519517,
      0.09361295,
      -0.09524798,
      0.00730273,
      0.11738372,
      -0.03020292,
      0.0659232,
      0.05390064,
      -0.12887647,
      0.06775525,
      -0.01476404,
      -0.12173796,
      0.10131508,
      0.16254563,
      0.04185779,
      -0.11633304,
      -0.14294794,
      -0.00450017
    ],
    [
      0.025712,
      -0.04285686,
      0.01407004,
      0.04582043,
      0.1041846,
      -0.00043327,
      0.21070034,
      -0.08305723,
      0.0720323,
      0.01832994,
      -0.1022541,
      -0.13619338,
      -0.01249805,
      -0.04093677,
      0.07619473,
      0.2619614,
      0.01581274,
      0.09846352,
      0.09803459,
      -0.0298881,
      0.20974332,
      -0.08660908,
      0.0566417,
      -0.03664472,
      0.10078821,
      0.03019655,
      -0.10561457,
      0.05348255,
      0.12002186,
      0.03438318,
      -0.06568577,
      0.02470395
    ],
    [
      -0.05744378,
      0.12872333,
      0.09977219,
      -0.14982761,
      -0.11829071,
      0.04100854,
      0.07384604,
      -0.10069342,
      -0.02413367,
      0.13603654,
      -0.0253362,
      0.04363144,
      -0.05596543,
      -0.08190086,
      -0.07632697,
      -0.0286408,
      -0.05605866,
      0.13058773,
      -0.15686946,
      0.00463862,
      -0.24780221,
      -0.12713213,
      0.05357756,
      0.11091881,
      0.00404526,
      0.18650756,
      0.12873338,
      -0.07296807,
      -0.10766707,
      -0.06021243,
      -0.0979235,
      0.10201771
    ],
    [
      -0.08144048,
      0.04716452,
      -0.15748244,
      -0.02823849,
      0.16901712,
      0.00485066,
      -0.07336234,
      0.23495636,
      0.02893856,
      0.08948852,
      0.02288157,
      0.12337038,
      0.20858997,
      -0.10935385,
      0.02253982,
      0.12060557,
      -0.03167512,
      -0.02915283,
      -0.03748137,
      -0.1412651,
      -0.13178144,
      0.00064449,
      -0.02307412,
      0.03783219,
      -0.14831207,
      -0.03952004,
      0.11664388,
      0.16745773,
      0.11667621,
      -0.04573491,
      0.11864998,
      0.06244349
    ],
    [
      -0.19054854,
      -0.02147788,
      -0.00706572,
      -0.0917773,
      0.01777859,
      -0.05104336,
      0.07391097,
      -0.11313807,
      -0.12801377,
      -0.09557837,
      0.02640923,
      0.14252221,
      0.14793098,
      0.13302775,
      0.13055868,
      -0.08536165,
      -0.08843608,
      0.11343635,
      0.06830612,
      0.01515136,
      -0.01106845,
      0.04591361,
      0.05257649,
      -0.0171552,
      -0.05410163,
      -0.1450506,
      -0.04618537,
      0.01791896,
      0.00868924,
      0.03844288,
      0.17282775,
      -0.12111593
    ],
    [
      -0.17353632,
      0.08707146,
      -0.00923287,
      -0.12255445,
      -0.09262323,
      0.06505668,
      -0.06462795,
      -0.05923214,
      0.12756734,
      0.03018313,
      -0.19640254,
      -0.07963588,
      0.11186298,
      0.04318201,
      0.09149651,
      0.01283189,
      0.04507523,
      -0.09064294,
      0.16338254,
      -0.03272217,
      0.09409056,
      0.10030186,
      0.00646866,
      0.07680961,
      -0.11358577,
      0.11646671,
      -0.08677282,
      0.00248212,
      0.01502352,
      0.15448101,
      -0.03303302,
      0.1007835
    ],
    [
      0.10773458,
      -0.0894656,
      0.02783282,
      0.08618019,
      -0.24009749,
      -0.04541112,
      -0.07391618,
      0.184185,
      0.24416625,
      0.06721211,
      0.05393773,
      0.24067938,
      -0.07313261,
      -0.18302534,
      -0.08471542,
      -0.11828952,
      -0.02358165,
      -0.03818194,
      0.04524179,
      0.05200016,
      0.22842247,
      0.01878667,
      -0.06659903,
      -0.03172093,
      -0.03158016,
      -0.03818919,
      -0.06022886,
      0.01035981,
      -0.06265988,
      -0.15274075,
      -0.0040617,
      -0.14833641
    ],
    [
      0.12641108,
      -0.03363771,
      -0.1014532,
      0.07261949,
      -0.10894586,
      -0.03892599,
      0.04257261,
      0.07707893,
      -0.10322375,
      -0.0820148,
      -0.12134516,
      -0.05344348,
      0.08244883,
      0.15160594,
      0.10729271,
      -0.01278653,
      0.0628873,
      -0.01396575,
      0.12882967,
      -0.04321996,
      -0.08355136,
      0.16522366,
      0.00758654,
      0.02068073,
      0.08095952,
      0.20526264,
      0.01387924,
      -0.07613457,
      0.0057599,
      -0.10033378,
      -0.0046009,
      0.05599344
    ],
    [
      0.04502415,
      -0.03161901,
      -0.07086643,
      -0.03323016,
      0.0794098,
      -0.08348524,
      -0.16957734,
      0.06662136,
      0.167831,
      -0.11533416,
      0.01617502,
      -0.13988203,
      0.00338883,
      0.12226233,
      -0.08882486,
      -0.10162813,
      0.13181122,
      -0.12901738,
      -0.18907901,
      0.04447581,
      -0.0148279,
      -0.01299464,
      -0.07415912,
      -0.11019803,
      0.08132519,
      -0.17077249,
      -0.05068283,
      -0.06057071,
      -0.05966239,
      0.10507813,
      -0.02236486,
      0.16834249
    ],
    [
      0.01008152,
      0.14358557,
      -0.00979653,
      -0.0844539,
      0.09206412,
      0.06469928,
      -0.06593968,
      -0.17458898,
      0.06608906,
      0.0474498,
      0.0104696,
      -0.05578438,
      0.01712961,
      -0.30744605,
      -0.22079167,
      0.12957819,
      -0.11192304,
      -0.21120344,
      -0.04597645,
      0.13346101,
      0.19508042,
      -0.08837319,
      -0.04497996,
      0.03256934,
      0.00698325,
      -0.07134906,
      -0.08819138,
      0.0329783,
      0.07445791,
      0.25605577,
      -0.00682186,
      -0.11485665
    ],
    [
      -0.14097369,
      -0.00332711,
      0.060187,
      -0.20315213,
      -0.04785561,
      0.03068174,
      -0.09697294,
      -0.05600808,
      0.14095548,
      0.1319885,
      0.10695711,
      -0.15988059,
      -0.13421453,
      0.10217864,
      0.12062095,
      -0.09502363,
      -0.06751999,
      0.05949025,
      -0.06816532,
      -0.04503263,
      0.00057123,
      -0.12937472,
      0.14887111,
      -0.05471792,
      -0.15101766,
      0.06951299,
      0.10410624,
      0.07928704,
      -0.10166535,
      -0.09689256,
      0.01392298,
      0.0385103
    ],
    [
      0.02145429,
      -0.04880733,
      -0.02369031,
      0.07329816,
      -0.03677655,
      0.00019863,
      0.20734946,
      0.20380656,
      -0.07313577,
      -0.12467759,
      -0.0622839,
      -0.03265106,
      0.1273591,
      -0.03414031,
      0.13401399,
      -0.14810204,
      0.05858496,
      0.1304063,
      0.06209539,
      -0.11307173,
      -0.03591923,
      0.22994398,
      0.04794881,
      0.06476775,
      0.03663251,
      0.0952398,
      0.09342553,
      -0.02020556,
      0.01986412,
      -0.00665889,
      0.12288646,
      -0.06783588
    ]
  ],
  "encoder_bias": [
    -0.00196598,
    -0.01345825,
    -0.00011117,
    -0.01272386,
    0.00617216,
    -0.02835395,
    -0.0023681,
    0.00576877,
    -0.01837761,
    -0.00832692,
    0.0124757,
    0.00044981,
    0.00845752,
    0.00586148,
    -0.03704867,
    0.0086344,
    -0.00884029,
    -0.01013593,
    0.01035393,
    -0.00055069,
    -0.00565598,
    0.00074464,
    0.01062955,
    -0.01018003,
    0.0031418,
    -0.01685875,
    0.03417276,
    -0.00674799,
    -0.01284931,
    0.00472217,
    -0.0158551,
    0.01374952
  ],
  "decoder_weight": [
    [
      0.11188671,
      -0.00437454,
      0.03073925,
      0.04583828,
      -0.04359712,
      0.19765573,
      -0.02507766,
      0.15615222,
      -0.19295574,
      0.0055452,
      -0.07880677,
      -0.04945298,
      0.03238269,
      0.01139203,
      -0.04529962,
      0.05331949,
      -0.03617598,
      0.07667179,
      -0.04705494,
      -0.01923637,
      -0.05862761,
      0.05842521,
      -0.06362335,
      -0.07134857,
      -0.21002853,
      0.0287646,
      0.243087,
      -0.16547181,
      0.25744419,
      -0.14184143,
      0.11073231,
      -0.00913908,
      0.04983449,
      0.1173579,
      -0.03598037,
      -0.11512813,
      -0.1845425,
      -0.16490845,
      0.18456806,
      0.13378808,
      0.05514679,
      0.00012581,
      -0.05653991,
      0.08858744
    ],
    [
      0.01659303,
      -0.0505213,
      -0.25332665,
      0.24855988,
      -0.08391863,
      0.0368285,
      0.08393392,
      0.12090409,
      0.04307997,
      0.06756874,
      -0.04707398,
      0.05291114,
      0.05314075,
      -0.02917734,
      0.01724946,
      0.09082262,
      0.16133067,
      -0.06441309,
      -0.10055002,
      -0.11095578,
      0.13273833,
      -0.04622989,
      0.13176532,
      0.09101714,
      -0.10275077,
      -0.12813226,
      -0.10958148,
      0.05905961,
      -0.0995381,
      -0.05691347,
      0.12982283,
      0.00288608,
      0.10201614,
      -0.06299417,
      0.04587119,
      0.10716534,
      -0.12103745,
      0.10131809,
      -0.12359071,
      -0.07167425,
      -0.06861368,
      0.13977943,
      -0.0888442,
      -0.10219003
    ],
    [
      -0.0624826,
      0.07351615,
      -0.2126795,
      0.20699316,
      -0.0794714,
      -0.00570959,
      -0.08961321,
      0.05728439,
      0.14241641,
      0.10944394,
      -0.04027496,
      -0.0068013,
      0.00840641,
      -0.04963358,
      -0.06077138,
      0.12742032,
      -0.01413343,
      -0.20346642,
      0.08283209,
      -0.07645669,
      0.0862291,
      0.1182887,
      0.04953756,
      -0.23607199,
      -0.08343011,
      -0.06276386,
      -0.10008967,
      -0.057602,
      0.22554047,
      0.11789395,
      -0.20698896,
      0.01752888,
      -0.04058079,
      -0.01007897,
      0.13330214,
      -0.20578171,
      0.01165259,
      -0.03319372,
      0.04269611,
      -0.05241862,
      -0.01473982,
      -0.05875067,
      0.06582338,
      -0.05909093
    ],
    [
      -0.08274348,
      -0.09225402,
      -0.12272124,
      0.11368122,
      -0.0172308,
      -0.02466801,
      -0.01698993,
      0.00919091,
      0.19493564,
      -0.0685877,
      0.01066026,
      -0.03608482,
      -0.06733103,
      0.014203,
      0.07784734,
      -0.01983068,
      0.11299669,
      -0.12010941,
      0.000776,
      -0.05897699,
      -0.09454375,
      0.0160363,
      -0.11889922,
      0.059841,
      -0.10191141,
      0.06613003,
      0.20730062,
      -0.16165208,
      0.08010979,
      -0.12589751,
      -0.01528928,
      -0.00841573,
      -0.04977249,
      0.09113218,
      -0.31157992,
      0.00321355,
      -0.11875865,
      -0.09975567,
      0.19141416,
      0.19041495,
      0.01694059,
      -0.05483889,
      -0.16683789,
      0.20436284
    ],
    [
      0.14482825,
      0.0291132,
      -0.18592489,
      0.08321911,
      0.13310529,
      0.11518481,
      0.11154739,
      0.0194279,
      0.00141603,
      0.11907787,
      -0.02129528,
      0.13406574,
      0.06228558,
      0.02801491,
      -0.00158037,
      0.06616988,
      -0.05246561,
      -0.20996386,
      0.1758129,
      0.09233612,
      -0.14598967,
      -0.03103304,
      -0.10568511,
      0.24171638,
      0.0421503,
      -0.27020508,
      -0.06157278,
      0.05360549,
      0.18563111,
      -0.02664284,
      0.12624092,
      0.03882917,
      0.04984645,
      0.19334997,
      -0.05571145,
      0.20858317,
      0.01940214,
      -0.08160177,
      -0.26807307,
      -0.12885655,
      0.16242415,
      0.09498036,
      -0.05921731,
      -0.01386603
    ],
    [
      0.21774933,
      0.14353179,
      0.07510998,
      -0.07608411,
      0.14917613,
      0.1815334,
      0.13651173,
      0.04099018,
      0.1117687,
      0.10204059,
      0.03795307,
      0.16247068,
      0.29261344,
      0.1157813,
      -0.01741313,
      0.01991549,
      0.29151591,
      -0.0608985,
      -0.0760906,
      -0.13667618,
      -0.07929988,
      0.03367357,
      -0.04790109,
      0.14159391,
      0.06959912,
      -0.02385892,
      -0.00502971,
      0.07533086,
      0.01285787,
      -0.00057088,
      -0.06566594,
      -0.07322314,
      -0.0231963,
      0.07749694,
      -0.01598034,
      0.08946188,
      0.0086796,
      0.11516159,
      -0.01785441,
      0.0018613,
      -0.05407871,
      0.05088316,
      0.04365625,
      -0.09256427
    ],
    [
      -0.11957648,
      -0.07131754,
      0.17582673,
      -0.03856537,
      -0.01151622,
      -0.09017289,
      0.01861906,
      -0.02607791,
      0.02984288,
      0.00471827,
      0.01163818,
      -0.21900748,
      -0.15734792,
      -0.0677541,
      0.08978009,
      -0.05442544,
      0.07480901,
      -0.1010959,
      0.15484384,
      0.09634644,
      -0.12717317,
      -0.06307651,
      0.17500467,
      -0.14047517,
      -0.05059479,
      -0.0198666,
      -0.03850547,
      -0.02175491,
      0.15167908,
      -0.10481403,
      0.01714836,
      0.01673787,
      -0.06301477,
      0.16021235,
      0.10235246,
      -0.0992231,
      0.05141781,
      -0.08658002,
      -0.14428537,
      0.06671265,
      -0.22798519,
      -0.07112644,
      -0.13448728,
      0.23701223
    ],
    [
      0.01364311,
      -0.09842496,
      -0.02215121,
      -0.0643324,
      0.02407804,
      -0.13934881,
      0.14211234,
      -0.03444898,
      0.02387908,
      0.12564356,
      -0.0628261,
      -0.03883493,
      0.01335045,
      -0.1353489,
      -0.10907979,
      0.06176604,
      0.09410258,
      0.03607657,
      0.05313742,
      0.06960738,
      -0.05736125,
      0.25658842,
      -0.113654,
      0.24784206,
      -0.19296635,
      0.00621641,
      0.16957321,
      -0.12431881,
      0.01540181,
      -0.07062583,
      -0.15760775,
      0.01376852,
      0.04876836,
      -0.19332264,
      -0.17479421,
      0.22128667,
      -0.10859849,
      -0.10502629,
      0.08607055,
      0.16698088,
      0.04552048,
      -0.17061759,
      -0.10111283,
      0.21566749
    ],
    [
      0.01742736,
      0.14000858,
      0.31558333,
      -0.00209414,
      -0.13321141,
      -0.12428934,
      0.06553816,
      -0.11757837,
      -0.10347904,
      -0.21662705,
      0.13056867,
      0.09759754,
      0.03188949,
      0.12940471,
      0.241705,
      -0.11347889,
      -0.07474979,
      -0.15134621,
      -0.02970174,
      0.03128747,
      -0.02867123,
      -0.04014885,
      -0.13344109,
      0.05137759,
      -0.14185557,
      0.14041527,
      -0.13830722,
      0.15710564,
      0.02604632,
      0.19907159,
      0.05779352,
      0.02498601,
      -0.13731271,
      0.0560013,
      -0.02556921,
      -0.02234769,
      -0.24311038,
      0.15635085,
      0.24996613,
      -0.19973044,
      0.14830819,
      0.02747122,
      0.16942114,
      -0.11832231
    ],
    [
      0.2146565,
      0.08897527,
      -0.26030578,
      0.16807355,
      0.07201327,
      0.12427809,
      0.14619557,
      0.0941178,
      -0.07083883,
      0.12456072,
      -0.06091297,
      0.20397421,
      0.21933179,
      0.04421569,
      -0.02209855,
      0.0473101,
      -0.14846166,
      -0.01559285,
      0.14985127,
      0.0916574,
      0.0271684,
      -0.0520507,
      0.17822708,
      -0.0142997,
      -0.14967603,
      0.0790815,
      -0.18096707,
      -0.02585875,
      0.02771422,
      0.10146962,
      0.06002019,
      0.01284399,
      0.02419907,
      0.01436474,
      0.16500828,
      0.05562442,
      -0.19024147,
      0.01994449,
      0.00832731,
      -0.18400329,
      -0.18808669,
      0.08067133,
      0.17289368,
      -0.19792225
    ],
    [
      0.07688847,
      0.10524745,
      0.04357242,
      -0.02075725,
      0.03233969,
      -0.10517868,
      0.10481276,
      -0.08548403,
      -0.01315435,
      -0.19613464,
      0.07389209,
      0.01820652,
      -0.03539099,
      0.07312984,
      0.11927958,
      -0.10693091,
      -0.00937453,
      -0.20347623,
      0.1171207,
      0.10550285,
      -0.01829097,
      -0.03973823,
      -0.04273871,
      0.08454771,
      0.12763682,
      0.05249499,
      0.0070752,
      -0.24286371,
      -0.12770296,
      0.19572446,
      0.04049876,
      -0.02859451,
      -0.1287436,
      -0.05840589,
      0.10880883,
      0.14843763,
      0.03502485,
      -0.23118412,
      0.11874776,
      -0.06306843,
      0.10104116,
      -0.1120937,
      0.13962009,
      -0.06731496
    ],
    [
      -0.04987024,
      0.05336867,
      0.06739954,
      -0.06028601,
      0.08675618,
      -0.04554532,
      -0.04680527,
      -0.01685304,
      -0.07733908,
      -0.00392179,
      -0.02569767,
      0.04145165,
      0.05900794,
      0.01784609,
      0.00574498,
      -0.23329021,
      0.15258225,
      -0.1157443,
      -0.06691284,
      0.05645534,
      0.06305483,
      0.02126378,
      0.0743107,
      0.12714211,
      0.07626846,
      0.14368482,
      -0.10937165,
      -0.16489849,
      -0.01589908,
      -0.10247834,
      -0.05287753,
      0.06598422,
      -0.03640357,
      -0.20591535,
      0.01308432,
      0.09882554,
      0.13266816,
      -0.1369145,
      0.17517318,
      -0.03398678,
      -0.14789861,
      0.07621953,
      -0.14189992,
      0.00414393
    ],
    [
      -0.01693243,
      0.06198256,
      0.12155073,
      0.13823452,
      -0.27178015,
      0.03387204,
      -0.02874353,
      0.0830791,
      -0.11374471,
      -0.13699487,
      0.17309355,
      -0.0352578,
      -0.07456809,
      -0.01290153,
      0.18014363,
      -0.00873293,
      -0.03494215,
      -0.0077227,
      -0.02783232,
      -0.12458565,
      -0.05434849,
      -0.07768295,
      -0.01955966,
      0.10156164,
      0.07870581,
      0.01047736,
      0.0683889,
      0.08869667,
      -0.03756747,
      -0.1806624,
      -0.10799092,
      0.02999269,
      -0.15427429,
      -0.08831066,
      -0.12897835,
      0.20468324,
      0.16422197,
      0.09875935,
      -0.12617275,
      0.08476212,
      -0.03092487,
      0.06487323,
      -0.23374112,
      0.12025347
    ],
    [
      -0.10497918,
      -0.05056182,
      -0.19793206,
      -0.04482903,
      0.03568121,
      -0.05727136,
      0.05125444,
      0.00132386,
      0.04019481,
      0.22981594,
      -0.19735899,
      0.01801541,
      -0.04701458,
      -0.11905772,
      -0.13932608,
      0.0465585,
      0.04382906,
      0.06109097,
      0.07280103,
      0.12199882,
      0.02964143,
      0.11680958,
      -0.26955303,
      -0.20015746,
      0.15695566,
      -0.0198614,
      0.10768372,
      0.01269999,
      -0.1109528,
      0.22822244,
      0.02170343,
      0.03819339,
      0.19226337,
      -0.09999194,
      -0.05042484,
      -0.15206952,
      0.08377486,
      0.01431967,
      -0.26774673,
      0.14108652,
      0.11363362,
      -0.26010211,
      0.26442436,
      0.16998095
    ],
    [
      0.1771575,
      0.09839136,
      -0.00340632,
      0.04413904,
      0.19759439,
      0.07069336,
      -0.02059695,
      0.18231743,
      -0.04160209,
      -0.01882038,
      0.08334216,
      0.1737394,
      0.21921144,
      0.18998857,
      0.16253481,
      -0.12982368,
      0.07520993,
      -0.04548104,
      -0.06619205,
      -0.06535582,
      -0.05443386,
      -0.02725037,
      -0.20971254,
      0.04286082,
      -0.0677839,
      -0.07698071,
      0.08281349,
      0.09799489,
      -0.00882305,
      0.25120723,
      0.0337975,
      0.03878826,
      -0.11728761,
      0.11990417,
      -0.11949341,
      0.01647768,
      0.08773697,
      0.15986055,
      -0.13514943,
      0.1027411,
      -0.08341694,
      -0.27864136,
      0.15532853,
      0.23259039
    ],
    [
      -0.18770353,
      0.00860972,
      0.01758066,
      -0.14889726,
      0.0203332,
      -0.18741378,
      -0.13679004,
      -0.02903632,
      0.02282639,
      0.00942231,
      -0.11684937,
      -0.14035664,
      -0.14297197,
      -0.07355339,
      -0.13884683,
      0.02700546,
      0.10566963,
      0.05447873,
      0.05584905,
      0.04441131,
      0.02833623,
      0.07390859,
      0.10514003,
      0.21005064,
      -0.21501904,
      -0.11694434,
      -0.05045111,
      0.2005002,
      0.07807129,
      -0.10853958,
      -0.07860312,
      0.02137699,
      0.1713093,
      0.34651043,
      -0.08195283,
      0.18979069,
      -0.17072663,
      0.06103782,
      -0.13866115,
      -0.08959215,
      -0.18493562,
      0.19688063,
      -0.0892501,
      -0.10616227
    ],
    [
      0.08672965,
      0.19597416,
      -0.13636944,
      0.12216775,
      0.14181879,
      0.10328436,
      0.02455115,
      -0.04290776,
      -0.15867517,
      0.00727275,
      0.08985101,
      0.07792644,
      0.02536207,
      0.08622319,
      0.09586558,
      -0.07898129,
      -0.12472733,
      -0.10089726,
      0.12184168,
      -0.03032552,
      0.12709351,
      -0.0464606,
      -0.0790757,
      -0.09212358,
      -0.00419156,
      -0.18279962,
      0.30700208,
      -0.03565523,
      -0.03499938,
      0.01644334,
      -0.18973549,
      0.07296681,
      -0.13666012,
      0.05057571,
      -0.06936828,
      -0.01771179,
      -0.02523902,
      0.0653685,
      -0.01938231,
      0.17282179,
      0.17369292,
      -0.08512883,
      0.00322292,
      0.16583121
    ],
    [
      -0.09707167,
      0.03800293,
      0.02313807,
      -0.04172437,
      -0.07265716,
      -0.01517585,
      -0.1739989,
      -0.17566674,
      -0.04301993,
      -0.13218078,
      0.05247546,
      -0.03425284,
      0.07682483,
      -0.00328082,
      0.01143421,
      -0.07372297,
      0.06822402,
      0.02277769,
      -0.17946649,
      0.06503519,
      0.15417359,
      -0.11401271,
      0.02164687,
      -0.0767544,
      -0.02193838,
      -0.11529723,
      -0.0458103,
      0.01059812,
      0.10339427,
      0.17423285,
      0.13697471,
      -0.09711428,
      0.01849612,
      0.09486725,
      0.09817138,
      -0.08153634,
      0.18642825,
      -0.09147718,
      -0.03796571,
      0.10686628,
      -0.14705744,
      -0.2684306,
      0.22914117,
      0.13426134
    ],
    [
      -0.05854843,
      -0.12633142,
      -0.02622998,
      -0.08015438,
      -0.08258135,
      0.01080301,
      -0.09788783,
      0.04390373,
      0.07704147,
      0.04232815,
      -0.03982016,
      0.03006187,
      -0.0535619,
      -0.05334655,
      -0.19691801,
      0.11102944,
      0.03713357,
      -0.00254498,
      -0.03176339,
      0.08607103,
      0.10407439,
      0.12624532,
      -0.21495203,
      -0.13194068,
      0.0152339,
      -0.06940053,
      -0.01469518,
      0.27536243,
      -0.12725261,
      -0.15141943,
      0.11339892,
      0.0438108,
      0.17513032,
      0.14855556,
      -0.20254399,
      -0.13980788,
      0.09128032,
      0.17318425,
      0.01121374,
      0.11431418,
      -0.1862074,
      0.03009023,
      -0.20473058,
      0.09948386
    ],
    [
      0.18170587,
      0.0320689,
      -0.17136422,
      0.16324679,
      0.13498557,
      0.15218679,
      0.06680102,
      0.08763714,
      -0.06865397,
      0.162135,
      0.03891054,
      0.1949757,
      0.19808836,
      0.07135701,
      -0.03099235,
      -0.00321784,
      0.09023068,
      0.09035043,
      -0.07384039,
      -0.01374083,
      -0.03587436,
      0.09072035,
      0.09731082,
      -0.1583934,
      0.08993028,
      0.1128192,
      -0.10399116,
      -0.00637585,
      -0.05847192,
      -0.10273856,
      0.01686258,
      0.00903816,
      0.07232369,
      -0.00374294,
      0.07223731,
      -0.15763492,
      -0.0153547,
      -0.01981979,
      0.14886948,
      -0.06406142,
      0.08221989,
      0.11302839,
      -0.15484642,
      -0.0939778
    ],
    [
      -0.12753427,
      -0.13928598,
      -0.08838881,
      -0.04262277,
      -0.09784092,
      -0.02303532,
      0.07695385,
      -0.05122832,
      0.04576264,
      0.01363079,
      -0.15101461,
      -0.04955025,
      -0.05364539,
      -0.13451671,
      -0.09599758,
      -0.02924591,
      0.09216811,
      0.09346107,
      0.15947508,
      0.12172131,
      -0.00567606,
      0.1112391,
      -0.30691687,
      -0.22235552,
      -0.00612307,
      0.27605493,
      -0.18146711,
      0.14022114,
      0.23556045,
      -0.07888328,
      -0.04362395,
      -0.04662786,
      0.09681871,
      0.19662293,
      -0.26499097,
      -0.1236652,
      -0.0121314,
      0.10084138,
      0.25593056,
      -0.15480785,
      -0.02540038,
      0.23001487,
      -0.03073384,
      -0.19474323
    ],
    [
      -0.00763828,
      -0.02810434,
      0.05415541,
      0.05868173,
      -0.04634094,
      -0.08675507,
      0.18785112,
      -0.19634648,
      -0.07639484,
      0.09798035,
      -0.11810383,
      -0.01175644,
      0.01609075,
      -0.10049128,
      -0.09158033,
      0.04383466,
      -0.00821619,
      -0.02567377,
      0.05807182,
      -0.02006778,
      0.00381393,
      0.04673805,
      -0.06078809,
      0.04131869,
      -0.01981423,
      0.01135845,
      0.1368716,
      -0.04435131,
      0.06528099,
      -0.16149597,
      0.06961624,
      -0.07717245,
      0.10828737,
      -0.10458842,
      -0.21450369,
      -0.02563318,
      0.12210517,
      0.11379287,
      -0.0118726,
      0.1877182,
      -0.01984674,
      -0.15745108,
      -0.21198573,
      0.17458267
    ],
    [
      -0.01318173,
      -0.03318566,
      0.03448429,
      0.15856192,
      -0.09670603,
      -0.08904068,
      0.07122148,
      -0.01245917,
      -0.0374604,
      -0.15963625,
      -0.0022477,
      -0.07826333,
      -0.05810835,
      -0.05703074,
      0.12050279,
      0.09891892,
      -0.05996696,
      -0.17540897,
      -0.14016692,
      0.07433931,
      -0.04196367,
      -0.13131912,
      0.04705433,
      0.13255129,
      0.07327332,
      -0.00908809,
      0.04307833,
      0.11554975,
      0.00637313,
      0.17743542,
      -0.13979724,
      -0.00075425,
      -0.19568219,
      0.14049866,
      0.15383849,
      -0.16748024,
      0.06732966,
      0.03037596,
      -0.06401276,
      0.09697474,
      -0.0617464,
      -0.13740952,
      0.18755146,
      0.03142579
    ],
    [
      0.11312105,
      0.15757094,
      -0.05922529,
      -0.10065189,
      0.24505769,
      0.13461053,
      -0.06538429,
      0.03502255,
      -0.03285551,
      -0.0191637,
      0.0419638,
      0.1862592,
      0.14469099,
      0.05454416,
      0.11516521,
      -0.11894714,
      0.14546945,
      -0.00249663,
      0.05805403,
      0.1659702,
      -0.10956776,
      -0.16052634,
      0.1411287,
      0.04270112,
      -0.14789122,
      0.04373207,
      -0.0882361,
      0.0836047,
      0.03307803,
      -0.04199105,
      0.11081123,
      -0.04017414,
      0.01099894,
      -0.05199642,
      0.13886655,
      0.02391671,
      -0.05493282,
      0.08856423,
      0.0059752,
      -0.00696148,
      -0.10524914,
      0.03138326,
      -0.07023904,
      0.05963207
    ],
    [
      0.17788306,
      0.14184977,
      0.04831916,
      -0.00123449,
      0.0570091,
      0.11468661,
      0.062156,
      0.13740149,
      0.16182533,
      0.02230097,
      0.17812954,
      0.26104385,
      0.22462368,
      0.2328435,
      0.22108759,
      0.0016153,
      -0.03256684,
      -0.11712778,
      -0.11971554,
      0.00092814,
      0.01097878,
      -0.05097523,
      0.01412954,
      -0.24507427,
      0.02467066,
      0.10420954,
      0.21243262,
      0.09027312,
      0.00191386,
      -0.13629842,
      -0.02723408,
      -0.05538373,
      -0.10625515,
      0.21475996,
      -0.11949938,
      -0.25003454,
      -0.07326386,
      -0.07724293,
      0.04903784,
      0.06589875,
      0.10578844,
      -0.01925457,
      -0.1446378,
      0.08817054
    ],
    [
      0.13229713,
      0.04108158,
      0.07628589,
      -0.02793723,
      0.01378673,
      0.04355184,
      0.16688048,
      -0.07390524,
      -0.10351729,
      -0.11569261,
      0.14384609,
      0.09106023,
      0.10985747,
      0.10185599,
      0.06876083,
      -0.13845023,
      -0.19830173,
      -0.06930091,
      -0.02081835,
      0.09553794,
      -0.03734352,
      -0.19289327,
      0.11548323,
      -0.07243904,
      -0.24965535,
      0.01545333,
      0.15080028,
      0.23697994,
      -0.01126949,
      0.10069607,
      -0.05240405,
      -0.01172451,
      -0.10686947,
      0.09397402,
      0.18777595,
      0.10685782,
      -0.16553569,
      0.12249687,
      0.01086926,
      0.23009855,
      -0.18109644,
      -0.2724996,
      0.18900881,
      0.16805448
    ],
    [
      -0.20393241,
      -0.26631935,
      0.14689359,
      -0.12414273,
      -0.0929415,
      -0.01687071,
      -0.07682947,
      -0.02298117,
      -0.01732732,
      0.21920856,
      -0.15552441,
      -0.16028339,
      -0.22772652,
      -0.19622574,
      -0.00830491,
      0.06713802,
      0.02324424,
      0.09023195,
      0.04567583,
      0.04345615,
      0.04443834,
      0.11957918,
      0.09431686,
      0.04918465,
      -0.17117762,
      -0.10188177,
      0.00593678,
      -0.22747322,
      -0.12588715,
      0.07737384,
      0.01696285,
      -0.00367625,
      0.10824394,
      -0.14143235,
      0.14576041,
      0.1138547,
      -0.07703131,
      -0.11379502,
      -0.11857016,
      -0.05471344,
      -0.12109284,
      -0.09941631,
      0.12293528,
      0.12980647
    ],
    [
      0.02935454,
      0.01344248,
      -0.04094244,
      -0.08897955,
      0.00100995,
      0.11315623,
      0.12780597,
      -0.01693248,
      0.12189924,
      0.06363202,
      -0.11571011,
      0.09234078,
      0.13484452,
      0.03098104,
      -0.17278826,
      0.20014709,
      -0.05186847,
      0.15219322,
      0.07404339,
      -0.03446733,
      0.08432856,
      0.10907145,
      -0.22366641,
      0.1592165,
      0.11524623,
      -0.13168054,
      -0.06406252,
      0.00569193,
      -0.20233049,
      0.09844988,
      -0.05982842,
      -0.02988314,
      0.11933843,
      -0.04063979,
      -0.18932154,
      0.1719676,
      -0.01247754,
      -0.02980769,
      -0.0031517,
      -0.10136246,
      -0.09189107,
      0.01204737,
      0.07712387,
      -0.04827432
    ],
    [
      -0.02397046,
      0.01057004,
      0.06174678,
      0.1179417,
      0.01140115,
      -0.12353536,
      0.0427929,
      0.03558385,
      -0.16109624,
      -0.04996812,
      0.1744324,
      0.0783527,
      0.08989525,
      0.13933285,
      0.10857096,
      -0.15999753,
      -0.12947601,
      -0.00791022,
      -0.11021234,
      0.06968955,
      0.05742905,
      -0.11472965,
      -0.15772768,
      0.1882836,
      -0.03357495,
      -0.05979381,
      -0.1617726,
      0.15085399,
      0.11669142,
      -0.13446471,
      0.19296769,
      0.03801635,
      -0.10686509,
      0.21205015,
      -0.13304617,
      0.20907597,
      -0.05477562,
      0.01662439,
      -0.08510717,
      -0.05299104,
      -0.11210228,
      0.01286116,
      -0.12823583,
      0.00027152
    ],
    [
      -0.03687834,
      0.01396136,
      0.03065703,
      -0.10178206,
      -0.0073023,
      -0.14504647,
      0.0738278,
      -0.12009042,
      -0.09733921,
      0.02494385,
      -0.12949949,
      -0.10261523,
      -0.08990363,
      -0.16777729,
      0.03115664,
      -0.10409747,
      -0.14546685,
      0.01835485,
      -0.13575763,
      0.06649884,
      0.08191584,
      -0.07304465,
      0.17807419,
      -0.02583129,
      0.20329458,
      -0.1408472,
      0.01038098,
      0.13930905,
      -0.03231679,
      -0.22288323,
      -0.18899806,
      -0.03972169,
      -0.10233854,
      0.10802107,
      -0.05941697,
      -0.01342754,
      0.05745835,
      0.22268273,
      -0.11623501,
      -0.12103227,
      0.17494403,
      0.16016028,
      -0.15890528,
      -0.16904137
    ],
    [
      0.24633825,
      0.12756726,
      -0.03500264,
      0.08026059,
      -0.04348463,
      0.11337183,
      -0.00860728,
      0.10795157,
      -0.08351006,
      -0.11428207,
      0.19008963,
      0.18587437,
      0.14125961,
      0.19764467,
      0.17907118,
      -0.07878139,
      -0.15367652,
      -0.0095167,
      -0.05130198,
      -0.03682153,
      -0.03585443,
      -0.22488932,
      -0.12754078,
      0.16771317,
      0.22727123,
      0.04321508,
      -0.00843543,
      -0.11974941,
      0.18806696,
      -0.08192208,
      0.00365533,
      -0.01391924,
      -0.18183731,
      -0.06559823,
      -0.14226488,
      0.20663421,
      0.32061522,
      -0.05060147,
      0.0135243,
      0.03937924,
      0.02224425,
      -0.03422023,
      0.04016548,
      0.11912157
    ],
    [
      -0.07656165,
      0.03270463,
      -0.07182914,
      0.11319793,
      -0.10332495,
      -0.1766522,
      -0.04629666,
      -0.17957069,
      0.04003822,
      -0.07988022,
      -0.04182444,
      -0.04439437,
      -0.01270926,
      -0.05326234,
      -0.07174514,
      -0.21584218,
      0.13856494,
      0.09228154,
      0.22849822,
      0.07661305,
      -0.16263031,
      -0.08292006,
      0.00391248,
      0.09143335,
      -0.05842503,
      -0.22534247,
      0.14281539,
      0.03908838,
      0.04512764,
      0.06308927,
      -0.08732289,
      -0.05071776,
      0.00385749,
      -0.00744345,
      0.09834211,
      0.03519542,
      -0.10711663,
      0.08824101,
      -0.19125702,
      0.04757226,
      0.15496534,
      -0.02382607,
      0.06677945,
      -0.04860096
    ]
  ],
  "decoder_bias": [
    0.01160791,
    0.0072309,
    -0.01919088,
    -4.677e-05,
    0.02730262,
    0.02170505,
    0.00338006,
    0.00953255,
    0.0059392,
    0.0208228,
    -0.00166208,
    0.01626758,
    0.02787601,
    0.00940368,
    -0.00682967,
    0.00791027,
    0.01945163,
    0.00216284,
    -0.00687438,
    -0.00518588,
    0.00471848,
    0.00730841,
    -0.01969217,
    -0.0010955,
    -0.00020086,
    -0.0083069,
    0.00494743,
    0.00034384,
    -8.565e-05,
    0.00764859,
    0.01176286,
    -0.00228948,
    0.01119814,
    0.00903653,
    -0.0140624,
    -0.00256418,
    0.00184557,
    0.00062906,
    -0.0063978,
    0.01308787,
    -0.00883067,
    -0.01420514,
    0.00170348,
    0.01557398
  ],
  "card_embeddings": {
    "1": [
      -0.29832019,
      -0.75133376,
      -0.61561059,
      -0.78174632,
      0.46267861,
      -0.97786676,
      0.93433081,
      0.53795611,
      -0.65927452,
      0.93168925,
      0.8160248,
      0.71513016,
      -0.89440474,
      0.73755416,
      -0.9502295,
      0.97742713,
      -0.69542014,
      0.5987614,
      0.81234738,
      0.03961627,
      0.81010009,
      -0.06226185,
      0.73599375,
      0.92029105,
      -0.86941422,
      0.36193033,
      0.97593376,
      -0.60686538,
      -0.15148041,
      0.86337631,
      -0.9673018,
      0.75612413
    ],
    "2": [
      -0.46487559,
      -0.61639007,
      -0.89013529,
      -0.3135269,
      0.84159399,
      -0.90101949,
      0.56851211,
      0.89706953,
      -0.34890908,
      0.79957214,
      0.92060369,
      0.76166221,
      -0.84235092,
      0.7867385,
      -0.85978163,
      0.99387306,
      -0.75548352,
      0.56878506,
      0.81171298,
      -0.70603692,
      0.85418281,
      0.21959045,
      0.61743188,
      0.86246664,
      -0.96750583,
      0.35390975,
      0.97201869,
      0.44410821,
      0.72078455,
      0.64927906,
      -0.78103136,
      0.81450738
    ],
    "3": [
      -0.65410125,
      -0.92680937,
      -0.78833001,
      -0.78680976,
      0.66630123,
      -0.93990843,
      0.77614171,
      0.38262729,
      -0.68328067,
      0.65256102,
      0.89115441,
      0.75591343,
      -0.84930208,
      0.95754455,
      -0.92099174,
      0.89285934,
      -0.60441981,
      0.75173583,
      0.94693432,
      -0.20606691,
      0.9408489,
      0.31979709,
      0.72466103,
      0.65588543,
      -0.82745006,
      -0.42895112,
      0.91317914,
      0.20595527,
      -0.02578085,
      0.87999802,
      -0.72746007,
      0.78441463
    ],
    "4": [
      -0.18957553,
      -0.91648682,
      -0.77005447,
      -0.22477073,
      -0.25660194,
      -0.97614122,
      0.74603874,
      0.61483971,
      0.06328185,
      0.88789063,
      0.83459928,
      0.73467123,
      -0.9182162,
      0.86546845,
      -0.9195035,
      0.94442715,
      -0.8996513,
      0.51963626,
      0.87378438,
      0.10582696,
      0.98969356,
      0.22425836,
      0.64669169,
      0.8978637,
      -0.69528582,
      0.43356657,
      0.92416437,
      -0.43827501,
      -0.17305676,
      0.41711451,
      -0.90556771,
      0.23951368
    ],
    "5": [
      0.31640118,
      -0.85443614,
      -0.72587175,
      -0.01877135,
      0.5965251,
      -0.96803921,
      0.70695134,
      0.85906803,
      -0.58950333,
      0.6849475,
      0.85435353,
      0.45552325,
      -0.90345785,
      0.94229714,
      -0.83334176,
      0.96479194,
      0.00349147,
      0.77994763,
      0.91718772,
      -0.42550682,
      0.84029521,
      0.31686372,
      0.69035877,
      0.7814746,
      -0.5851517,
      0.43494195,
      0.93668807,
      -0.18570847,
      -0.26201291,
      0.69922979,
      -0.94274001,
      0.85535137
    ],
    "6": [
      -0.48126601,
      -0.76164979,
      -0.77970804,
      -0.77911796,
      0.6659714,
      -0.93322886,
      0.76017717,
      0.36904294,
      -0.0576565,
      0.82145628,
      0.45482056,
      0.10825229,
      -0.86204893,
      0.92299118,
      -0.68420852,
      0.9919843,
      -0.61088983,
      0.73506555,
      0.98408963,
      -0.41046577,
      0.96654921,
      0.12837592,
      0.84895524,
      0.86689758,
      -0.67795807,
      0.70592061,
      0.89786699,
      -0.14474109,
      0.58047206,
      0.82463355,
      -0.97507872,
      0.81013185
    ],
    "7": [
      0.60760161,
      -0.8962499,
      -0.14203583,
      -0.36070756,
      0.85925182,
      -0.96077242,
      0.90345655,
      0.68902321,
      -0.35395272,
      0.87084438,
      0.58814048,
      0.47127682,
      -0.94334815,
      0.83920089,
      -0.89913827,
      0.98576962,
      -0.63702787,
      0.88166438,
      0.85951184,
      -0.47888291,
      0.97893706,
      0.43292912,
      0.64849503,
      0.82430408,
      -0.81846847,
      0.23445498,
      0.92444658,
      -0.57721122,
      0.53885263,
      0.61537089,
      -0.80533091,
      0.84698295
    ],
    "8": [
      -0.26245852,
      -0.93065373,
      -0.42075065,
      -0.7871363,
      0.62971386,
      -0.96468917,
      0.65006584,
      0.38423566,
      0.26634514,
      0.93600956,
      0.95959566,
      0.23601521,
      -0.97378679,
      0.98239831,
      -0.56619609,
      0.95008504,
      -0.5625791,
      0.93310768,
      0.70676104,
      -0.62456624,
      0.87947868,
      -0.26720018,
      0.88389207,
      0.76357465,
      -0.93229091,
      0.71487047,
      0.97677296,
      0.20528184,
      -0.14847038,
      0.35301913,
      -0.96712509,
      0.80031174
    ],
    "9": [
      -0.16953489,
      0.79851216,
      0.71433887,
      -0.8093788,
      -0.81002771,
      -0.80444085,
      -0.86102216,
      0.15631971,
      -0.66198247,
      0.44208776,
      -0.83463005,
      0.5810905,
      -0.87199617,
      0.97295503,
      -0.8971395,
      0.80422592,
      0.69530918,
      0.73216991,
      0.95685397,
      -0.26402273,
      0.56487365,
      0.53232792,
      -0.71639951,
      -0.83998593,
      -0.7557026,
      -0.93529347,
      0.95613719,
      0.84802057,
      0.28040867,
      0.73103393,
      -0.9759553,
      -0.77450187
    ],
    "10": [
      -0.87997158,
      0.8677533,
      0.92259326,
      -0.12895107,
      -0.83138651,
      -0.46473978,
      -0.76238264,
      0.62242304,
      -0.83923536,
      0.05726059,
      -0.82010026,
      -0.01691678,
      -0.97244379,
      0.99477458,
      -0.96617564,
      0.86997788,
      0.13566306,
      0.57574952,
      0.95549306,
      -0.61481987,
      0.78958643,
      -0.17124082,
      -0.72205447,
      -0.84045588,
      0.29272424,
      -0.96994313,
      0.97735572,
      0.9605104,
      -0.30485814,
      0.10526881,
      -0.97272742,
      -0.77346107
    ],
    "11": [
      -0.16953489,
      0.79851216,
      0.71433887,
      -0.8093788,
      -0.81002771,
      -0.80444085,
      -0.86102216,
      0.15631971,
      -0.66198247,
      0.44208776,
      -0.83463005,
      0.5810905,
      -0.87199617,
      0.97295503,
      -0.8971395,
      0.80422592,
      0.69530918,
      0.73216991,
      0.95685397,
      -0.26402273,
      0.56487365,
      0.53232792,
      -0.71639951,
      -0.83998593,
      -0.7557026,
      -0.93529347,
      0.95613719,
      0.84802057,
      0.28040867,
      0.73103393,
      -0.9759553,
      -0.77450187
    ],
    "12": [
      -0.88705366,
      0.91506938,
      0.89434819,
      -0.1784504,
      -0.78241633,
      -0.36514144,
      -0.71035425,
      0.129581,
      -0.86186091,
      0.1586841,
      -0.82142304,
      0.1456254,
      -0.96502045,
      0.99268683,
      -0.95073473,
      0.83809437,
      0.00514438,
      0.60882644,
      0.93955552,
      -0.71465885,
      0.75882267,
      -0.04913935,
      -0.52084843,
      -0.81291983,
      0.3282453,
      -0.9482588,
      0.9697539,
      0.93233861,
      -0.33400483,
      0.28495792,
      -0.95558915,
      -0.76137773
    ],
    "13": [
      -0.87997158,
      0.8677533,
      0.92259326,
      -0.12895107,
      -0.83138651,
      -0.46473978,
      -0.76238264,
      0.62242304,
      -0.83923536,
      0.05726059,
      -0.82010026,
      -0.01691678,
      -0.97244379,
      0.99477458,
      -0.96617564,
      0.86997788,
      0.13566306,
      0.57574952,
      0.95549306,
      -0.61481987,
      0.78958643,
      -0.17124082,
      -0.72205447,
      -0.84045588,
      0.29272424,
      -0.96994313,
      0.97735572,
      0.9605104,
      -0.30485814,
      0.10526881,
      -0.97272742,
      -0.77346107
    ],
    "14": [
      -0.16953489,
      0.79851216,
      0.71433887,
      -0.8093788,
      -0.81002771,
      -0.80444085,
      -0.86102216,
      0.15631971,
      -0.66198247,
      0.44208776,
      -0.83463005,
      0.5810905,
      -0.87199617,
      0.97295503,
      -0.8971395,
      0.80422592,
      0.69530918,
      0.73216991,
      0.95685397,
      -0.26402273,
      0.56487365,
      0.53232792,
      -0.71639951,
      -0.83998593,
      -0.7557026,
      -0.93529347,
      0.95613719,
      0.84802057,
      0.28040867,
      0.73103393,
      -0.9759553,
      -0.77450187
    ],
    "15": [
      -0.16953489,
      0.79851216,
      0.71433887,
      -0.8093788,
      -0.81002771,
      -0.80444085,
      -0.86102216,
      0.15631971,
      -0.66198247,
      0.44208776,
      -0.83463005,
      0.5810905,
      -0.87199617,
      0.97295503,
      -0.8971395,
      0.80422592,
      0.69530918,
      0.73216991,
      0.95685397,
      -0.26402273,
      0.56487365,
      0.53232792,
      -0.71639951,
      -0.83998593,
      -0.7557026,
      -0.93529347,
      0.95613719,
      0.84802057,
      0.28040867,
      0.73103393,
      -0.9759553,
      -0.77450187
    ],
    "16": [
      -0.16953489,
      0.79851216,
      0.71433887,
      -0.8093788,
      -0.81002771,
      -0.80444085,
      -0.86102216,
      0.15631971,
      -0.66198247,
      0.44208776,
      -0.83463005,
      0.5810905,
      -0.87199617,
      0.97295503,
      -0.8971395,
      0.80422592,
      0.69530918,
      0.73216991,
      0.95685397,
      -0.26402273,
      0.56487365,
      0.53232792,
      -0.71639951,
      -0.83998593,
      -0.7557026,
      -0.93529347,
      0.95613719,
      0.84802057,
      0.28040867,
      0.73103393,
      -0.9759553,
      -0.77450187
    ],
    "17": [
      -0.16953489,
      0.79851216,
      0.71433887,
      -0.8093788,
      -0.81002771,
      -0.80444085,
      -0.86102216,
      0.15631971,
      -0.66198247,
      0.44208776,
      -0.83463005,
      0.5810905,
      -0.87199617,
      0.97295503,
      -0.8971395,
      0.80422592,
      0.69530918,
      0.73216991,
      0.95685397,
      -0.26402273,
      0.56487365,
      0.53232792,
      -0.71639951,
      -0.83998593,
      -0.7557026,
      -0.93529347,
      0.95613719,
      0.84802057,
      0.28040867,
      0.73103393,
      -0.9759553,
      -0.77450187
    ],
    "18": [
      -0.419295,
      0.89603101,
      0.67795219,
      -0.92150889,
      -0.84921037,
      -0.8843272,
      -0.41265959,
      -0.52031282,
      -0.85330861,
      0.76854562,
      -0.80519893,
      0.7341,
      -0.83116209,
      0.89859513,
      -0.93839377,
      0.77903859,
      0.53236734,
      0.56959119,
      0.85004721,
      -0.21077902,
      0.10597684,
      0.37641367,
      -0.43580634,
      -0.58128498,
      -0.78974379,
      -0.90111133,
      0.96387526,
      0.33369466,
      0.06933144,
      0.92572382,
      -0.98279118,
      -0.75770346
    ],
    "19": [
      0.18628051,
      0.81952289,
      0.55340415,
      -0.51379201,
      -0.78806054,
      -0.83640182,
      -0.84805723,
      0.11127051,
      -0.81893448,
      0.18204668,
      -0.75563916,
      0.48660591,
      -0.84519417,
      0.97920791,
      -0.79660835,
      0.67368064,
      0.89673801,
      0.76198874,
      0.93458513,
      -0.60943416,
      0.19856025,
      0.65635007,
      -0.50803866,
      -0.83552968,
      -0.3887585,
      -0.88344108,
      0.90590179,
      0.69781846,
      -0.04613758,
      0.8296361,
      -0.9696852,
      -0.60572573
    ],
    "20": [
      -0.58088162,
      0.89117183,
      0.46101172,
      -0.92048853,
      -0.74003638,
      -0.681426,
      -0.81225499,
      -0.65882169,
      -0.48872934,
      0.46760647,
      -0.94330881,
      0.14754901,
      -0.78166133,
      0.97207383,
      -0.62139263,
      0.91610806,
      0.63003823,
      0.71403223,
      0.98752359,
      -0.5978501,
      0.76824717,
      0.52795486,
      -0.15506248,
      -0.732856,
      -0.51197374,
      -0.75228557,
      0.84966874,
      0.71880091,
      0.70905086,
      0.90374785,
      -0.98690863,
      -0.69132565
    ],
    "21": [
      0.73714724,
      0.21360078,
      0.80142566,
      0.70502293,
      0.82964168,
      -0.12767352,
      0.63004788,
      -0.6649349,
      0.31138955,
      0.37964114,
      -0.4548085,
      -0.56982603,
      0.07202185,
      -0.75847153,
      0.12871291,
      0.66899576,
      0.28351333,
      0.54422783,
      -0.14655879,
      0.12534591,
      0.83267541,
      -0.27729909,
      0.29148954,
      -0.28205491,
      0.62062903,
      0.21180369,
      -0.89159827,
      -0.61166351,
      0.86228209,
      -0.13519752,
      0.69732496,
      0.44792543
    ],
    "22": [
      -0.24812689,
      -0.40501412,
      -0.27291816,
      -0.23789384,
      0.19034625,
      0.14023294,
      0.67542789,
      -0.84949733,
      0.81971392,
      -0.58595192,
      -0.43409477,
      -0.74086104,
      0.37980834,
      -0.47539398,
      0.25693545,
      0.92275223,
      -0.04890849,
      0.12683104,
      0.649007,
      -0.61698813,
      0.74612141,
      -0.4882103,
      0.59030937,
      -0.04382801,
      0.53683293,
      0.51055465,
      -0.5873308,
      -0.15677307,
      0.71522808,
      0.81848955,
      -0.68680158,
      0.25681168
    ],
    "23": [
      -0.30964921,
      0.53250704,
      0.45112711,
      0.00319441,
      0.69956683,
      0.6858348,
      -0.2340192,
      -0.913465,
      0.76585745,
      0.51458391,
      -0.36000787,
      -0.74234548,
      0.25479719,
      -0.59439378,
      0.81234542,
      0.74047431,
      0.60078091,
      0.19394033,
      0.5225752,
      0.5270058,
      0.59347307,
      -0.52851694,
      0.34214305,
      0.39663403,
      0.92150325,
      0.70009628,
      -0.98002366,
      0.16720955,
      0.92124784,
      0.26110424,
      0.33745465,
      0.44470562
    ],
    "24": [
      0.79003742,
      -0.58411818,
      -0.07150124,
      0.22812135,
      -0.53249696,
      0.67133817,
      -0.72626866,
      0.06653478,
      0.79428731,
      0.21914009,
      0.21984463,
      0.58204264,
      0.00244803,
      -0.87625424,
      0.0523292,
      -0.70413054,
      0.23571225,
      -0.42487786,
      0.09289955,
      0.7658872,
      0.31156298,
      -0.51669639,
      -0.7788768,
      0.21584648,
      0.75434576,
      0.26783807,
      -0.52143816,
      0.44895112,
      -0.31134506,
      -0.67235868,
      0.66635393,
      -0.83951303
    ],
    "25": [
      -0.31396219,
      0.18478124,
      0.15930507,
      -0.66200438,
      -0.57061363,
      0.219789,
      0.60969537,
      -0.80075666,
      0.19006338,
      0.33955509,
      0.46607419,
      0.49220227,
      0.18381633,
      -0.92516536,
      -0.53049887,
      -0.04505669,
      -0.36986757,
      0.03499502,
      -0.80173793,
      0.24439289,
      -0.89299369,
      -0.76049686,
      -0.03673289,
      0.68396504,
      0.47457072,
      0.68853472,
      0.12486362,
      -0.70197141,
      -0.13337769,
      0.44398181,
      -0.17194382,
      0.05549192
    ],
    "26": [
      -0.26985553,
      0.8138984,
      0.62853533,
      -0.29110749,
      -0.2705194,
      -0.47414538,
      0.5386733,
      -0.77229651,
      -0.39798644,
      0.72994814,
      0.20167448,
      0.22585513,
      0.32658359,
      -0.86235615,
      -0.68488453,
      -0.26350627,
      -0.01116934,
      -0.08045493,
      -0.76722623,
      0.58570982,
      -0.83914347,
      -0.69274977,
      0.50603755,
      0.41246472,
      0.08673424,
      0.59370624,
      -0.00664167,
      -0.83841517,
      -0.23864,
      0.26899421,
      -0.26665321,
      0.43393681
    ],
    "27": [
      -0.27005851,
      0.25586807,
      0.05473435,
      -0.65544689,
      -0.53724845,
      0.09564546,
      0.67251198,
      -0.76078504,
      0.06778148,
      0.31824329,
      0.36119895,
      0.44783416,
      0.16315688,
      -0.91206614,
      -0.60628468,
      -0.06623575,
      -0.44328991,
      0.01375368,
      -0.74383512,
      0.24600724,
      -0.87855183,
      -0.74116854,
      0.1235753,
      0.63049922,
      0.39538462,
      0.69021194,
      0.28880213,
      -0.73042925,
      -0.20562352,
      0.45066183,
      -0.29180876,
      0.01550917
    ],
    "28": [
      -0.31754526,
      0.25990377,
      0.21031014,
      -0.70281699,
      -0.60387359,
      -0.39049376,
      0.85736304,
      -0.489879,
      -0.36853072,
      0.22644117,
      -0.14580116,
      0.33836583,
      0.04541137,
      -0.69021501,
      -0.82741691,
      0.21758478,
      -0.51891054,
      -0.17405809,
      -0.71494031,
      -0.00238201,
      -0.77084512,
      -0.49357122,
      0.43353615,
      0.3371532,
      -0.45420015,
      0.39829373,
      0.84850591,
      -0.78700413,
      -0.59462657,
      0.74880019,
      -0.81586107,
      0.05432427
    ],
    "29": [
      0.36856285,
      0.85051363,
      0.54483708,
      -0.39661876,
      0.07072179,
      0.16802094,
      0.14465217,
      -0.88063502,
      -0.62513492,
      0.91895331,
      -0.21936908,
      0.08081462,
      0.28585045,
      -0.88664291,
      -0.32879571,
      -0.74390079,
      0.25742635,
      -0.36337667,
      -0.75957127,
      0.89795286,
      -0.86336474,
      -0.7564248,
      0.27076542,
      0.69468471,
      0.584586,
      0.74924886,
      -0.21977627,
      -0.71564527,
      -0.59166269,
      -0.07335408,
      0.35498748,
      -0.08168612
    ],
    "30": [
      0.55068865,
      0.96440661,
      -0.3475863,
      0.39490577,
      0.9677275,
      0.9202517,
      -0.95243536,
      0.33745491,
      -0.4427606,
      0.92213212,
      0.23603224,
      0.48094404,
      0.93966315,
      -0.92627802,
      0.87866552,
      -0.07725571,
      0.32315461,
      -0.8695816,
      -0.63747452,
      0.43304038,
      -0.89198203,
      -0.84877377,
      -0.53078485,
      0.78316103,
      0.23742103,
      0.17875405,
      -0.6531359,
      0.89443561,
      0.88004444,
      -0.89398397,
      0.99385481,
      -0.49562125
    ],
    "31": [
      -0.54748062,
      0.30315739,
      -0.90452937,
      0.27127466,
      0.75191396,
      0.46642363,
      -0.48696752,
      0.76621586,
      0.55677458,
      -0.39870412,
      0.73841037,
      0.69961917,
      0.88086918,
      -0.91569924,
      -0.0723339,
      0.83030379,
      -0.52311524,
      -0.47254548,
      -0.5908448,
      -0.87862883,
      -0.76403312,
      -0.30874164,
      -0.17155271,
      0.16498749,
      -0.78752371,
      0.12634985,
      0.47937201,
      0.72925864,
      0.8878218,
      0.04522659,
      0.8333644,
      0.19302288
    ],
    "32": [
      -0.42068869,
      0.04681521,
      -0.16288531,
      -0.0801272,
      0.58958955,
      -0.38167625,
      -0.73666193,
      -0.60370744,
      0.25865913,
      -0.63330094,
      0.54489383,
      -0.35888798,
      0.57355707,
      0.36864302,
      -0.62191155,
      -0.88509936,
      0.68961186,
      -0.57063185,
      -0.59126221,
      0.57151959,
      -0.0028243,
      -0.14962425,
      0.10931384,
      -0.78482052,
      0.52445645,
      -0.86535131,
      -0.84799007,
      -0.30445046,
      -0.04549664,
      0.70995271,
      0.78464689,
      0.7284803
    ],
    "33": [
      -0.84657045,
      -0.72562602,
      -0.54328912,
      -0.50443022,
      -0.19534926,
      -0.30455812,
      0.51288475,
      -0.8359669,
      -0.35120464,
      -0.92482292,
      0.62242591,
      0.65258144,
      0.83981398,
      0.14412807,
      -0.28246704,
      -0.67149324,
      -0.45851362,
      0.25922627,
      0.34460643,
      -0.37729718,
      0.03837309,
      -0.0571863,
      0.44109248,
      -0.62679567,
      -0.13065075,
      -0.79990197,
      -0.36274736,
      -0.06238822,
      -0.07763527,
      0.78632674,
      0.81459712,
      -0.35841315
    ],
    "34": [
      -0.82931209,
      0.05113722,
      0.12325149,
      -0.19725645,
      0.32326062,
      -0.53154878,
      0.20695544,
      -0.83898592,
      -0.72419111,
      -0.61266248,
      0.49707578,
      0.49166635,
      0.79203205,
      0.51914459,
      -0.32807847,
      -0.79025665,
      -0.07205164,
      0.14144058,
      0.25544648,
      0.22326058,
      0.21629381,
      0.17644517,
      0.65882624,
      -0.71308049,
      -0.46264557,
      -0.87349665,
      -0.5861055,
      -0.1605173,
      -0.03514466,
      0.74899557,
      0.83928453,
      -0.01612984
    ],
    "35": [
      -0.82571316,
      -0.69845357,
      -0.50393808,
      -0.53489881,
      -0.02950461,
      -0.02437233,
      0.4046808,
      -0.86039156,
      -0.37071099,
      -0.88559963,
      0.69527494,
      0.68451325,
      0.81383326,
      0.04415077,
      -0.06709523,
      -0.73019851,
      -0.38811829,
      0.23181023,
      0.2861463,
      -0.23564248,
      -0.11426501,
      -0.14838243,
      0.20755765,
      -0.57994571,
      0.14291793,
      -0.77584676,
      -0.47692959,
      0.00372258,
      0.02676439,
      0.72155057,
      0.88917851,
      -0.51175552
    ],
    "36": [
      0.30005072,
      -0.71563508,
      -0.24559891,
      0.51839119,
      -0.94216339,
      -0.53089867,
      0.16092691,
      0.33355415,
      0.83161717,
      -0.1373587,
      0.16130734,
      0.74222648,
      -0.1831335,
      -0.65465049,
      -0.75432671,
      -0.49526492,
      -0.78783621,
      -0.65285393,
      -0.16074351,
      0.21475078,
      0.93828472,
      0.11897491,
      -0.06766739,
      -0.16630554,
      -0.07679389,
      -0.10312783,
      0.19341073,
      -0.56022982,
      -0.57207538,
      -0.17266535,
      -0.30611987,
      -0.89147692
    ],
    "37": [
      0.74680207,
      -0.70569218,
      -0.06281011,
      0.25375518,
      -0.84680174,
      0.74427348,
      -0.70717735,
      -0.3043267,
      0.85929641,
      0.73368183,
      0.06865546,
      0.76779206,
      -0.47048889,
      -0.7863348,
      0.03265552,
      -0.89368975,
      -0.4621174,
      -0.76340747,
      -0.4979845,
      0.88817296,
      0.8623795,
      -0.0495482,
      -0.72931954,
      0.70231808,
      0.82463888,
      0.26558014,
      -0.68925557,
      0.10707449,
      -0.63210746,
      -0.54575539,
      0.75814176,
      -0.95637883
    ],
    "38": [
      0.80099999,
      -0.79115202,
      -0.69144767,
      0.8851322,
      -0.74234237,
      -0.54713715,
      0.80735416,
      0.89981349,
      -0.61676121,
      -0.95244334,
      -0.24905864,
      -0.34194155,
      0.71593849,
      0.81484443,
      0.79571166,
      -0.69986414,
      0.82635245,
      0.68035443,
      0.61449914,
      -0.89267267,
      -0.8790286,
      0.91689326,
      0.48283735,
      -0.13333097,
      0.67756971,
      0.8955862,
      0.57065755,
      -0.69381733,
      -0.45961185,
      -0.4449409,
      0.09037604,
      0.45135273
    ],
    "39": [
      0.57931056,
      -0.44984323,
      -0.60241498,
      0.46499775,
      0.2046934,
      -0.20579376,
      -0.67770831,
      0.21067005,
      0.71316335,
      -0.87147475,
      0.56494348,
      -0.5603903,
      0.28202524,
      -0.01112846,
      -0.24403017,
      -0.52602644,
      0.79765085,
      -0.46374658,
      -0.69796719,
      -0.08802544,
      -0.58346314,
      -0.26324397,
      -0.35179747,
      -0.50503391,
      0.87570971,
      -0.24659526,
      -0.60485891,
      -0.44772129,
      -0.29305543,
      0.54249884,
      0.13688424,
      0.60209265
    ],
    "40": [
      -0.23711276,
      0.8676112,
      -0.31008533,
      -0.8222598,
      0.62191267,
      0.97387397,
      -0.89988094,
      -0.86973937,
      -0.18957981,
      0.88346582,
      -0.97028232,
      -0.71315443,
      0.51586858,
      -0.23987537,
      0.98992127,
      -0.26474532,
      0.74612862,
      -0.91432669,
      0.93731745,
      0.89222721,
      0.17122599,
      -0.74811249,
      -0.30951891,
      0.97433755,
      0.88549358,
      0.92111885,
      -0.96786214,
      0.28496095,
      0.33514549,
      0.13499318,
      0.48949318,
      -0.65964706
    ],
    "41": [
      -0.26695424,
      -0.30836073,
      -0.29171089,
      -0.33062211,
      0.37383878,
      0.68412397,
      0.35346652,
      -0.88114288,
      0.8663572,
      -0.33594033,
      -0.33675193,
      -0.66953425,
      0.28418053,
      -0.67509565,
      0.69312263,
      0.86227435,
      0.09042134,
      0.2262576,
      0.65350986,
      -0.20150515,
      0.59876981,
      -0.58950668,
      0.27411838,
      0.33495563,
      0.89641733,
      0.72308656,
      -0.89454264,
      0.14202315,
      0.86675049,
      0.57611992,
      -0.14386068,
      0.0868519
    ],
    "42": [
      0.40415327,
      0.36864426,
      -0.92248875,
      0.02273264,
      0.27239381,
      -0.77150394,
      0.38489174,
      -0.79239676,
      0.72953259,
      -0.31464819,
      0.20141583,
      -0.17986696,
      -0.14980949,
      -0.03591904,
      -0.17669119,
      0.09983056,
      -0.90699832,
      0.6799199,
      0.79733716,
      -0.39868697,
      -0.17456295,
      0.35544739,
      -0.76564976,
      0.38467657,
      -0.3268393,
      -0.37917072,
      0.35816994,
      -0.4501795,
      0.79989513,
      -0.7812762,
      -0.34138551,
      -0.52376004
    ],
    "43": [
      0.32904834,
      -0.66594071,
      -0.0693097,
      0.43641869,
      -0.81283378,
      -0.34095464,
      -0.17188544,
      0.50237988,
      0.85284352,
      -0.62096797,
      0.46624849,
      0.61888734,
      0.24566134,
      -0.82978271,
      -0.61525317,
      -0.01162542,
      -0.17158398,
      -0.1609396,
      0.22215998,
      -0.05529915,
      0.54406687,
      -0.39465635,
      -0.43498905,
      -0.46207511,
      0.0070075,
      -0.0779609,
      0.00994377,
      -0.041828,
      -0.04151768,
      -0.36150818,
      -0.20949562,
      -0.55088385
    ],
    "44": [
      0.8137992,
      -0.4378185,
      0.22451396,
      -0.1905958,
      -0.12706102,
      0.94422536,
      -0.86782366,
      0.31517151,
      0.7062725,
      0.76532729,
      -0.11260208,
      0.66276485,
      -0.63607614,
      -0.67109969,
      0.43240159,
      -0.81094464,
      0.298942,
      -0.48820427,
      0.00302408,
      0.93794853,
      0.25542691,
      -0.15046608,
      -0.89304317,
      0.5964604,
      0.84045854,
      0.17732862,
      -0.62763136,
      0.78119515,
      -0.1653592,
      -0.61732152,
      0.75970278,
      -0.88953225
    ],
    "45": [
      -0.31570209,
      0.24783161,
      -0.06642065,
      -0.5883181,
      -0.64692908,
      -0.35447346,
      0.80085388,
      -0.70127822,
      -0.06664832,
      0.05421069,
      0.23461625,
      0.37165594,
      0.33925036,
      -0.89962445,
      -0.74950227,
      0.09267276,
      -0.54111523,
      -0.00270056,
      -0.67054084,
      -0.01047838,
      -0.82915273,
      -0.73303806,
      0.38881143,
      0.41984075,
      0.04318072,
      0.65477549,
      0.58424028,
      -0.81327662,
      -0.35456059,
      0.51452042,
      -0.57634821,
      0.0558014
    ],
    "46": [
      -0.05615526,
      0.50356743,
      -0.91590635,
      -0.09496023,
      0.9183053,
      0.97541796,
      -0.92750265,
      0.48916385,
      0.52835588,
      0.6322533,
      0.54063605,
      0.69449823,
      0.72972901,
      -0.93939271,
      0.78728077,
      0.23406854,
      -0.17732438,
      -0.58851835,
      -0.64453907,
      0.11836113,
      -0.84904423,
      -0.35428524,
      -0.70596741,
      0.8464522,
      0.25144619,
      0.56721532,
      -0.54686975,
      0.9485982,
      0.90818639,
      -0.52938269,
      0.98742938,
      -0.37486082
    ],
    "47": [
      -0.83247334,
      -0.703333,
      -0.51737355,
      -0.55788112,
      -0.08885133,
      -0.26123726,
      0.52916967,
      -0.8199678,
      -0.4281176,
      -0.90198467,
      0.59346927,
      0.62585901,
      0.76426437,
      0.3661261,
      -0.38257757,
      -0.64772176,
      -0.50389714,
      0.20835751,
      0.3171192,
      -0.36111197,
      0.13760088,
      0.09359048,
      0.4748841,
      -0.62432651,
      -0.37601279,
      -0.85154862,
      -0.15633129,
      -0.00653276,
      -0.14525869,
      0.85821814,
      0.7543919,
      -0.36937485
    ],
    "48": [
      -0.83214603,
      -0.0083126,
      0.2158959,
      -0.23201928,
      0.32062052,
      -0.43233252,
      0.10457986,
      -0.86118948,
      -0.66064604,
      -0.58445968,
      0.55729816,
      0.5193647,
      0.7764808,
      0.49954302,
      -0.27468215,
      -0.79628867,
      0.01126245,
      0.15504017,
      0.13721301,
      0.2567956,
      0.15106044,
      0.1803094,
      0.60125364,
      -0.64069192,
      -0.38618331,
      -0.87688118,
      -0.68238347,
      -0.08878324,
      -0.00200387,
      0.76365676,
      0.866506,
      0.05986103
    ],
    "49": [
      -0.88552067,
      -0.55962175,
      -0.18249048,
      -0.75034921,
      0.7549546,
      0.82201851,
      -0.3817897,
      -0.6168744,
      -0.86834379,
      -0.00329685,
      0.4742529,
      0.80924199,
      -0.49397207,
      0.7602415,
      0.66014003,
      -0.79364396,
      0.39965567,
      -0.01556602,
      -0.06822064,
      0.8544957,
      -0.32884841,
      0.25890288,
      -0.34767152,
      0.63591543,
      0.34720356,
      -0.8435303,
      -0.84532651,
      0.55719281,
      -0.14489508,
      0.76178881,
      0.87794716,
      -0.56624195
    ],
    "50": [
      -0.85287656,
      -0.71293052,
      -0.53921403,
      -0.52695127,
      -0.15760118,
      -0.10888322,
      0.41392362,
      -0.84304701,
      -0.32182084,
      -0.90821249,
      0.63958258,
      0.67997726,
      0.82441334,
      0.09512848,
      -0.12667339,
      -0.69746904,
      -0.45753161,
      0.28914911,
      0.33661061,
      -0.26840577,
      0.00435753,
      -0.07609695,
      0.33486874,
      -0.5640835,
      0.02426993,
      -0.77505033,
      -0.50079792,
      0.03771227,
      0.05501995,
      0.75030832,
      0.85919187,
      -0.40223323
    ],
    "51": [
      -0.82551085,
      0.07977242,
      0.21364507,
      -0.30493025,
      0.4838055,
      0.20580341,
      -0.3129286,
      -0.89131541,
      -0.56633767,
      -0.33966302,
      0.63878446,
      0.63272629,
      0.73977062,
      0.22068694,
      0.28322454,
      -0.88669909,
      0.12635697,
      0.24895772,
      0.1392726,
      0.62185285,
      -0.14259333,
      0.00972131,
      0.27132487,
      -0.37560322,
      0.40581889,
      -0.76711644,
      -0.91480709,
      0.17486155,
      0.37126876,
      0.48963738,
      0.96364046,
      -0.12204373
    ],
    "52": [
      0.92542707,
      0.64544804,
      0.46443523,
      0.76191873,
      -0.68183009,
      0.19711649,
      -0.80866295,
      -0.46220389,
      0.27978868,
      0.91170286,
      -0.32215141,
      0.56165231,
      0.50961162,
      -0.88343271,
      0.38617686,
      -0.95724004,
      -0.36843854,
      -0.89060023,
      0.02098788,
      0.9510099,
      0.84862993,
      -0.82676074,
      -0.27340184,
      0.55444869,
      0.90010792,
      0.27861012,
      -0.8754959,
      -0.33786381,
      -0.49796019,
      -0.95755624,
      0.91073274,
      -0.97070891
    ],
    "53": [
      0.53397977,
      -0.57165462,
      -0.53621287,
      0.52823928,
      -0.01776914,
      -0.41558613,
      -0.62220053,
      0.15421777,
      0.75966506,
      -0.91431453,
      0.61928524,
      -0.53908498,
      0.44666216,
      -0.07339043,
      -0.34954039,
      -0.40796612,
      0.80418668,
      -0.45270074,
      -0.75708731,
      -0.35092611,
      -0.56576821,
      -0.31086166,
      -0.34334388,
      -0.57184983,
      0.82011765,
      -0.32387352,
      -0.54748265,
      -0.53192951,
      -0.36837758,
      0.63105988,
      -0.01302153,
      0.68892554
    ],
    "54": [
      0.78202717,
      -0.84592996,
      -0.57810339,
      0.8826589,
      -0.78925722,
      -0.52215249,
      0.77736268,
      0.86613121,
      -0.46203431,
      -0.95742094,
      -0.07898805,
      -0.3012729,
      0.73751939,
      0.79299694,
      0.79710127,
      -0.66286136,
      0.87099208,
      0.68589745,
      0.43121721,
      -0.91151375,
      -0.89698618,
      0.91377923,
      0.38503769,
      -0.00920897,
      0.68662133,
      0.87784186,
      0.45031397,
      -0.67789493,
      -0.47495869,
      -0.34570949,
      0.15079835,
      0.58278176
    ],
    "55": [
      0.75100284,
      -0.24456183,
      0.00327301,
      0.94311123,
      -0.51536128,
      -0.35487833,
      0.28006726,
      0.81711811,
      -0.65882738,
      -0.74225638,
      -0.11706713,
      -0.36085541,
      0.76801663,
      0.74435781,
      0.93219271,
      -0.86354639,
      0.95850925,
      0.71035453,
      0.38783669,
      -0.49480383,
      -0.91807362,
      0.90221668,
      0.33685534,
      0.13095298,
      0.89563462,
      0.92223326,
      -0.61684685,
      -0.62956392,
      -0.00926262,
      -0.81303682,
      0.74750264,
      0.72373116
    ],
    "56": [
      0.59608497,
      -0.36463392,
      -0.45849251,
      0.28847939,
      0.34616477,
      -0.05615348,
      -0.62366493,
      0.53899196,
      0.46341457,
      -0.77444238,
      0.19344564,
      -0.54337282,
      -0.07909219,
      0.51635774,
      -0.28380088,
      -0.5044252,
      0.76461959,
      -0.56288124,
      -0.67960363,
      0.06455463,
      -0.46857324,
      0.0958303,
      -0.38021921,
      -0.55044292,
      0.74854491,
      -0.45815151,
      -0.19718063,
      -0.32000495,
      -0.44106545,
      0.70728274,
      -0.23654516,
      0.50718839
    ],
    "57": [
      -0.21951562,
      -0.16384497,
      -0.28300676,
      -0.37236466,
      0.40455318,
      0.30753981,
      0.7278205,
      -0.66742792,
      0.54921203,
      -0.34340872,
      -0.75102022,
      -0.73461161,
      0.16432985,
      -0.14180512,
      0.39786271,
      0.90504224,
      -0.15763848,
      0.01009553,
      0.78544644,
      -0.38286102,
      0.78344987,
      -0.31807258,
      0.55458866,
      -0.21381029,
      0.51725822,
      0.52274955,
      -0.28101417,
      -0.0673428,
      0.69493521,
      0.75976913,
      -0.76019209,
      -0.13524169
    ],
    "58": [
      -0.87128493,
      0.30381766,
      -0.35256107,
      -0.83005995,
      -0.39120635,
      0.90895218,
      -0.68814367,
      -0.9047155,
      0.95212245,
      -0.08344778,
      -0.78290791,
      -0.60844132,
      0.72243017,
      -0.51938233,
      0.88561409,
      0.44299906,
      0.25789866,
      -0.47927271,
      0.87595974,
      -0.14833583,
      0.45160462,
      0.07809795,
      -0.1072572,
      0.76893048,
      0.63561683,
      0.91893774,
      -0.95158946,
      0.12427482,
      0.84675242,
      0.8541995,
      0.11210876,
      0.44113176
    ],
    "59": [
      0.80678835,
      -0.72004979,
      0.40062253,
      0.56583025,
      -0.40244036,
      -0.33357645,
      0.4510275,
      0.08516552,
      0.83791289,
      -0.46136959,
      0.08179362,
      0.53061258,
      0.01444167,
      -0.911529,
      -0.58589272,
      0.11558454,
      -0.3251585,
      0.2315321,
      -0.24126784,
      -0.47984121,
      0.83965369,
      -0.04063974,
      -0.13567831,
      -0.31334771,
      0.09617146,
      -0.00861553,
      -0.43525489,
      -0.70833357,
      0.42493848,
      -0.22436755,
      0.4827743,
      -0.27721787
    ],
    "60": [
      0.82612277,
      0.05406684,
      0.82083239,
      0.76538922,
      0.09125023,
      -0.58643977,
      0.1578976,
      0.07426198,
      0.57520211,
      0.36545036,
      -0.09594807,
      0.32923584,
      -0.10459217,
      -0.80341761,
      -0.63398998,
      -0.12412229,
      0.08885123,
      0.10439223,
      -0.33479509,
      0.06475009,
      0.88666288,
      0.18488363,
      0.19061175,
      -0.4732919,
      -0.29677323,
      -0.26499078,
      -0.61559784,
      -0.76644851,
      0.43983103,
      -0.29944797,
      0.52124675,
      0.0747032
    ],
    "61": [
      0.70980186,
      -0.57521056,
      0.46858538,
      0.29917615,
      0.73431958,
      0.60995689,
      0.66343804,
      -0.71377442,
      0.72528757,
      -0.07802969,
      -0.17791261,
      -0.39140193,
      -0.1826699,
      -0.85121496,
      0.39234818,
      0.76155723,
      0.02443754,
      0.59679999,
      -0.24359398,
      -0.14085591,
      0.74150792,
      -0.36236833,
      -0.28345386,
      0.17118843,
      0.85059189,
      0.35192998,
      -0.87835859,
      -0.29762873,
      0.89109577,
      -0.00583962,
      0.78941778,
      0.02084685
    ],
    "62": [
      0.49115322,
      0.44001539,
      -0.89777076,
      -0.17089866,
      0.56281724,
      -0.17127812,
      -0.09017534,
      -0.84921051,
      0.79461425,
      0.20426797,
      0.37462049,
      -0.02826181,
      -0.47152325,
      -0.14556802,
      0.31548642,
      -0.21641919,
      -0.87123612,
      0.6942533,
      0.72771603,
      0.10161673,
      -0.44743495,
      0.32741303,
      -0.9049347,
      0.71321618,
      0.3367688,
      -0.23699454,
      -0.24185645,
      -0.11496408,
      0.88825343,
      -0.85105552,
      0.27644086,
      -0.62844676
    ],
    "63": [
      0.83522531,
      0.33889065,
      -0.90220235,
      -0.09426587,
      0.57863748,
      -0.3981299,
      -0.00112488,
      -0.92738561,
      0.61649552,
      0.30781184,
      0.04889795,
      -0.32302489,
      -0.15108378,
      -0.1988209,
      0.20238688,
      -0.51233276,
      -0.74417919,
      0.39219913,
      0.65984392,
      0.18242493,
      -0.44349322,
      0.14826946,
      -0.89409228,
      0.67154369,
      0.24163542,
      -0.26857277,
      0.2325253,
      -0.28855497,
      0.41309674,
      -0.84991975,
      0.33571918,
      -0.79080339
    ],
    "64": [
      -0.40418946,
      -0.79866862,
      -0.18775157,
      0.29323836,
      -0.54800631,
      -0.5029881,
      0.81328676,
      0.68797757,
      -0.31774221,
      -0.92061876,
      0.12817042,
      0.42459532,
      0.76754134,
      0.63524138,
      0.62681214,
      -0.6161486,
      0.0378368,
      0.83124631,
      0.5435062,
      -0.68629688,
      -0.53647962,
      0.66912398,
      0.26792069,
      -0.32521917,
      -0.27035489,
      -0.12193028,
      0.68267996,
      -0.12329438,
      -0.10583299,
      -0.24158702,
      0.47888928,
      -0.42476425
    ],
    "65": [
      0.36391196,
      -0.61078309,
      -0.18013,
      0.42807613,
      -0.78666668,
      -0.39811905,
      -0.10535858,
      0.57543318,
      0.81865797,
      -0.61416274,
      0.35495291,
      0.58117604,
      0.19088721,
      -0.79841476,
      -0.66166894,
      -0.05144218,
      -0.24815013,
      -0.17460428,
      0.35838126,
      0.00408743,
      0.58810453,
      -0.34171493,
      -0.30432835,
      -0.50064068,
      -0.04602786,
      -0.06069762,
      0.12494297,
      -0.05971213,
      -0.08328534,
      -0.37196241,
      -0.291614,
      -0.57985706
    ],
    "66": [
      0.46039225,
      0.22266039,
      0.77944398,
      0.455885,
      -0.24734668,
      0.08341968,
      -0.6830253,
      0.58595673,
      0.55973753,
      0.63284078,
      0.13258487,
      0.54770249,
      -0.3671075,
      -0.40459279,
      -0.41165367,
      -0.48077149,
      0.4704927,
      -0.37385937,
      -0.07674622,
      0.79430237,
      0.5030718,
      0.07023418,
      -0.49994196,
      -0.25683652,
      0.020684,
      -0.3742086,
      -0.45716624,
      0.22733814,
      0.00513642,
      -0.42308474,
      0.12109852,
      -0.35425395
    ],
    "67": [
      -0.3240711,
      0.15442772,
      0.17146664,
      -0.65571801,
      -0.62147542,
      -0.11353358,
      0.73583186,
      -0.76268313,
      0.07999187,
      0.23052633,
      0.38737523,
      0.40684878,
      0.14324943,
      -0.87255704,
      -0.73520057,
      0.15649807,
      -0.45428916,
      -0.0295072,
      -0.80554531,
      0.0057628,
      -0.83825399,
      -0.68173364,
      0.20593638,
      0.5697594,
      -0.06274016,
      0.52916769,
      0.53552018,
      -0.75207135,
      -0.34159011,
      0.68047058,
      -0.54707121,
      0.15855358
    ],
    "68": [
      -0.33831162,
      0.15087868,
      0.03358968,
      -0.57568858,
      -0.6947703,
      -0.42047979,
      0.80771125,
      -0.73908837,
      0.02462489,
      -0.02598036,
      0.32509766,
      0.37826028,
      0.4008389,
      -0.90597434,
      -0.77093781,
      0.16165191,
      -0.47687044,
      -0.01380366,
      -0.73848014,
      -0.13316026,
      -0.83921522,
      -0.74454086,
      0.35811673,
      0.41733674,
      -0.01468101,
      0.6137592,
      0.58330714,
      -0.8269339,
      -0.404567,
      0.57071425,
      -0.59139565,
      0.14609156
    ],
    "69": [
      -0.31452759,
      0.79131969,
      0.62731949,
      -0.21630459,
      -0.40041772,
      -0.66622588,
      0.64483285,
      -0.76796206,
      -0.42149358,
      0.62786544,
      0.2084679,
      0.19134405,
      0.46573845,
      -0.86530197,
      -0.75412709,
      -0.13432664,
      -0.02374782,
      -0.0982868,
      -0.77075312,
      0.42067019,
      -0.81710146,
      -0.70948304,
      0.57224705,
      0.25099631,
      -0.13376871,
      0.54801013,
      0.19126947,
      -0.876631,
      -0.33454301,
      0.32684251,
      -0.42592876,
      0.46711183
    ],
    "70": [
      -0.51983994,
      0.3083177,
      0.13643515,
      -0.6415149,
      -0.00469206,
      0.45840138,
      0.2784822,
      -0.61233756,
      -0.57040522,
      0.77779841,
      0.3906954,
      0.59047491,
      -0.66490418,
      -0.82875849,
      -0.11198488,
      -0.01041698,
      0.29355551,
      -0.14029584,
      -0.84784683,
      0.81856714,
      -0.9185907,
      -0.75644235,
      -0.1766094,
      0.94230864,
      0.49132201,
      0.66247393,
      -0.37492629,
      -0.66221189,
      -0.40827301,
      0.37931937,
      -0.38355492,
      0.07507043
    ],
    "71": [
      -0.35118532,
      0.18384817,
      0.0415658,
      -0.59785511,
      -0.6641025,
      -0.25447736,
      0.76575094,
      -0.75249741,
      0.04390193,
      0.08117462,
      0.35888286,
      0.40520211,
      0.35580341,
      -0.91338641,
      -0.70363939,
      0.11536634,
      -0.45715041,
      0.00185579,
      -0.74578216,
      -0.01362819,
      -0.85131344,
      -0.75328301,
      0.24898188,
      0.48268099,
      0.13704002,
      0.64547943,
      0.47883908,
      -0.79807402,
      -0.30772805,
      0.50580171,
      -0.48419306,
      0.08139144
    ],
    "72": [
      -0.23777008,
      0.84954029,
      0.78115595,
      -0.54682837,
      0.02009712,
      0.03253179,
      0.4200598,
      -0.64300397,
      -0.5958069,
      0.898886,
      -0.1021855,
      0.29400206,
      -0.18906719,
      -0.64782964,
      -0.56959677,
      -0.33759717,
      0.06360414,
      -0.20765402,
      -0.81040436,
      0.78695592,
      -0.83681369,
      -0.45553291,
      0.27572242,
      0.55990267,
      0.02420753,
      0.44593859,
      0.15380756,
      -0.70643373,
